[ 0.28971754  2.1766179   0.41342438 -1.55475621 -0.72331708  0.04186565
 -0.97769896 -1.10150225  0.38211992 -0.98427649] [ 0.49320516 -0.70361472 -0.95830536  0.12993108 -0.78816051 -0.7670261
 -0.08507702 -0.28502057 -0.24574195  0.45267304] [-0.48950947 -0.76820545  1.59980361 -1.77692655 -0.75927142 -1.24526762
 -1.19507955 -1.11982922  0.77867841  0.65767748] [ 1.75053664 -0.51936382  1.15225412 -0.53278588 -2.80284597 -0.41475656
  1.38120973 -3.52018588  1.61214783 -3.05760372] [-1.07645631 -0.36549053 -0.26526095 -0.11877529  0.49360274  0.27695134
 -1.81360438 -1.23866149 -2.3972068  -0.75675354] [-0.59676976  0.54746144 -0.5618352  -1.83515416 -2.07830528 -0.55022216
 -0.90662673 -0.00526438 -1.78340871 -0.59967819] [-3.40199881 -2.72672987  1.23363764 -1.74902688  1.12103067  1.03051503
  0.72799973 -2.39084077 -1.13426596  1.36840229] [-2.28689293  1.23054384 -2.49726813 -1.64939203 -0.8901316   1.28895712
  4.09461755 -0.72971676 -0.60647807 -1.22549409] [-0.36588898 -0.93008681  0.85893354 -1.23148119  1.15493829  0.20219853
  0.60915565 -1.02045446  1.06112666 -0.66824363] [ 1.51351526 -1.68418966 -2.7764391  -1.50016835  1.64128991 -1.58506105
  0.56692697  0.92400504 -1.69310431  1.59461138] [-0.24019031  2.59273218  1.03291194  1.42526352 -1.56337226 -1.38498061
 -0.99428639 -0.64410689 -0.61539146 -1.57714036] [-0.4086174   0.66953543 -1.9123999  -0.98918695  2.70854293 -1.29085851
 -1.68570245 -1.81475802  1.91249932 -2.83548994] [ 2.43033705  0.82755379 -0.61338316 -2.53242252  1.38589401 -1.21211778
 -2.57438953 -2.39001992  1.99211097 -1.37741703] [-1.64089153  0.27559478 -1.40664007 -1.95517556 -0.29017872 -1.19394909
 -0.32576848  0.05838473 -2.03344908 -0.827713  ] [-0.17896178 -0.53797257  0.12922176  1.32859346 -2.56479711 -2.64194507
  2.20533666 -1.38745595  2.0553432   1.91142117] [ 2.57804809 -1.70003801  2.65724787 -0.6762555  -0.52081847 -2.60087998
  0.76494124  1.22203667 -4.21427381 -2.55006749] [ 0.71810359 -2.29727319  0.4984873  -1.01350162 -3.13396617  1.95785102
 -2.26848488 -1.2794241   1.17859563  2.4364765 ] [-2.37523369  0.83050937 -2.57563466  1.92755683 -3.10153909 -3.31064273
 -1.29696658  2.24910339 -0.78117113  3.20646019] [-2.4966934  -1.43702776 -1.85514207  0.21712783 -1.27121349  2.36012563
 -1.68302714  2.99961816  1.32152818 -1.86036434] [ 2.10774052 -1.89268836  0.06149254  1.61453114 -0.32902453 -1.83204532
 -2.36482345 -1.22765621  0.69606304  0.49379579] [-2.81745511 -0.27721364  1.15997587 -0.5448472   3.09161046 -2.53035536
 -2.30109343 -0.06175331 -2.24995403  0.18500939] [-0.60106723  0.56481109  0.17081543 -1.38478487  0.40218358  0.20861374
  0.69332921  0.61438431 -0.6818889   0.57090189] [-0.85069699  0.51873301  0.38389236 -3.21685932  0.89104351  0.73092101
  0.088101    0.17856099 -2.01291921 -2.0466273 ] [-0.23283809  0.50842023 -0.41321012  2.92084617 -0.33067128 -0.34234939
 -0.94273684 -0.00754131 -1.73022817 -0.91783521] [ 0.15592865  0.04218891 -0.61545668  0.8711272   0.55018113  0.28822232
 -0.29466078  0.32366638  0.41877027  0.33082853] [-0.27443954 -0.55574574 -3.36401984 -0.95479137 -1.45229161 -1.4272557
 -0.14766964  0.62739952 -1.08000647 -0.16889351] [ 0.96391468 -1.92163109  0.49280535  2.43890551 -2.72933249  1.88143599
 -2.55200628  2.58222585 -2.78842272 -3.65534007] [-1.27243218  2.35947939 -0.32329454  0.92024464 -1.51699156  1.42230203
 -2.16851068 -2.26250247  1.58517304 -1.92261914] [-1.6802635  -0.76197381 -0.90514325 -1.50948577 -0.47651316  0.10604685
 -1.43085951  0.10493977 -1.82551587 -0.44354472] [ 1.36411351 -2.00671567 -4.25468948  2.25693763 -0.29382573  1.7611341
  1.65598423 -2.78462549  1.28687039  1.33572066] [ 0.27240601  0.18618996 -0.51561834  1.1700252   0.21313434 -1.11131508
  0.19915261 -0.06744325 -1.27905171 -0.5668366 ] [-2.95432617 -1.38635677  1.84720512  1.51407611 -0.75234199 -3.68427873
  1.61849774 -0.33219647  2.45489473 -1.54490229] 
