[-2.01849543  0.67230652 -1.10697837  0.04085999  0.99725473  0.38031705
  0.67638103 -1.94537957 -0.72830279 -0.19703272] [ 1.78674538 -1.11488071  0.82684507  1.72667041 -2.47001479  1.37111377
 -2.17001919  0.41073093  1.1455054  -1.58891316] [-0.82986283 -0.75277624 -0.6566139  -1.02096228 -1.0443205   0.07191867
 -0.83434801  0.00836554 -1.28763666  0.19782904] [-1.86484988 -1.59283362  0.39296649 -2.73369476 -0.32683875  1.93066588
  1.67997363  1.27939658 -1.01469684 -0.0138062 ] [-1.10460981e+00  1.69012430e-01  2.04569626e+00  1.23399343e-01
 -5.10700580e-01  3.96289028e-01  4.96931873e-01 -2.95899240e-01
  9.80518271e-04 -1.34190962e+00] [-0.82417059  0.03280404  2.52942185  0.40546184 -0.16357809  1.85965291
 -2.09726177  0.30259029 -1.41056211 -0.89637916] [ 2.68498669 -1.46155366 -0.74452946  0.92853907 -0.8421178  -1.21080097
  1.78261788 -0.74441382 -1.14920708 -0.4557756 ] [-1.37309538  1.52734688  1.79508806 -0.4685891  -1.47591168 -1.38726942
  1.57135478 -1.16187465 -2.12073694 -1.20954807] [-3.31759294e-02  1.90252665e-03 -1.14749735e-01  4.40240045e-01
 -2.23172776e+00 -2.56243548e+00 -1.14917166e-01  1.32817671e+00
  4.75027545e-01  1.41216059e+00] [ 1.38230127  1.37079246 -1.6491653  -2.26069068 -2.23511331  1.10458671
 -1.59416889  2.36793634  0.86062302 -1.52977533] [-0.62399873  0.43313119  0.49010996  0.77033513 -0.54208863 -0.1071748
 -0.51735507  0.77342442 -0.53683557 -0.20284621] [-0.42252802  0.48561584 -0.23906385  2.13981331 -2.06400362 -0.86674254
  0.43890913 -1.56640386  0.7507502  -1.84269407] [-0.44698568 -0.16121911 -0.42458407 -0.65033639  0.20449645 -0.48481883
  0.51683001  0.15474065  0.16293999 -1.65811778] [-1.25205601 -1.59459704 -0.9299114  -1.04318875  1.67146256 -1.33815163
 -2.01749273  2.19556138 -1.49383049  1.98596866] [-1.42510827  2.77778724 -0.28672407  0.02291582  0.82824217  0.07506971
 -1.60866625  0.30413008  0.34091597 -0.19721007] [ 0.57368073 -0.06493104 -1.88603679  0.66060776 -0.41274903 -0.14663912
 -1.43890558 -0.29820868  0.75904927 -2.11261748] [-0.69731289 -0.10023109 -1.21536469 -1.20431595 -0.68858268 -0.73553978
 -0.45386864 -1.5842359  -1.77108306 -0.66486903] [ 0.11708879 -0.9848014   0.06706636 -1.20704053 -0.58650643 -1.6917965
  0.55140896  0.01992491  0.82069209  0.16914043] [-0.28350092 -2.17864033  1.28680581  0.99665974 -1.006247   -1.3945321
 -2.03503652 -0.73555816  0.79614289  1.86130831] [-0.95921007  0.87919211 -0.3907926   0.86109806  1.25726254 -2.31093281
 -1.75275252  1.63036744 -2.27689678 -2.56763879] [ 0.5299202   0.01515158  0.42513274 -0.00759089  0.2298462  -1.0223873
 -0.76656583 -0.97784934 -0.12465366  0.07022123] [ 1.39247925 -1.44596009 -1.57887053  1.21473358  1.13257235  0.57708826
 -1.80275686  0.59419595 -3.39153485  1.29483129] [ 1.91044062  0.63953005  1.56612589 -2.56113924  0.49131756 -1.30193162
 -1.36670486 -1.21074123 -1.20627773 -0.22235367] [-1.8880568  -1.33845983  0.28588947  1.2079195   1.18544065 -1.68944078
 -0.92211873  0.15769277  1.68859261 -0.9641382 ] [-1.9845432  -0.86894334  0.2930053  -1.00077067 -1.22037286  0.94466256
 -0.89109152 -2.00089818  1.92030858  1.51429128] [-0.94956842  0.21390854 -3.15282405  1.25604288 -1.53596277  1.69055631
  1.52698602 -2.69594289  1.22752005  1.63028252] [ 0.28458222  0.31510737  0.19340805 -0.48366972 -1.34280486 -1.62210024
  0.15598155 -0.72032824  1.76735963  1.71413964] [-1.23410188e+00 -7.71706665e-04 -3.49926904e-02 -1.04014377e+00
  5.04656562e-01  5.77204021e-02  1.00002062e-01  4.76017332e-01
 -1.32721521e+00 -1.79393024e+00] [-1.22658114 -0.34906785 -0.4503253  -0.79120386 -1.59447043 -0.60579214
 -1.175686   -1.39265527 -1.32819675 -0.30129772] [-0.03888616 -0.0236858  -0.77884875  0.53253989  0.06886281 -1.04139858
 -0.91709777 -0.44426817 -1.44187615  0.16412769] [ 0.85293719 -2.29769894  0.46960312 -2.38615695  2.26709397  0.94904901
  1.77000349 -2.34566633  0.77441465  0.00280174] [ 1.37412552  0.2753008  -1.62311752 -3.1488208   1.61463246 -1.1731857
  0.48485327 -2.04179304  1.23186955 -1.10968769] 
