[-0.22524878  0.33799723  0.53717229  1.06405167 -0.81354958  1.13687305
 -1.04470313 -1.07222845 -0.6759744  -0.99503197 -0.14616401 -1.55145193
 -0.45146401  0.57979192  1.51001715 -0.43828514  1.2319497   1.91903644
  0.95000849  0.99303678 -0.90882186  0.1438119  -0.80613253  0.64382608
  0.29179018  0.12105735  0.42592151  0.5679819  -0.76152754 -0.56544201
 -0.87680234  1.24854458] [ 0.59514527  0.90831748 -0.41826559 -0.12206208  0.53399516  0.71215299
  0.92582429 -0.60475322  0.11142533 -0.11015019  0.35130137  0.49793087
  0.48093808 -0.73138545 -0.81089568  0.2970116   0.41965425 -0.69355507
  0.36502784  0.87856927  0.55235719  0.12056071  0.68524627  0.49188204
  0.91646177 -0.97228466  0.02276577 -0.61625474 -0.13304114 -0.16155947
  0.54626616 -0.28310796] [ 0.16331025 -0.58041735 -0.10997574  0.70265101 -0.85768052  1.02368659
 -0.32912297  0.60564776 -0.38883166  0.9250341  -0.6115263  -0.18617211
 -0.67756047 -0.49533043  0.34493809  0.58076113 -1.08738863  0.47390405
  1.05052212 -1.27632307 -0.45912235 -0.68607831  1.04953822 -0.4111812
  0.53841696  1.09357498  0.7997242  -0.61904839 -0.58068197 -0.04508712
 -0.87245301  0.67751077] [-1.08289984  0.78422271  0.68168161 -0.31127327  0.67065832  0.51553589
  1.25371424 -0.76547284 -0.15366625 -0.64286481 -0.15340459 -1.31714071
 -0.96263303  0.76153562  0.13877965 -0.32556312  1.31146443  0.55041341
  0.55630011 -0.28166424  0.28521884  0.54773959 -0.6575032   0.85831418
 -0.12023612  0.16218315  0.00293914 -0.71846547 -0.5479066   1.15846004
  0.88135361 -0.67754629] [-0.33678287 -0.91037669 -0.23103666  0.11434839  0.64735386 -0.87195642
  0.41381984 -0.45533839 -0.74322019 -0.53424858 -0.76684636  0.18288095
 -0.16275819 -0.08999821 -1.01470825  1.12115842  0.86168094  0.35930792
 -0.42388099 -0.4584283  -0.29349136  0.79407337 -0.83191082 -0.51619479
  0.58348473  0.67278339  0.63609764  0.20863141  0.26411667 -0.29698504
 -0.86328222  0.57913476] [-0.09320348 -0.82388137 -1.2069464   0.07458999  0.72748603 -0.40579784
 -0.43176717 -0.44819676 -0.92361685  1.01757315 -0.65012455 -1.43019406
 -0.65509835 -0.37230942 -0.79619711  0.61781586  0.18973019 -0.42285816
 -0.43067882 -0.13381787 -0.41410074 -0.4561866   0.68340315 -0.59918241
  0.58956413  0.0159209   0.54500277 -1.28944376 -0.59834478  0.27159486
  0.27562381 -0.37585588] [-0.78624223  0.90009876 -0.14528773 -0.68869855 -0.09960641  0.86321155
  0.29619912  1.07866599 -0.30925202  1.03985816 -0.55511231 -1.15052786
 -0.46278558 -0.4469374  -0.83372708 -0.05285999 -1.13761454 -0.60178521
 -0.48104895 -1.0594883   0.62935373 -0.79479557  1.36097404  0.52970238
  0.85239434  0.0240489   0.03165659 -0.39477373  0.75152991 -0.03606369
 -0.40237946 -1.03731439] [-0.12930035 -0.92456244  0.92059961  2.67438568 -0.46807798 -0.65142324
 -0.69543934 -0.6329172   0.91292507 -0.43603218  1.40785826  1.20824281
  1.47354244  0.5110223   0.98928687  1.34700207  1.4545737  -2.51090699
 -0.53236841  1.14092951 -0.51698765  0.6814237   0.36167289  1.17694844
 -0.5262561  -0.2727519   1.29332428  1.45543722 -0.79121178  1.02350171
  0.36140544  1.35801863] [-0.42925325 -0.68973748  0.96916634 -1.28075555  0.47968699  0.4209772
  0.08740955 -0.73202625  0.43287325  0.7086746  -0.67931445 -1.39432646
  0.20181384 -0.55547928 -0.39660127 -0.38460774 -0.75923647  0.89953
 -1.65097946 -0.29706502  1.16784519 -1.0100133   0.66172328  0.18527253
 -0.33625668 -0.03498534 -0.28906967 -0.35263965  0.04726964 -1.51690807
 -0.40595031 -0.33418297] [ 0.21465284  0.72581512 -0.80553456  0.10938677 -0.65976529 -0.0407029
  0.09344389 -0.2826797  -0.6738306   0.59264365 -0.4426163  -0.20753837
  0.26358095 -0.36658669 -0.8143138   0.10025131 -0.27991509  0.31584071
 -0.3188403   0.43288626  0.44801326 -0.57181612  0.98276247 -0.15948787
  0.47477035  0.3934511  -0.52519002  0.12727718  1.02279368 -0.3592071
  0.46674093 -0.27028509] [-0.33122817 -0.50493256  0.7831587  -1.13326101 -0.11490867  0.58361682
 -1.45540412 -1.78655985 -0.78776849  1.34156913 -0.41423559 -0.12294821
  0.06909056 -0.59078551  0.47875412  1.25472099 -0.03146451  2.12362212
  0.39158851  0.94299577  0.3134454  -0.84665859 -0.84819593  0.75069627
  0.47607015  1.2526654   1.14114796 -0.91153688  1.0041295  -0.53433094
  0.68478441 -1.15226741] [ 0.35675422 -0.82467569  0.70550256 -0.96398592  0.93592614 -0.97077972
 -0.39133483  0.20370741  0.08275673  0.61548429  0.45891063  0.04203017
 -0.05812746  0.08893239  0.20260947  0.43058669 -0.67702838  0.5343364
  0.39332223 -0.08326919  0.33892501 -0.16208115 -0.7173485  -0.75935381
 -0.44635691 -0.14522008 -0.60983572 -0.65262914 -0.34692621 -0.96158284
  0.422071   -0.5767655 ] [ 0.09368627  0.42065938  0.12663334 -0.6147584   0.06003894  0.9687973
 -0.80273954 -0.65698288  0.23736585 -0.4107627   0.13515209  0.25925399
  0.07565597 -0.25136463  1.30787588 -0.21442457  0.70745447  1.241006
 -0.04518717  1.10138783 -0.0090057  -0.33495671 -0.48846383  0.18565619
 -0.21220499 -0.3449272  -0.53649923  0.60981481 -0.17331571  0.20819694
  0.54338496  0.30497181] [ 0.16070879  0.47824018 -0.72681509  0.63956171  0.29037084  0.09120537
  0.76375509 -0.67439028 -0.5149185   0.06350788  0.41225905  1.06567541
  0.78698142  0.77319671 -0.86025608  0.55510659 -0.79091075 -0.67775648
  0.77427233 -0.07421595  0.44743901  0.31977121 -0.10484164  0.71850187
 -0.10283246  0.4825981   0.46348719 -0.53372885  0.32403297 -1.19479434
 -0.67677219 -0.21559041] [-1.08007125 -0.97002507  0.14157082 -1.02809182  0.48124414 -0.49925433
 -1.25627985 -1.64514774  0.19846471 -0.11112141 -0.02908069  0.41904258
  0.38753879  1.08200932  0.64931718 -0.46633744  1.41476721  1.00500912
  0.61385471  1.65549385  0.55237038  0.70426922 -1.38461728  0.06005843
 -0.91684217 -0.49598322  0.95721998 -0.67563017  0.78789718  0.37338723
  1.11592256 -0.19588624] [-3.93001536e-01  2.10150126e-01  5.65834308e-01 -8.82400259e-02
 -8.71583715e-01  9.47245446e-01  8.85806537e-01  5.79699850e-01
  5.47484083e-04 -1.03487670e+00 -6.90030669e-01  1.20785555e+00
 -6.24792394e-01 -1.41160245e-01 -5.94130386e-01 -1.11161947e+00
  7.24720075e-01 -7.90091484e-01  1.10947393e+00 -4.23042395e-01
  3.47717461e-01 -6.22531485e-01  7.71659444e-01 -8.48650807e-01
 -7.02923093e-01 -1.05821482e+00  2.58977470e-01 -5.22024717e-01
  1.10163941e+00  5.61267117e-02 -5.26983931e-01  4.37224217e-01] [-0.90341398  0.08588834 -0.84013063 -0.30899427 -0.5689597   0.66915373
  0.88028541  0.21268165 -0.65963251  0.35978814  0.32985919  1.08248965
  0.43561116  0.78781679  0.48456848  0.24595722 -0.08002825 -0.19082985
 -0.09791358 -0.07419992 -1.30738109 -0.18254399 -0.45709307  0.10762471
 -0.35476429  1.03886479 -1.44380348 -0.37302385  0.53252035  1.14523349
  0.31377298  0.24790331] [-0.34471619 -0.10385565 -0.78471022 -0.27104555 -0.51812078 -0.05243628
  0.50194612  0.32952137  0.67376595  0.72949256 -0.28643057  0.42079958
 -0.62826687 -0.84645321  0.67797578  0.11295311  0.6305407  -0.25771966
  0.50822163  0.14576407  0.59572878  0.80106259 -1.02013199 -0.773963
 -0.76239578  0.54021474  0.28473009 -0.33478251  0.94898695  0.52014836
  0.25280306  0.08639375] [ 0.04456917 -0.09867098  0.77053259 -0.42052781  0.1465257  -0.106662
  1.39707084 -0.90335734  0.83856557 -0.03236303  0.80698429  0.5987513
 -0.59713222  0.5418785  -1.50104313  2.25055416 -1.08209532 -1.28201702
  0.07536492 -0.59323388  1.64768822  0.21364455  1.94162672 -1.1821704
 -0.58665409 -0.70617949  0.0095437   0.20200008 -0.109743   -2.63592121
 -0.39878763  1.31648932] [-9.44294635e-01 -2.66935943e-01 -3.22086453e-01  1.23267705e-01
  4.77393637e-01  1.06457559e+00  1.36060750e+00 -1.34108134e-01
 -7.24579144e-01  1.02557715e+00 -1.20373835e+00 -1.03808912e+00
 -1.23337371e+00 -3.39878938e-01 -8.20080247e-04  1.64425967e+00
 -4.83126352e-02 -1.17907684e+00 -5.82948550e-01 -2.63050126e-01
  6.83608521e-01 -5.98659514e-02  8.97647737e-01 -1.07398478e+00
 -4.94303635e-01 -9.17370404e-03  1.05540196e+00 -1.50709324e+00
  1.69441022e-01  5.26794993e-01 -3.69678192e-01 -7.56831863e-01] [ 0.7251256   0.14355771  0.57372964  1.75104048 -0.67632969  0.76894332
 -0.82061345 -0.70534366 -0.79338438 -0.91515505  1.45631299  1.03710335
  1.11199271 -0.56168032 -0.16494522 -0.59297275  0.23919882 -0.5274039
 -0.21500113  0.41253868 -0.56893532  0.04742639  0.49234491 -0.97060823
  0.39569981  0.65671229 -0.64086491  1.26415343  0.73748542 -0.19159615
 -0.2160696   0.51399926] [ 1.29470221 -0.59598704 -0.64012264  1.61139436  1.29128142 -0.41219521
 -0.13715213 -1.17236088  0.63947263 -1.180454    1.20614721 -1.0299817
  0.25895986  0.14339795  0.15851789  1.24294468 -0.54248927 -0.49707084
 -1.09361874  1.15980758  1.0171669   0.83138899  0.30872233  1.48201068
 -0.14840143 -1.47197977  0.32833136 -0.22434388  0.66273142 -1.79169883
  0.86045151  0.68543774] [-0.31555523  0.17621715  0.17059192  0.95074948 -0.12268022  0.95839434
 -0.96162166 -0.49706226  0.01599629  0.66354535 -0.58290897  0.86397677
 -0.16684658  1.00196984  0.17005495 -0.54443305 -0.02972707 -0.89442073
 -0.65485696 -0.51735536  0.49719077 -0.04810939  0.7328912  -0.21380495
 -0.51415063 -0.69973506  0.27423469  0.42931085  0.49648417 -0.56172038
 -0.11036346 -0.58274918] [-0.05094936  0.00653472  0.796829    0.76696908  0.63113698  1.19548044
 -0.60130817  0.20252518 -0.28085734  0.5272944  -0.43116795  1.01225631
 -0.37259862 -0.40409736 -0.12863031  0.50043848  0.17972114 -0.51838256
  0.30192016 -0.31670426 -0.45842139  0.73019733  0.13001182  0.1224279
  0.66030493  0.79649432 -0.882112    0.75401591  0.51724531 -0.73269125
  0.57801715  0.96246654] [ 0.91957097 -0.50166663  0.57590941  0.01792887  0.73247333 -0.0994261
  0.83577379  0.75935865 -0.58620124  0.18051564  0.00244318 -0.52615889
  0.30882609 -0.74065099  0.81523192 -1.00150473 -0.58294451  0.63316677
 -0.91038769 -0.45909324 -0.11386711  0.18366504  0.24659578 -0.2892537
  0.90083258  0.87646154 -0.57822677  0.77142906  0.7913582  -0.11097187
 -0.06116279  0.42755027] [-0.14718948  0.37330204 -0.40077755 -0.02402992  0.99067969  0.9201023
  0.20448858  1.53073897 -1.22433055 -1.1150346   1.16509493  0.25615187
 -0.88493321  0.60683693 -0.70038913 -2.29815163 -0.4707783   1.34715306
  1.11760403 -0.70326449 -0.23255335 -0.88485032 -0.88893412  1.96570362
 -0.99791663  0.84791084  0.30521528  1.87890823  0.26063168  1.49849348
  0.43014488 -1.53189158] [ 0.15233602 -0.99432899  0.41959528 -0.28210356  0.4044128  -0.19189206
  0.60149405  0.22273848  0.97263745  1.24803447 -1.41780573  0.70486987
  1.24351686  1.02292812  0.53816311 -0.51012343  1.28719589 -1.32422394
 -0.12997943  0.32568779 -0.22482946  0.45228005 -0.22237222 -0.30490751
 -0.14443719  0.35283736 -1.53923105 -1.07236952 -0.65000814  0.31747383
 -1.34946781 -0.3437759 ] [-0.95465901 -0.26128658  0.93467619  0.64499216  0.38696986  0.10042689
  1.81236584  0.97832579  1.13889073 -0.37868529 -0.66105281  1.64600051
  1.03077078  1.07660969  2.01902676 -0.30073355  0.45718757 -0.23097221
 -1.50195923 -0.03292391  0.54994219  0.45170591  0.2812335  -0.71799165
  0.48419038  0.54614418 -2.70844995 -0.24689521 -0.61599132  1.24823817
 -0.19782492  0.65949098] [-0.79656431 -0.66065624 -0.55240727  0.32161753  0.21922781  0.72147269
 -0.21795638  0.16024745 -0.70491578  0.86498678  0.53599393  0.55675158
 -0.3346915   0.96552776 -0.29332046  0.06941483 -0.35598353  0.82083269
  1.10572837 -0.77977278  0.47486086  0.11002814  0.16608186  1.03063126
 -0.34699391  1.03822692  0.95045746  0.16919724  0.88501977  0.90966835
 -0.26546415  0.22891849] [-0.85637459 -0.96629373 -0.7148698  -0.55785949  0.85728435  0.44398074
  1.14495231 -0.16620409  0.85864404 -1.24643549 -0.54336083 -0.48770073
  0.52912123  0.21474225 -0.48015062 -0.50292257  1.03275158 -0.44020807
  0.61481969 -0.13053474  0.77891886  0.37563039 -0.68441885  0.03929033
 -0.23072627 -0.06447775  1.03537384  1.00584064 -0.57569575 -0.80110237
  0.51424977  0.50490094] [ 1.69220294 -0.24467414  0.682704    1.13446163  1.04091602  0.83087849
  0.60707738  1.56437339  0.84016003 -1.60906642  0.33993892  0.72459918
 -0.38184166  0.04250549 -1.65824462 -0.10626781  0.16055551 -1.25461042
 -0.1950148  -1.9590617  -0.3084131   0.58091304  1.60223735 -1.08114814
 -0.33408918 -1.07259248  0.54700477  1.08122627 -0.33572187  0.21028924
  0.52792654 -1.50848231] [-0.07843052 -0.7082455  -0.37437797 -0.49067499 -1.20979291 -0.31392703
  0.51568546 -0.02120347 -0.17524335 -1.0027761  -0.06049989 -0.06838959
  1.00909945  0.78215578  0.76756238 -0.36906914 -1.08095336 -0.41637211
 -0.86268682  0.70570543 -0.77326233 -0.56752231 -0.53545229 -0.48142178
 -0.80023136 -0.27882678  0.20476499  0.12729548  0.22662209  0.43254679
 -0.48771933 -0.01831773] [ 0.17121225 -0.42835744 -0.56887483 -1.16066598 -0.95066216  0.88554307
 -1.23696814 -0.19268904 -0.24528252 -0.01185826  0.82494272 -0.41211198
  0.25269656  1.00315149 -0.48934397 -0.30274206  0.03921926  1.55189583
 -0.50629658  0.87782953 -0.1198632  -0.42571487 -0.43164102 -0.10122764
 -0.77901277  1.05514008 -0.19188375 -0.11201713 -0.00899632  0.83582108
 -0.16106906 -1.39635392] [ 0.87365672  0.83124811  0.17072768  0.16838143  0.42344253 -0.10563343
  0.4967534   0.9404228  -0.31828017  0.43882568 -0.28776781  0.56274725
  0.59170642 -0.00246148 -0.17507844  0.50416579 -0.93238218 -0.66247535
 -0.53225361  0.79554428  0.25478255  0.42205294 -0.35533794 -0.97591524
 -0.45977054  0.8502083   0.68507545 -0.7800484   0.27355901  0.63026306
  0.56935398 -0.77970612] [ 0.3752106   0.32030051  0.33098152  0.17364084  1.23997068 -0.61985782
 -0.98697971 -0.36910634 -0.20307666  0.16703345 -0.05892929  1.36315906
  0.93336793  0.29065182 -2.04167914 -0.02607646 -0.91267545 -1.44017319
 -0.55333011  0.15580763  0.53570358  0.7087487   0.22449578 -0.43887209
 -0.98801902 -0.04071192  0.35193127 -0.10124551 -0.48281877  0.07366426
 -1.00516978 -1.85569159] [ 0.41375939 -0.65719902 -0.01304284  1.23834484  0.2168599  -0.16005783
  0.35431464  1.02076562  0.0193573  -0.82551169  0.71734031 -0.60073019
  0.64506217 -0.35054546 -0.02511346 -0.02849351 -1.13499887 -0.45193289
 -0.52679694  0.26938994 -0.40434139 -0.91942571 -0.84902752 -0.95146534
  0.42653773  0.07321648 -0.92814154  0.58142886 -0.72753368  0.36754061
 -0.24413032  0.82382064] [-0.04754068 -0.97407455  1.20345447 -0.8647386   0.82210455  0.03133298
  1.40725857 -0.14102678 -0.06491415  0.34749965  0.44236458  0.26163586
 -0.0163843  -0.66000897 -0.01537287 -0.43943634  0.61149334 -0.77406472
 -0.79953031 -0.01196765  1.10457567 -1.01518094 -0.83764706  0.31710238
  0.70952984 -0.80747644 -1.83169797 -0.8079834   0.87038166  0.15239408
 -0.67914239  1.18030932] [ 1.03628812 -0.64791812 -0.90702882  0.09929505  0.24620691  0.04111639
 -0.25990768  0.83466223  0.19170328  1.18094043  0.20079909 -0.19917148
 -0.81809889  0.82081704 -0.32986316  1.17986829 -0.8932263   0.32639709
 -0.71136243 -1.0775381  -1.3925811  -0.96442869 -0.0601596  -0.22227167
 -0.51108674 -0.03894339 -0.28872081 -0.04859685  0.88420891  0.78026964
 -0.02844645 -1.15823132] [-0.73816418 -0.96640207  0.20861829 -0.68479859 -0.33147615  0.98655839
 -0.01593299  0.26613738 -0.54593353  0.63715985 -0.33303153 -0.0816771
 -0.67918187 -0.12509045  0.39780307  0.4981043  -0.77026685  0.61461107
 -0.88979236 -0.84106804  0.65032027  0.04390443  0.38868679 -0.23029544
 -0.00602479  1.21506084 -0.86939026 -1.09092654  0.75569654  1.54350608
  0.69654287  0.70579763] [ 0.50035771  0.78438522  0.88189994 -0.65060205  0.90818528 -0.64477427
 -0.60199229 -0.6188503  -0.55932027  0.74772579 -0.42610734  1.10069354
  0.74818619 -0.40458959  0.70053497 -0.23907618  0.56521967  1.11479646
 -0.54838333 -0.4386605   0.85683495 -0.95279724 -1.12097989  0.30471285
 -0.71263341 -0.7537413  -0.54966333  0.09791305  0.28980458  0.47454319
 -0.88020798  0.05598903] [-0.5207156  -0.78912353  0.22820051  0.25413531  0.61390144 -0.61209556
  1.23048681 -0.57105525  0.37012305  0.45540333 -0.25114518  0.41818613
  1.02923822 -0.32843436 -0.27553456 -1.34524219 -0.12481587  0.12874031
  0.81147884  0.8293343   0.14370152 -0.05864333 -0.55760545  0.02244578
 -0.37540286 -0.48354855 -1.53738739  1.28763277 -0.96690062  0.9974792
  0.03073299  0.51893643] [-1.11987872  0.41423017 -0.40578874  0.48889027 -0.01393022  0.08346917
 -0.15498887 -0.12894369 -0.98180319 -0.60333703  0.89880233 -1.35113398
 -1.59378415  0.97733148  1.04959926  1.4183526  -0.56928804  1.00611629
 -0.92536164  0.40839144 -0.17166306  0.05690759  0.10450427  1.5491304
  0.51051212 -0.53681734  1.0937033   0.50174594 -0.22374791 -0.19433416
  0.4846218   1.20556733] [ 0.05092102 -0.69454023 -0.65862148  0.29348463  0.46681893 -0.68335675
 -0.51728946  0.85806701 -0.67743845 -1.11970065  0.44375186  0.03033683
 -0.81936198 -0.22541007  0.59495926 -0.86284253  0.3615091   0.69472555
  1.00370199 -0.50704039  0.48656363  0.46617086  0.28631656  0.43736879
 -0.92463953  0.22650731 -0.78285368  1.099786    0.65307104 -0.14626493
  0.16179849  1.68280576] [-0.06367554 -0.29532241  0.4604534   0.21701229 -0.10703182  0.80769982
  0.4115366   0.42874116  0.96755787  0.74177665 -0.0267709  -1.47643815
 -2.19193397  0.98268622  1.62970614 -0.77615414  0.83675661  0.4241927
  0.63002516 -1.31771857 -0.11018195 -0.2726873  -0.45305785  0.01531242
 -0.99670638  0.84158409 -0.02181516 -0.5781873  -0.35342552  1.05857684
  0.78811479  1.31229763] [-0.41295476 -0.92861174  0.10562304 -0.82814445 -0.62852788  0.46176325
  0.68816639 -1.15201383 -0.13585314  0.41741027  0.66575839 -0.8275025
  0.82651296 -0.13056029 -0.6604296   0.89395569 -0.82199463 -0.44341416
 -0.58931214 -0.40070411  0.6567421   0.20149431  0.0106306  -1.07383862
 -0.94466204 -0.16330439 -0.26220959 -0.67771561  0.177693   -1.91082982
 -0.58362202 -1.09458671] [-0.02928938 -0.64178114  0.30187989  0.71473537 -0.09460156 -0.06858479
 -1.21802532  0.43541198 -0.72447767 -0.01852229  0.28139391 -0.36449097
  0.41510368  0.92389142  0.13658266 -0.83139359  0.11695857  0.55752113
 -1.19781976 -1.00872224 -0.40978401 -0.50036599  0.39827742  0.40011477
 -0.70406529 -0.23559047  0.23910002  1.41661235 -0.27725461 -1.56345384
  0.90717615 -0.56089161] [ 8.96535132e-01 -1.02564697e+00 -3.43518384e-04  6.22443999e-01
 -9.32546543e-01 -4.82889135e-01 -9.78729704e-02 -3.58301242e-01
  1.10668881e+00  7.55785827e-01 -6.60440570e-01  1.99287535e-01
  1.59935618e+00  9.37196622e-01  2.40853322e-01  2.89290518e-01
 -6.26177581e-01 -8.18682393e-01 -6.24327703e-01  1.44627351e-02
 -1.12784260e+00 -3.17070480e-01  8.28211089e-01 -1.32705321e+00
 -3.19455060e-01 -2.10260369e-01 -1.36610748e+00  8.13893178e-02
 -1.59545695e-01 -7.19024764e-01 -6.26381184e-01  3.85886386e-01] [ 0.96019726  0.69443378  0.43119323  1.05819144 -0.36989995  0.02518532
  0.86839682  0.07040804  0.92505672  0.15983083 -0.61149559 -0.3318044
  0.44957137  0.10829578  0.15796932 -1.01845649  0.99409606 -0.54296941
 -1.20858762  1.28401073 -0.833437   -0.66054395 -1.33229722  0.10252205
 -0.46451066 -0.81818488 -0.29803996  1.19677205 -0.0294197   0.81667662
 -1.02292219 -1.33194575] [ 0.309299   -0.53813791 -1.34048531 -1.24036954  0.99394238 -0.44505082
  0.25411673  0.03758506 -0.50604442 -0.99035275  0.11219727  0.1861255
  0.82878098 -0.90238191 -1.16115883 -1.58628468  1.0610498   0.5840771
  0.26844652 -0.01828061 -0.82535692 -0.86800913  0.12430533 -0.24669712
 -0.53251958  0.2593958   0.31667252  0.95267204  0.85466199  0.63485553
  0.55196621 -1.55943633] [ 1.16600382  0.18293943 -0.03835347  0.59710362 -0.43597586  0.11776605
 -0.10021177 -0.23218254  0.08068662 -0.64298175  0.33301022 -0.30736195
 -0.81292595  0.53293198 -0.60606085 -0.53918683 -0.77300016 -0.47584418
 -0.21294354 -0.19141928  0.35533368 -0.99718334 -0.62082212 -0.02622571
 -0.38423304  0.18434495 -0.57132252  0.24443794 -0.1680911  -0.5798309
 -0.19972719 -0.82003917] [ 0.1482151   0.13164142 -0.08623957 -0.9713159   1.01265849  0.17248112
 -0.17136311  0.07220053  0.02775106 -0.88795648 -0.76427783 -0.19861691
 -0.93597073  0.51772162 -0.30733222 -0.5578932   0.1170434  -0.1732815
  1.18599508 -0.10326345  0.10478683  0.9104305  -0.37624897 -0.79245211
  0.39416111 -0.20542636  1.33829875 -0.54505663 -0.49750831 -1.02424049
  0.77721228  0.95395095] [ 0.35458622 -0.6024534  -0.25663853 -2.35391354  0.54598622  0.92236158
 -1.23907768 -1.64881691 -0.22861227  1.45322287 -0.73815005  0.24269074
  0.82040839  0.044465   -1.11664993 -1.41144231 -0.09614593  2.36310304
  0.81385364 -0.31781998  1.87779824 -0.29428903 -0.51346674 -0.79350124
  0.41264291  0.94365336 -0.56533399 -1.25908208  1.04913707 -1.39055065
 -1.04937464 -1.43415859] [ 0.55064256  0.20590694  0.54047222  0.73127493 -0.81980793 -0.21947621
  0.84683311  0.10329706  0.83786014 -0.90451541 -0.67897919 -0.68197324
 -0.42127984  1.11204819  0.26346225  0.83364739  0.12124418  0.06842645
  0.06202846  0.04644733 -0.47267634 -0.89244323 -1.11958357 -0.31268338
 -0.54217195  0.58534008 -0.62749783  0.06504486  0.8957299  -0.54426812
 -0.12187254  0.51312416] [-0.63000245  0.10885692 -0.67285731  0.64461707 -0.07542727  0.22144665
  0.42049893  0.95700383  0.96862099 -0.53228187  1.04095566  0.96690704
  0.72149006 -0.6075373  -0.10047838  0.80726374 -0.54114436 -0.40059968
  1.01731843 -0.64555691  0.86040039  0.35157215 -0.5269937  -0.45623723
 -0.34593542 -0.71952753 -0.52065469  0.21822087  0.82991483 -0.21980405
  0.22256848  0.48468246] [-0.91076829  0.49054863  0.79305597 -0.11036101 -0.62194095  0.47381817
  0.90181896 -1.27932094 -0.54996966  0.39790971 -0.71870994 -0.3790214
  0.38055101  0.08658116 -0.24554712  0.50968485  1.2729491   0.75441332
  1.03056839  1.35360538 -0.15686732 -0.1418077   0.34497877 -0.31057434
 -0.96312807 -0.82146194  0.76877997 -0.05050847  0.91100589  0.3351971
 -0.04015832 -0.71982218] [-0.32745771 -0.77043874 -1.2041146  -0.45679169  0.21662815 -0.20116363
  1.3333392   1.10469564  0.66698945  0.02438357 -1.07657064  0.70027878
 -0.42160134  0.85925101 -0.86072681 -0.38827992 -0.88140542 -1.26910147
  0.97795486 -0.05826359  0.06384079 -0.5163731   0.01307331  0.4714837
  0.02428708 -0.44963311  0.88560798  0.38611169  0.71369828  0.51781085
 -0.86817404  0.01966576] [ 0.1576133   0.51461493 -0.46727918 -0.04576941  0.03364845 -0.50072248
 -0.72682844 -0.77921113  1.16483986  0.54594463 -1.00409178  0.57501043
  0.81441739  0.40301109 -1.24533928 -0.54863834 -0.02503545  0.14118591
  1.10644573 -0.02073006 -0.20748553 -0.54413774  0.81160656  0.10213979
  0.93689918 -0.55824712  0.62835981  0.2801003  -0.61054648  0.77251894
 -0.68705804 -0.54838081] [ 0.74952711 -0.56424323 -0.1741427  -0.20701398  0.36251995 -0.61247799
 -1.11622073 -0.25610457 -0.6745468  -0.55927666  0.97714725  0.02290762
  0.58213269  0.11232731 -0.34717092 -0.62027414  0.35606066  0.17762573
 -0.14422831 -0.6728129   0.8827531  -0.29915082  0.70396895 -0.71618605
 -0.28011022 -0.14644715  0.21506353 -0.35091119  1.15337314  0.2196859
 -0.50997108  0.1960526 ] [-0.15185953  0.01106398 -0.56138135  0.81871176 -0.14964455 -0.04405893
 -1.33155104  1.468264   -0.5077227   0.31662314 -0.96097365 -1.26015172
 -0.01663594 -0.55094365 -0.91899383  1.43780185 -0.21410605 -1.71211239
 -0.15410384 -0.93368782 -1.78705695  0.59418143  1.46388084  0.31384365
  0.47067769  0.27254602  0.98218814 -0.59577605  0.22754333  0.95476598
  0.03272764 -1.50092455] [-0.28548623 -0.53676823 -0.94988429  0.65737811  0.08117516 -0.45888441
 -0.40573941  1.11817255  0.49700999  1.15833912 -0.5215473   0.77358792
  0.01644859  0.51730808  0.89920142  1.30803688 -1.24041226 -0.78323646
 -1.2622448   0.14303561 -0.33194326 -0.82175923  0.83377461 -0.61476562
  0.57596685  0.78778072  0.07089737 -1.38899926 -0.01955897  1.17112596
  0.36385024 -0.17261853] [ 0.11322515 -0.73035284  0.22455821  0.16083068  0.32919924  0.03670949
  0.23798317 -1.54100689 -0.4749337  -1.19295047  1.17638199 -0.31823135
 -0.5848047   0.45190696  0.69264363 -0.26400902 -0.5454164   1.12491207
 -0.17818768  0.24816928  1.40329273 -0.22885989 -0.41246236  0.21628907
 -0.05241521 -0.38594951  0.90951073 -0.06318261 -0.22065913 -0.76865425
  1.28552689  1.32974707] [-0.70700261  0.7637435   0.42071106 -0.0061423  -0.40349241 -0.38574566
 -0.87431744  0.96909807  0.3699992   0.09413306 -0.52972689 -0.82835828
 -0.89768071 -0.4513147  -0.54385393  0.9397759   0.0397578  -0.68788569
  0.57666801 -0.28350279 -0.72049154 -0.68405541 -0.53007312  0.44766971
  0.38194991 -0.77470711  0.92032034  0.38120071 -0.2324485  -0.73326261
  0.14660664 -0.52245806] [-0.79963537  0.68104228  0.05729059  0.42599449  0.52669433 -0.28329367
 -0.03724823  0.52775173  0.67424596  0.30005812  0.73714864  0.18444306
 -0.44994707  0.45723018  0.91528633  0.79610911 -1.36120025  0.15339897
 -0.99318999  0.65554387 -0.31651567  0.31198613  1.00396175 -0.99537742
  0.01429992  0.47600694  0.43797427 -0.31069846  0.51068588 -0.78800412
 -0.08877254 -0.14299564] [ 1.28735163  0.91860623  0.09884429 -0.02973628  0.16652281 -0.73280741
 -0.02892557  0.06828173 -0.85798861 -0.72504158 -0.60139995  0.32031661
  0.11095184 -0.78410818 -0.06165223 -1.01693239  0.52321418 -0.76397346
 -0.85168063 -0.3688448   0.05546795  0.72577916 -0.21615589 -0.7231966
  0.16813313 -0.58211286 -0.05720955  0.78563966 -0.62473915 -0.27081728
 -0.45181026 -0.48090873] 
