[-2.23328423e-01 -9.77158042e-01 -7.13340705e-01  4.24499824e-02
  4.75110227e-01 -9.18383977e-01  4.58783867e-01 -5.51213574e-01
 -4.79161163e-01 -3.15965359e-02 -6.87084988e-01  2.90873250e-01
 -5.88845967e-01 -7.59845838e-01 -7.81461029e-01 -9.68208610e-01
  1.95410673e-01 -1.44927500e-01  9.76980698e-02  9.39632347e-01
 -2.16440741e-01 -3.89657664e-01 -5.22587808e-01 -1.41372182e-01
 -3.15201123e-01  1.03731076e-01 -8.39472552e-01  2.41303024e-01
  3.68391046e-01 -8.87671304e-01 -4.87245545e-01 -2.39524617e-02
 -8.12917187e-02 -9.11104926e-01  1.03825448e-01 -2.12386506e-01
 -9.56704370e-01  9.70376131e-01 -8.51125573e-01  3.03310953e-01
  9.94924033e-01  3.60464298e-01  7.41731659e-01 -7.57331219e-01
 -5.25100141e-01 -6.02108827e-01 -3.25534374e-02  4.06798308e-01
  2.89312760e-01 -7.99253213e-01 -7.41547408e-01 -7.32610802e-01
 -9.42287516e-03  7.46095516e-01 -9.92501864e-01 -2.90657075e-01
  2.46365834e-01  2.59023301e-04  4.55143761e-01 -6.14961900e-01
 -6.23686096e-01 -6.57022921e-01 -1.80325507e-01  5.16401728e-01
 -1.10600198e-01 -9.63607982e-01 -2.04004324e-01 -3.98825879e-02
 -1.44027175e-01  4.60654215e-01 -6.95577134e-01 -3.59415077e-01
  7.39344415e-01  7.30098795e-01  5.29317228e-03  4.96020354e-01
  7.72492485e-01 -6.40694868e-01  7.42153260e-02  9.73546573e-01
  1.25730246e-01  2.85061693e-01  9.80344586e-01 -2.39012219e-02
 -2.89935199e-01 -7.93524727e-01  7.95370825e-01  7.80936147e-01
 -3.87492883e-01 -3.15285887e-01  6.09496580e-01 -8.43801407e-01
  8.36291159e-02  5.50801830e-01 -1.63723193e-01 -2.97337340e-01
 -7.90256917e-01 -8.40831092e-01 -8.22406545e-01 -5.38452067e-01
 -4.00683022e-01  7.62270459e-01 -3.20093315e-01 -6.92784765e-01
  3.39150485e-01  4.31737899e-01  6.09917459e-01 -5.10828347e-01
 -9.40315204e-01  4.21112861e-01 -3.06644459e-01  1.28639745e-01
 -7.08860876e-01 -5.81309927e-01 -2.80113720e-01 -9.79845612e-01
 -3.45774112e-01 -7.09967522e-01 -2.11652875e-02 -5.15229518e-01
  9.38564847e-01  5.74936114e-01 -3.58702018e-01  4.73760764e-01
  3.43198284e-01 -8.36086202e-01  1.16101592e-01  6.11345100e-01
 -5.72204061e-01  5.91187032e-01] [ 4.83142988e-02  8.89011357e-01  6.26858334e-02 -2.05674027e-02
 -1.13586904e-01  7.66623628e-01 -5.01350216e-01  7.81320700e-02
  5.19795292e-01  5.79310189e-01 -5.17803351e-01  8.98944462e-01
 -2.37380216e-01 -4.59372162e-01  1.59050054e-02  7.72091451e-01
  9.61538055e-01 -8.99474231e-01 -2.24985215e-01 -6.88737774e-01
 -8.55941005e-01  8.11918247e-02  9.45146571e-01  3.42728763e-01
  3.28527725e-01 -3.15791702e-01  4.00134841e-01 -7.45784864e-01
 -5.74719926e-01  8.85383257e-01  4.97986246e-01  3.60338140e-01
  1.25476849e-01  3.84872499e-01 -5.23570288e-01 -4.65977170e-01
 -1.82489094e-01 -4.37608199e-01 -2.70622399e-01  5.56082626e-01
  1.36494327e-01 -2.09379893e-01 -1.38173572e-01  3.29604386e-01
 -4.10694528e-01 -9.90502728e-01  4.60402254e-01 -5.81126321e-01
 -3.82987769e-01  8.37555373e-01 -3.42928086e-01  1.84378124e-03
 -5.64161331e-01 -5.35319075e-01  6.31526260e-04  9.71122410e-01
 -2.24814366e-01  6.59400889e-01 -8.15828992e-01 -1.87842590e-01
 -7.10687200e-01  8.52161717e-01  5.12986725e-01  9.69182168e-01
 -6.41725250e-01  9.69086947e-01  9.41624259e-01  3.81057101e-01
  6.69896694e-01 -1.72687457e-01 -8.00010153e-01 -1.43684964e-01
 -3.96195721e-01  7.23474817e-01 -1.36896865e-01  3.31889013e-01
  1.09633607e-01 -7.52080397e-01 -4.53485092e-01  4.55320240e-01
 -7.80661055e-01  7.64925152e-02  1.23459287e-01 -3.86150526e-01
 -8.87617259e-01 -7.09553031e-01  6.84067507e-01  2.67564998e-01
 -7.93733860e-01  7.29408572e-01  2.84837625e-01 -4.12996959e-01
 -7.30766793e-01  1.09450875e-01 -5.36534362e-01  5.56323089e-01
 -6.48033276e-01 -5.90401203e-01  3.55318772e-01 -6.25334929e-02
  8.22911697e-01 -1.06616401e-01  8.80778312e-01 -5.43570294e-01
 -2.57586425e-01  3.04044372e-01  6.35820376e-01 -9.66601147e-01
 -3.63990175e-01 -2.49617616e-01 -6.58362592e-01  9.14509622e-02
  9.70130541e-01  7.91677365e-01 -1.50464082e-01 -1.37867834e-01
  5.51651107e-01 -2.13291402e-01  7.95994723e-03  4.34313875e-01
 -1.68481786e-01  1.47973478e-01 -4.66327589e-01 -3.26932851e-01
 -7.41917013e-01  9.23559627e-01 -3.62292152e-01  6.06546478e-01
  8.44926630e-02 -1.78238948e-01] [ 0.81472051 -0.26488959 -0.16177759 -0.98592056  0.61626102 -0.68595455
  0.24187759  0.77085437 -0.25124986 -0.05845745 -0.03147489  0.28429913
 -0.68663469  0.97644046 -0.14436629  0.67154575 -0.49894522  0.85236121
  0.37065988 -0.38463158  0.61418157 -0.9843618  -0.39347331 -0.36598169
  0.81107566  0.37727449  0.36671852 -0.31667234 -0.25324078 -0.71677284
  0.11693199  0.9908486  -0.92057389 -0.27547841  0.92207225 -0.9362515
  0.61265665  0.35017883  0.9612418  -0.28281694 -0.50399753 -0.84859592
  0.29782524 -0.84277417 -0.85741488 -0.68115387  0.41556417 -0.20377066
 -0.57941805  0.48989693 -0.83576808  0.84331528  0.85126793 -0.5798342
  0.02638399 -0.21346043 -0.46894657 -0.24587882 -0.66043181  0.92271827
 -0.42426259  0.76135504  0.01696575 -0.81242351 -0.63227761 -0.88079376
 -0.71636631  0.81771785 -0.42270596  0.79772978  0.10935149 -0.33877684
 -0.0477076   0.77010424 -0.46142204 -0.09071742 -0.5244661   0.49597235
  0.28447254 -0.17319438 -0.60846229  0.79129257 -0.77341013 -0.13127228
  0.56334312 -0.07402432 -0.93845146 -0.91567152  0.03677182  0.99113764
  0.46424039 -0.11697369 -0.84316252 -0.7247445   0.85557419  0.14703314
  0.11736398  0.93150696  0.18896596 -0.47797537 -0.67210314  0.27785906
 -0.76863291  0.55926578 -0.40715698 -0.8558841  -0.63460808 -0.16840224
 -0.49982619  0.44248884 -0.50035111  0.5024214   0.62215748  0.49429767
 -0.84797707 -0.97181859  0.59385787  0.05307002  0.38270559  0.24226861
  0.08718891  0.39998274 -0.14573063 -0.82530506  0.3351458   0.6321057
  0.93827281 -0.14313301 -0.55093184 -0.06114762] [-0.31292387 -0.03904505 -0.70244713  0.04712738 -0.20171548 -0.19357677
 -0.43500676  0.98012624  0.07800722  0.69025399 -0.29554732 -0.18605712
 -0.62737993  0.83363809  0.92872841  0.12133083 -0.87484525  0.73889192
  0.5052212   0.37481664  0.36125522  0.0915588  -0.29153111 -0.00597543
 -0.3060605   0.13364914  0.5598967  -0.06540478  0.29412283  0.90706891
  0.57832238  0.29902886 -0.53654724  0.61890818 -0.37374833 -0.94306755
 -0.4071507   0.79901073  0.8659568  -0.84636967  0.35064249 -0.31778843
 -0.02721469  0.37393565  0.88687576 -0.00794925 -0.42055011 -0.95445572
 -0.89647804 -0.13593307 -0.18447778 -0.0964258   0.94088848  0.18194739
  0.37561374 -0.08780293  0.94790766 -0.07004111 -0.5985527  -0.8606531
 -0.96203331 -0.23391913 -0.09907615  0.86932169  0.42572062 -0.44302232
  0.0842226   0.56843088  0.25707523 -0.76681795  0.24852091  0.81975567
  0.53920879 -0.03457007  0.77845619 -0.09028465  0.83576797 -0.38834442
 -0.72403677 -0.0229531   0.0204978  -0.16279254 -0.97276792 -0.60690923
  0.70223929 -0.66514984  0.34363516 -0.26286803  0.83758229 -0.90453593
  0.95022215 -0.8259838   0.53681288  0.57837178  0.74252948  0.8272789
  0.93534605 -0.33775447  0.09086915 -0.08288949 -0.94894047  0.68373734
  0.96513254  0.86497803 -0.696101    0.92265984  0.12565418 -0.01257674
 -0.25908922  0.5728789   0.6363267  -0.8499787   0.85882436 -0.64700348
  0.64302049  0.96883236  0.63993884 -0.59110714 -0.45537597  0.92501626
  0.82943873  0.38839438 -0.54450067 -0.91377442  0.505      -0.93442407
 -0.50839532  0.57240644  0.44334881  0.56535607] [-0.54637111 -0.8394197  -0.78404852  0.09068046  0.29393861 -0.64388957
  0.73420475  0.7374585  -0.89420887 -0.73748148 -0.18539814  0.30636161
 -0.22498427  0.76119475 -0.93500489 -0.57695282  0.168687   -0.11483798
 -0.86309288  0.66354026 -0.61671552  0.34162479  0.47128637 -0.08972404
  0.13420829 -0.45094926  0.24140344  0.29674477 -0.35954943  0.25207392
  0.52134048  0.89334052 -0.3521658   0.28948393  0.19178163 -0.73606014
  0.66227282  0.9200424  -0.18094646  0.45443411  0.85496104 -0.13424814
  0.61713298  0.50824365 -0.10571707 -0.09850597 -0.08514818  0.5588783
 -0.81729405  0.91104036 -0.17013558  0.9748296   0.13091169  0.39645208
 -0.25544146  0.67761143  0.23824307 -0.62636392 -0.75795342  0.07648013
 -0.91213259 -0.68463175 -0.08848733  0.00341362  0.0193724  -0.81296365
  0.48556636 -0.99662579  0.10375077 -0.00231425  0.46811128  0.85371817
  0.85418833 -0.26516915 -0.42074973  0.92455608  0.49016157 -0.50598453
 -0.51704543  0.0679115   0.10390938  0.30485016 -0.94234819 -0.89088693
  0.07222658 -0.39800763  0.8150627   0.09864729 -0.03231496 -0.19961477
  0.18117652 -0.59830738 -0.40309329  0.94658453  0.55155279 -0.92065686
  0.39139737  0.49360869 -0.46401767 -0.96957393  0.78113972  0.4607431
 -0.80826331 -0.91652398 -0.42972762  0.6878194   0.96845843 -0.82908443
  0.00965586  0.7861309   0.61565414 -0.5180477  -0.47437749  0.04261352
 -0.94149796 -0.54765234  0.89865579 -0.29883064 -0.88125774 -0.25584216
  0.29376383 -0.32601876  0.94879981 -0.70160699  0.7222221   0.38930894
  0.06999144  0.72703517  0.56494435 -0.48319256] [-0.14299468  0.2335723   0.63518763  0.20316827  0.90917723  0.09983525
 -0.29796579 -0.53291334  0.2765847  -0.18053321  0.11523557 -0.56514495
 -0.60158685  0.11891619  0.70560998  0.73091354  0.37622785  0.68268931
  0.96810815  0.8563874   0.04064911 -0.77265339 -0.71475705 -0.32756739
 -0.35948882  0.55826609  0.30839997 -0.76931249  0.10705228 -0.07346734
  0.79940719 -0.3746681  -0.8401125   0.25045226 -0.29710992  0.30148503
 -0.74875725  0.89748157 -0.65129327  0.06378318  0.02701682 -0.36441922
 -0.96277823 -0.48476927  0.09977408  0.40497702  0.07428988 -0.68618409
 -0.69699162  0.69503733 -0.45792536  0.92153948  0.24162167 -0.9586337
 -0.08717483  0.01071989  0.84419215 -0.87885263  0.49011663 -0.9676027
  0.9849687   0.64922585  0.54555504  0.63625469  0.34254528  0.62964243
 -0.12511932 -0.40689525 -0.67511218 -0.65422125 -0.52386106 -0.11521951
  0.7388685  -0.16365017  0.1178059  -0.74118154  0.9795062   0.99802947
 -0.34534556 -0.9130356   0.98434494  0.13208872  0.3609308  -0.54706315
  0.99640393 -0.14494466  0.50366442 -0.16653706  0.03309368  0.42543947
  0.10219232  0.33713722 -0.93090108 -0.69412978 -0.50932281 -0.82667311
 -0.81578076 -0.64824133  0.09952116 -0.92529821  0.94297318 -0.8948912
 -0.5598524   0.02657912 -0.21926981 -0.31045921  0.7894473   0.65261217
 -0.17892099 -0.47125071 -0.78426593  0.93897558  0.4829608   0.21454244
  0.01527841  0.62982721  0.48437146 -0.62465108  0.97764574 -0.25275241
 -0.59654516  0.2003106   0.04084455 -0.10009727  0.7240798  -0.96151188
  0.77020566  0.75519926  0.72956802 -0.73859208] [ 0.31946794  0.56330545 -0.44261824  0.28798185  0.78217408 -0.55476259
  0.47050508 -0.31168818 -0.62162554 -0.82544328  0.92783215  0.34477027
  0.71185691 -0.21033612 -0.67237955 -0.01555252  0.14856658 -0.87089781
 -0.82257071  0.33694985  0.05110468 -0.32553106  0.26205129  0.25785239
 -0.49293947  0.49129229  0.61006825 -0.50881919 -0.16196952  0.19844276
  0.90628887  0.30074868  0.80684792 -0.25106337 -0.66298198 -0.6241771
 -0.76160491 -0.11295216 -0.84238082 -0.36435808 -0.0197176  -0.40985725
  0.20301118 -0.33760895  0.73376868 -0.44401734  0.01182368 -0.77660944
  0.55133154 -0.60829391  0.63125327 -0.72524243 -0.20017356  0.44137247
 -0.25847184 -0.59042449  0.29760125 -0.51918015  0.92769114  0.99346125
 -0.35717189  0.42964119 -0.34013477 -0.26177073 -0.66173476  0.85892109
  0.05469141 -0.55292708  0.45561272  0.62727306 -0.10632338 -0.96119974
  0.69036189 -0.43324029 -0.55359473  0.39863412  0.68693373 -0.03976472
  0.36054285 -0.60704988 -0.25577555 -0.74914297 -0.81522669 -0.60749346
  0.4134113   0.42466942  0.51872334 -0.17035462 -0.60177425  0.21756489
 -0.82028033  0.28655674  0.07866221 -0.17349633 -0.52415643  0.65345177
 -0.62913824  0.24247039 -0.26955241 -0.50731985 -0.25674163  0.40112455
  0.20074361 -0.92648609  0.19266809  0.56023471  0.31008085  0.32137752
 -0.67085322  0.52004851  0.25082791  0.53169946 -0.98044627 -0.83111875
 -0.36141921 -0.46836821  0.54870076  0.72233204 -0.47261858  0.23993162
 -0.51105491 -0.55284429 -0.11070526 -0.91076714 -0.68886049 -0.43845399
 -0.68866195 -0.76513549 -0.55638789  0.83578148] [ 0.9889232  -0.12817742  0.00201814  0.01686073  0.47012128 -0.00380587
 -0.48646577  0.16633717 -0.42865387 -0.53138457  0.78063329 -0.77483407
  0.05045032 -0.16897639  0.41094734  0.00559452  0.53035302 -0.92987282
 -0.27682457  0.42484074  0.46881792 -0.35709129 -0.03642233  0.7731261
 -0.97323655 -0.01045713 -0.35950739 -0.27544469 -0.12898501  0.97382375
 -0.33061414 -0.64797027  0.46534666  0.84272793  0.1584317  -0.25313285
 -0.47883593  0.3817983   0.19602981 -0.57562975  0.95070927  0.76096967
 -0.55951086  0.19248038  0.69880138 -0.1888575   0.36112192  0.31904617
  0.45721484  0.7575978   0.80244418  0.81733943  0.70256692 -0.32804692
  0.95865973  0.28862929 -0.42228243 -0.00885896 -0.93391768  0.38391788
 -0.30686025 -0.1851005  -0.66096632  0.63704053  0.07669864  0.03454878
 -0.73598622  0.71982718 -0.73487793  0.85836344 -0.94935071 -0.18080424
 -0.6224526  -0.00546028 -0.2270429  -0.3637979  -0.67217971  0.03166534
 -0.05402506 -0.16405203  0.59126284  0.25092404  0.28452876 -0.27032423
  0.81308307  0.30716151 -0.62529384  0.7773771   0.37404145  0.28797327
 -0.20338452 -0.04237352 -0.88706693 -0.36551968 -0.06667009  0.98691689
 -0.53107405 -0.26374078 -0.77263037  0.9241149  -0.7940892   0.10132158
  0.62842451  0.36402507 -0.03414415  0.55268032 -0.75350898 -0.41186251
 -0.04203326  0.76001115 -0.69913213  0.37415625 -0.7230932   0.85534196
 -0.07643917  0.38419039 -0.08567234 -0.94852234  0.53787913  0.9550211
  0.58085016 -0.92996126 -0.23695406  0.87011839 -0.87834719 -0.98165863
 -0.45271356  0.23133401 -0.26431097 -0.56802319] [-9.31302524e-01 -7.22456122e-01 -7.84346685e-01  5.61449466e-01
 -5.46626960e-01  5.32148592e-01  7.28915627e-01  8.68829942e-01
  8.73722618e-02 -4.91031037e-01 -9.19538227e-01  8.97786717e-02
 -8.16286137e-01 -8.23259313e-01 -9.66591883e-01  3.88039289e-01
  8.10206004e-01  6.01927271e-01 -2.66343180e-01 -2.39846761e-01
 -9.82328283e-01  1.13726038e-01  2.23819834e-01  9.16413299e-01
 -2.04665504e-01  8.97692256e-01 -2.16267025e-01  1.88769299e-01
  3.88873905e-01 -3.07263197e-02  7.02548265e-01 -6.49864822e-01
 -6.55555498e-01 -8.84809213e-01 -9.68816833e-01  3.41227299e-01
  2.33614229e-02 -2.20047388e-01  3.42995874e-01 -7.60954150e-01
  9.68001778e-01  1.02527156e-01  6.92139284e-01 -5.38209021e-01
 -5.35613430e-01  3.59760496e-01  1.99459062e-01 -6.88219764e-01
  7.66055372e-01  5.95332178e-02  1.73444121e-01  7.92717026e-01
 -4.77430921e-01  1.81770105e-01 -6.88677204e-01 -2.46373280e-01
 -7.03356031e-01 -3.99865769e-01 -8.82688802e-01 -5.02862852e-01
 -4.46737059e-01 -9.96748691e-01  8.85142701e-01 -2.06227251e-01
 -4.25295120e-01  6.95095569e-01  7.47698787e-01  1.88618561e-01
 -8.39801725e-01  4.84182403e-03 -5.84367440e-01  6.39395107e-01
 -4.58882809e-01 -8.31229375e-01  9.01978434e-01  2.58287602e-01
 -7.08932141e-01  6.34077598e-01  3.68362808e-01  3.05032769e-01
  7.21527093e-01  7.40665911e-01 -8.37711680e-01  8.14568181e-01
 -2.14661159e-01  5.69677003e-01 -4.62180543e-01 -3.01883982e-01
 -3.87221988e-01  7.65069511e-02  6.39821521e-01 -8.57819498e-01
 -7.35391520e-02 -8.86019997e-01  6.59707291e-01 -3.27647764e-01
 -3.93620789e-01 -3.18227821e-04 -1.95189876e-01 -1.75713888e-01
 -6.97085186e-01  5.44297445e-01  1.85488845e-01  9.78407057e-01
  9.18278992e-01 -5.72356208e-01  8.42747925e-01  5.60495597e-03
 -1.99418282e-01 -3.05571339e-01 -5.72190591e-01  5.30870078e-01
 -8.51135901e-01 -8.11339521e-01  5.38878162e-01  5.80514608e-01
  8.14485479e-01  8.45909635e-01  6.40608882e-01 -5.17581577e-01
 -8.92935753e-01 -1.79996201e-01  5.55837104e-02  1.54465985e-01
 -7.75078505e-02 -8.22358028e-01 -1.30864435e-01 -6.04114534e-01
  1.83256340e-02 -1.31995725e-01] [ 0.2937917  -0.31914989 -0.23933481  0.21623208  0.08753888  0.39468648
 -0.62474201  0.28033478  0.78410426  0.12749015  0.81927563 -0.55523673
 -0.90377907  0.77036713 -0.43524924  0.20040144 -0.53019656 -0.4548752
 -0.62047027 -0.57585949 -0.79537586  0.15277061  0.58665423  0.30537998
  0.44266103  0.82696971 -0.47499246  0.0758854  -0.5811832   0.15386946
 -0.33532323 -0.58569452  0.23419282 -0.51896693 -0.78533745 -0.4756917
 -0.84727293 -0.25079176 -0.1770612   0.45597182  0.66393515  0.99820867
 -0.57740664 -0.09495513  0.05349657  0.8467565  -0.09962064  0.40817159
  0.89690878  0.98465022  0.55181275  0.0380025   0.74811772 -0.17117454
  0.0358968  -0.74446375  0.73830481  0.07851949 -0.56094125  0.92740161
  0.6992194  -0.96384224  0.17343912  0.45820184  0.54286185 -0.10251886
  0.37847331 -0.7513854  -0.68085129  0.96928138  0.66567886 -0.90676495
  0.59715799 -0.98046544  0.64980532 -0.75028933  0.23307947 -0.12189091
 -0.56578921  0.59050843  0.06895098  0.75068783  0.71920082 -0.18935272
 -0.85208369  0.38333178 -0.78932091  0.48822711 -0.5143307   0.75459304
 -0.42729746 -0.52935155 -0.40985149 -0.6600831  -0.73025839  0.09842513
 -0.60654008  0.86233132 -0.23544448  0.61416322  0.61946266  0.87577974
  0.70830732 -0.23219565 -0.33592698  0.29756771 -0.30207379 -0.35713214
 -0.35837689 -0.94781042  0.03852274 -0.2585841  -0.61535967 -0.73485801
 -0.00617619  0.00694293  0.54997913  0.83582737 -0.79964829 -0.10344567
  0.77148698 -0.78026117 -0.33110137 -0.07228325  0.24752704  0.21906217
  0.90827294  0.9473659   0.21561664 -0.2724396 ] [-0.19519621 -0.9207463   0.52858378  0.49703051 -0.22307284  0.56291547
  0.76517798  0.20046633 -0.64515077 -0.09404607 -0.31276489 -0.58987057
  0.82618625 -0.38543192 -0.92700744  0.17431535  0.71409062 -0.74335331
  0.11295328 -0.30096309 -0.670593    0.01079442 -0.71401435  0.21608694
 -0.88742164  0.71974052  0.74457033 -0.95183411 -0.8058925   0.63234881
 -0.72307938  0.10792125  0.73132644  0.54542577  0.77111838  0.90650817
  0.54551044  0.05570144  0.63276574  0.89430041  0.60682086 -0.57212571
 -0.35766771 -0.42830055  0.65493398  0.10371764  0.34705254  0.27172638
 -0.40847363 -0.61562985 -0.99096833 -0.98496901 -0.89226127 -0.57519225
  0.04127984 -0.77255353  0.61705917 -0.2090744   0.3212234  -0.05040501
  0.04166337 -0.50363233  0.63276583 -0.69125442 -0.24924183  0.72916224
  0.0578903  -0.38863295 -0.47908769  0.17173056  0.03514514  0.61204243
  0.91485114  0.77589265  0.69351008 -0.84052026 -0.91972384 -0.71490389
 -0.43865825 -0.93705743 -0.69758953  0.50602492  0.83215657 -0.22089664
 -0.08752507  0.57787382 -0.45006822 -0.11004779 -0.8231359  -0.57382654
 -0.1782539   0.83155844 -0.85656734  0.09514555  0.76173609  0.02142247
  0.65623463 -0.45650047  0.30961377 -0.59465036 -0.79300344 -0.73727846
  0.84982853  0.09407248 -0.53542517  0.82273952 -0.86997682 -0.76126408
  0.9443064  -0.82176814 -0.51757415  0.81327328 -0.30758531  0.79332554
  0.82061141 -0.53501913  0.24146882  0.0832644  -0.37843766  0.12176263
 -0.12431997 -0.03764577 -0.11526975 -0.62348795  0.72821488 -0.50823309
 -0.39652679  0.56022977 -0.09288571  0.87803622] [ 7.90834813e-01  4.87702839e-01 -1.61827599e-01 -9.61990343e-01
  2.68061268e-01  5.85363931e-02  3.55386455e-01 -1.42007561e-01
  9.25292905e-01 -7.90988713e-01 -5.53789890e-01  9.57216567e-01
  6.14468260e-01 -3.38698974e-01  9.11675053e-01  6.12545939e-03
 -5.91294956e-01 -9.62746157e-01  4.95270599e-01 -9.16560074e-01
 -8.13409852e-01 -7.83860527e-01 -8.18071977e-01 -7.76181413e-01
 -4.23843356e-01 -9.75036697e-03  3.30952400e-01  7.37513558e-01
  7.41320281e-01 -6.23860902e-01  1.16019560e-01 -1.44601632e-01
 -8.54702094e-01 -1.08561861e-01  3.51782876e-01  9.16244321e-01
  2.81377258e-01  7.05051992e-01  7.09680892e-01 -2.68071923e-01
 -7.01541605e-01 -3.04624634e-01 -5.07068862e-01 -5.24082216e-01
 -7.64674766e-01  1.31514999e-01  9.02683968e-01  6.62579103e-03
  9.20985452e-01  3.40259232e-01 -1.54016221e-01 -4.23403766e-01
  2.34362835e-01  8.08695032e-01 -7.63526560e-01  6.13522330e-01
  4.52757245e-01 -3.21968624e-01  2.31498679e-01  5.31103401e-01
  5.99453001e-01  2.61292300e-01 -8.78135042e-01 -5.65429870e-01
  6.79015268e-01 -7.23662430e-01 -9.35496362e-01  7.77422829e-01
  1.16244513e-01 -4.57688287e-01 -1.83009117e-01  7.27071579e-01
  2.40834931e-01  2.21217230e-01 -6.10483570e-01 -1.89153839e-01
  6.04283977e-01  2.73880620e-01 -2.44300013e-01  3.85137397e-01
 -5.01289229e-01 -8.48981191e-01 -9.16975675e-02  6.91746993e-01
 -7.92214301e-01 -6.93521147e-01 -1.82084261e-01 -5.57093792e-01
 -4.94253182e-01  4.34429490e-01  7.14845095e-01  3.56892311e-01
  4.10682481e-01  8.56894990e-01  1.47647678e-01  6.71581010e-01
  5.15182467e-01  6.12632459e-02  2.11987928e-01 -6.61736601e-01
 -7.01078543e-01  4.11305407e-01  7.41779720e-01 -2.52275544e-01
 -3.92014611e-02 -1.28693753e-01  5.06552880e-01 -1.80840504e-01
 -4.52017071e-01  2.41569058e-01  6.04574685e-01 -5.51250050e-02
  6.35667580e-01 -8.49361222e-02 -5.99751428e-04 -2.53406372e-01
 -4.94386753e-01  8.58484328e-02 -8.25726898e-01 -6.02543889e-01
  9.37691803e-01  3.72172807e-01 -2.08747460e-01  6.09074214e-02
 -4.01581488e-01  2.56449001e-01  7.78935450e-02  6.04589861e-01
 -6.10627244e-01  3.57276654e-01] [-5.80309120e-01 -9.85879849e-01 -9.36446756e-01  5.64477466e-01
 -3.19517752e-01  3.18027988e-01  6.40084147e-01 -5.45076707e-03
  4.02584788e-01 -2.79072878e-01  8.76149337e-01 -4.00338146e-01
 -7.17694985e-01  7.37163164e-01  6.47261713e-01 -1.11509970e-01
  4.88015064e-02  1.14098488e-01  1.71715473e-01  7.24290348e-01
 -4.83803780e-01  6.77098936e-02 -5.19287058e-01  4.62900602e-01
 -5.68090902e-02  1.49724756e-01  4.00316965e-01 -8.47349071e-01
 -3.93660617e-01  6.84410355e-01 -4.25685890e-01 -7.40307151e-01
 -2.99337767e-01 -8.77062943e-01 -6.09088500e-01 -4.18057279e-02
 -4.17577273e-01  8.90568319e-01  1.85551525e-01 -3.24956885e-02
 -7.03482764e-01 -8.16148850e-01 -8.62305981e-01  6.89520838e-01
 -2.44703875e-01  9.27412212e-02  9.63490430e-01  6.98708415e-02
  7.32304607e-01  2.08390530e-02 -5.62881798e-02  8.39138085e-01
 -6.97335418e-01  7.00169018e-01 -3.79616648e-01 -2.22163050e-01
  2.71956025e-01  2.00301387e-04 -4.93311947e-01  8.60174264e-01
  3.30610025e-01 -8.24798227e-02 -1.05039257e-01  6.76176536e-01
 -9.64560388e-01 -8.48612957e-01  4.75278337e-01  4.48681491e-01
  2.04413906e-01 -4.93714117e-01 -3.36354410e-01 -7.33361848e-01
 -7.23229820e-01  7.33959625e-01  6.89837354e-01 -9.18146498e-01
 -9.11558321e-01 -9.97788742e-01  9.58588981e-01 -4.66038368e-01
  7.96088851e-01 -1.49680326e-01  1.44791049e-01  5.51110323e-01
 -4.97646645e-01  9.43970256e-01 -2.48385741e-01 -8.81336408e-01
 -7.18370506e-01 -9.03750963e-01 -3.47916595e-01 -3.24093217e-01
 -8.97080985e-01  1.99041179e-01 -3.10190892e-01 -3.20311046e-01
 -9.90394470e-01  1.22080154e-01 -1.28809763e-01 -8.44989182e-01
 -2.54859327e-01 -4.67668319e-01 -4.94098558e-01 -8.14071836e-01
  7.56779930e-01  1.10011338e-01 -5.65548970e-01 -8.20718510e-01
 -7.18011862e-01  1.60781243e-01 -5.54401064e-01  2.79269479e-01
  8.45283967e-02 -4.44624715e-01  1.67179406e-01  3.59190953e-02
  9.93515661e-01 -2.33249868e-01 -6.70112658e-02  4.41512390e-01
  4.28224439e-01 -2.75640389e-01 -9.47813611e-01  1.09603214e-02
 -3.34165782e-01 -6.12542284e-01  4.31310860e-01  7.50917608e-01
  5.91053778e-01  5.68998312e-02] [-0.26625561  0.71444563 -0.59217335  0.39168088 -0.85096225 -0.86235954
  0.48677833 -0.58314406  0.36011359 -0.75420701  0.21173476 -0.56044982
 -0.20643461  0.32764769 -0.49157315 -0.76379424  0.86675297 -0.10108261
 -0.42321753 -0.55094121  0.11935683 -0.17039453 -0.22778966 -0.1359565
  0.70339189 -0.78085385  0.65203608  0.33712091  0.42312469 -0.12688557
  0.43842283 -0.66219127  0.85337462 -0.94445166 -0.52277602 -0.61895797
  0.25474904  0.47453438 -0.74366767 -0.31795641 -0.03332378 -0.47975507
  0.23593702 -0.53475044  0.62160969  0.39509094  0.50523932 -0.81040103
  0.74173183 -0.83021842 -0.60687126  0.10469613 -0.6071446  -0.39778647
 -0.31823459 -0.89908131  0.79401591 -0.63028062  0.82037807  0.30921818
  0.30745827 -0.39102283 -0.18160787  0.71805773 -0.04872979  0.75828475
  0.62138896 -0.09326081  0.9714014   0.9154656   0.45457991 -0.34963527
  0.61376763 -0.5316024   0.33360753 -0.48022196 -0.01805051  0.63676832
  0.493599    0.71261944  0.8719426  -0.83752427 -0.59451351 -0.31087467
  0.16801148 -0.19984623 -0.69194479  0.16594972 -0.85459184  0.05360948
 -0.63636679 -0.62366843  0.59915831  0.16340447 -0.19097691 -0.17476164
  0.04232613 -0.73139633  0.43109815  0.00631094  0.73688125 -0.44087063
  0.716376   -0.45416439  0.29455824 -0.29379055  0.19441879 -0.39781837
  0.97628049  0.39318517  0.90976829 -0.66031689 -0.94856329 -0.52852369
  0.38347065 -0.99222211  0.96917737 -0.53290323 -0.21223796 -0.75504483
 -0.82263018 -0.19962344 -0.76726255 -0.30361324  0.65143002 -0.91814954
  0.72261509  0.08963157 -0.31805334 -0.44671433] [ 0.30984404 -0.41858628  0.52911565 -0.26431884 -0.22261573 -0.71942411
 -0.84213301 -0.30925908  0.16701371  0.15414378 -0.66776793 -0.23171209
  0.37857638  0.31329328  0.27891331 -0.04172823  0.42171531 -0.35260262
 -0.72837796 -0.63790627 -0.97071726 -0.68601186  0.65356238  0.80870087
  0.16446704 -0.15303865  0.93327517 -0.06506165 -0.7590622   0.28631298
  0.06060306 -0.58984814 -0.81948929 -0.61810948  0.05142998 -0.43430454
 -0.67167686  0.12048326 -0.41184627  0.41210802 -0.104156   -0.64088883
 -0.28610261 -0.06825361 -0.39574506  0.0353137   0.24233217 -0.56340342
 -0.34066923 -0.32872618  0.12552429  0.23170983  0.01563876 -0.33305695
  0.43757585 -0.41341319 -0.63151812 -0.38550763  0.77393207 -0.84690536
 -0.02340673  0.99692849 -0.69369652  0.61150743 -0.02096008 -0.20245279
 -0.77662661  0.32515238  0.05410265  0.67278282 -0.94475303  0.78142128
 -0.06102375 -0.59217431  0.83466213 -0.98953146  0.84355854 -0.44464293
  0.06726729  0.3144373  -0.06483152 -0.63425685  0.38050957 -0.14141077
 -0.11187992  0.46590153  0.41569146  0.80473266 -0.96472374  0.30877731
 -0.65131344 -0.2574327   0.86576573  0.97035312  0.45626113 -0.69667676
  0.0832316  -0.31360172  0.48620014  0.1505696  -0.88666686 -0.73443994
 -0.3361506   0.4349584  -0.38057687 -0.59730658  0.16663669 -0.37968909
  0.37663066  0.98229862  0.48455977  0.32317641 -0.90684816 -0.20394583
  0.59389719  0.23067403  0.87260386  0.11441791  0.2087818  -0.6357194
  0.42935268  0.95224531 -0.84786412 -0.67133167 -0.07032949 -0.96606192
  0.89222293  0.69176023 -0.51800461  0.27549664] [ 0.3520129  -0.81319697  0.8761025  -0.51674182 -0.78153835 -0.4409874
 -0.16346718  0.76162467  0.93465448  0.82891191  0.23962048  0.52350383
 -0.58949265  0.57089222 -0.77092334 -0.43687159  0.11071137  0.9611289
 -0.37113245  0.219181   -0.25363297  0.895008    0.9733354  -0.9548553
  0.09442343  0.45226726  0.31065941  0.61962739 -0.9380126  -0.63945162
  0.56153191 -0.65848956 -0.84219359  0.15604152  0.25370043 -0.25729437
 -0.7297572  -0.9317728   0.46296009 -0.24958679  0.36393157  0.35137171
  0.8563461  -0.01473286 -0.64368858 -0.04717811 -0.41083058 -0.38394886
 -0.12533879 -0.51178802 -0.57361814 -0.71646861  0.72636332  0.89598064
 -0.08608968  0.73704758  0.72835026  0.6263458   0.99798249  0.42709245
 -0.49811794 -0.17326736  0.47139555 -0.82523318 -0.82532496  0.5856077
 -0.33394353 -0.43222672 -0.01060536  0.39815112  0.15218854 -0.67412845
  0.9027554   0.27130239 -0.96992089  0.3605434  -0.71134283 -0.77453659
 -0.27400806  0.75657474 -0.80687194  0.42032198 -0.67539016 -0.85990466
  0.83940863  0.60577704 -0.29573013  0.35719651  0.86889814 -0.91204494
  0.55822209 -0.00527559  0.48686397  0.65820001 -0.68891612 -0.14621086
 -0.79893049 -0.17783036  0.26309141  0.93544468  0.82249682  0.17479938
  0.63171805  0.83767809 -0.00212561 -0.32742094  0.85563733  0.54519781
  0.4384909   0.29690489 -0.67868504 -0.08674317  0.29053275  0.28938855
  0.95192932 -0.31153579  0.29417011  0.99285681  0.70598766  0.98756755
 -0.48041957  0.47981444  0.99657713  0.58405429 -0.3068281  -0.52952382
 -0.26859482 -0.92203327 -0.17700187 -0.6479158 ] [ 0.68822841  0.41981401 -0.11993286 -0.84700586  0.80892199 -0.54073976
  0.80689385  0.70526436  0.15308908  0.28817353 -0.94325363 -0.63515302
 -0.00829357 -0.30089044  0.63206499 -0.28761572  0.98964062  0.730726
  0.28497288  0.53609279  0.95936175 -0.71772742 -0.76835056  0.60699796
 -0.93260341 -0.47677089  0.25417248  0.85862864 -0.40737765 -0.18598642
  0.78901083  0.64597261  0.45943131 -0.52941585 -0.7285417  -0.50596841
  0.21868953  0.62763586  0.60000624  0.78938652 -0.87299014  0.6585453
 -0.64702281  0.02979192  0.43241502 -0.25908002 -0.15464994 -0.80863382
 -0.63175602  0.06841132  0.89097407 -0.43773548  0.89296357 -0.30251442
 -0.60128316  0.87754421 -0.50136677 -0.57235249 -0.65918081  0.6353714
 -0.92863344 -0.20337693 -0.56828859  0.33919196 -0.91344166 -0.38253371
 -0.55429338 -0.51527393 -0.48186151  0.97277155  0.75985516  0.52033351
  0.68131502 -0.70891397 -0.16426297 -0.79073439 -0.62711955 -0.9057332
 -0.77633623  0.07370444  0.05343322  0.23365118 -0.83203403  0.88301453
  0.04828739 -0.38681653 -0.59436573 -0.01383367  0.6717797   0.62779205
  0.93290637  0.24513133 -0.6722795  -0.25533614 -0.52940361 -0.27726262
  0.09462768 -0.89534622 -0.4982413  -0.17696879 -0.97433637  0.34702647
 -0.10451682 -0.75054044  0.64833886  0.87268565 -0.70461196 -0.19939184
  0.73653919 -0.13099335  0.29154082  0.01338089  0.43567282 -0.07392001
  0.6146459  -0.72510374  0.11345192 -0.88137068 -0.65705934 -0.86203116
 -0.39455747  0.41319852  0.25767681  0.34357637 -0.84218656  0.32077105
 -0.76607578 -0.06209866  0.1962889   0.80998345] [ 0.52899587  0.38452839  0.14009665  0.19730086  0.39057046 -0.37587336
  0.46457401  0.5468446  -0.84318478 -0.57895027  0.86328381 -0.05373161
 -0.33320432 -0.54025596 -0.67873987  0.5303875  -0.74668134  0.4862568
 -0.97040046 -0.18608257  0.40961578 -0.26354972  0.26193213 -0.22470476
  0.04256224  0.74825518 -0.72718638  0.53415576 -0.99930949  0.2366174
  0.76742681  0.3979628   0.77305262 -0.25547592  0.21385701  0.5642958
  0.48273404 -0.95242223 -0.66147457  0.9670043  -0.40750223 -0.6414809
  0.83519685  0.56661459 -0.66070066  0.22062436 -0.00385862  0.26981895
  0.29699772 -0.53700979 -0.89459534  0.73547831 -0.70751124  0.73597625
 -0.27494925  0.57696915 -0.28087205 -0.58011712 -0.28779141 -0.49037771
 -0.59902596 -0.61883346 -0.59110239  0.86988877 -0.24697084  0.44212883
 -0.04386081 -0.77129973 -0.49246323  0.34392559 -0.1498588   0.19170245
  0.65302241 -0.57928231 -0.69703198  0.44482104  0.02869283 -0.65855337
 -0.53711312  0.6080522   0.3268003   0.24253116 -0.9027227  -0.77511614
 -0.68231056 -0.73239624 -0.05651076  0.59634976  0.75758017  0.93922349
  0.34169692  0.94360306  0.94360267  0.45430083  0.25515963 -0.37294524
  0.18807869 -0.45485075  0.23315142 -0.01232655  0.69999491 -0.27384752
 -0.41081218 -0.29918821 -0.02007694  0.44811442  0.68357085  0.29247393
  0.54623793  0.51618181  0.24538237  0.52625005  0.74644775  0.83446451
 -0.356338   -0.21557656  0.51608795 -0.63636184  0.01368316 -0.2340604
  0.08123649 -0.50291801 -0.17223305 -0.27278054  0.75016394  0.45934681
 -0.98876119 -0.86558751  0.46744775 -0.68038383] [ 0.11543101  0.15176114  0.56553336 -0.44561791  0.36518888 -0.91351569
  0.88199185 -0.81451045  0.7703003  -0.21830148  0.0618417  -0.85698517
 -0.4930279  -0.8460015  -0.66732507 -0.04578749  0.98689253  0.14485507
 -0.42988756 -0.41144052 -0.65792293  0.79718062 -0.67372342 -0.29161629
  0.12692158  0.303381    0.0370441   0.22781736 -0.89504134  0.5815331
  0.26270307 -0.5810892  -0.60715493  0.09054604 -0.66768634  0.35533126
 -0.86729811  0.88464918 -0.20212074  0.26818029 -0.17060925 -0.86567816
  0.98196023 -0.33120859  0.76505453 -0.23865881 -0.15532382  0.83449929
 -0.10647617  0.54700743  0.23513472 -0.52531442 -0.23202288  0.16172288
  0.44884677  0.87723191  0.70215171 -0.50231911 -0.82706282  0.9341992
  0.68687191 -0.67990421 -0.06958407 -0.20735005  0.47257442  0.0733745
  0.685871    0.77498695  0.92331106 -0.58404119 -0.15964555  0.93367959
  0.12192701 -0.03925762 -0.05652818 -0.34870574 -0.61121029 -0.2391309
  0.81291897 -0.62701358 -0.41249487 -0.39002385 -0.70247924  0.38089356
 -0.84863026 -0.00655378  0.58624291 -0.88819117  0.96925658  0.74865008
 -0.27415087  0.13424297  0.0446742   0.41046234 -0.39276703 -0.90862117
  0.57212179  0.30427357 -0.98675436  0.29207186 -0.7841193   0.31557866
  0.66273114  0.22980537 -0.51157944 -0.69756784  0.55688444 -0.38486864
  0.42184493  0.57139595  0.64003671  0.16224666  0.37365302 -0.24164827
 -0.74737243  0.81484387  0.07572471  0.17567986  0.10735898 -0.85097841
 -0.97782236  0.09263446  0.80391723 -0.37373209  0.67820895 -0.59515112
 -0.93197922 -0.092884   -0.98009181  0.04409968] [ 0.74894522 -0.68675134 -0.64140633 -0.98738269 -0.40465594 -0.27951157
  0.27950891  0.73018114 -0.90904756 -0.85728976 -0.97478331 -0.5214597
 -0.6590528  -0.84076753 -0.23741272  0.69791425  0.19216116 -0.02182925
 -0.40205113 -0.07238105 -0.94340363 -0.63250656 -0.63286566  0.20937462
  0.58698741  0.26841465  0.60679298  0.45598302 -0.57185994 -0.93932954
  0.0652742   0.75878711 -0.25337484 -0.24663588  0.39746596 -0.24274933
  0.74805176 -0.67531771 -0.60514031  0.11371474 -0.73705668  0.33586154
 -0.42640805 -0.42874805  0.46332768  0.48461384 -0.21218355 -0.63273219
  0.11138284  0.94540237 -0.88747621  0.67269067  0.74426246 -0.40656403
  0.32131198  0.84160984 -0.35760635  0.55363821  0.13019698 -0.16141076
  0.4232587   0.54996477 -0.5665795  -0.16853397 -0.17774852  0.24333683
  0.57792711 -0.03794924 -0.11563493 -0.79545419 -0.79894899  0.55311648
  0.21966309  0.40722012 -0.32057632  0.89187204 -0.53054315  0.90498511
  0.49274945  0.70996334 -0.29662919 -0.66185418 -0.10390402  0.67471906
 -0.99309318  0.40432212 -0.81261212 -0.86638886  0.81255098  0.21399672
  0.2223736  -0.66835791  0.19227207  0.96669581  0.51414701 -0.44883167
  0.24792873  0.2166485  -0.97048101 -0.99990807 -0.38957125  0.05161498
  0.17765072 -0.75571877 -0.30933908  0.23793645  0.13241     0.67617817
 -0.04989863  0.98274676 -0.55870767  0.33038454 -0.11896308  0.00817214
 -0.87742916 -0.2595567   0.75516944  0.40316901 -0.89874107 -0.81218576
 -0.37261044  0.66455408 -0.8243145  -0.33914588 -0.77248104 -0.49019532
 -0.6433007   0.46067418 -0.24075445  0.91978415] [ 6.85597730e-01 -6.59795176e-01 -9.26436506e-01 -7.95319178e-02
  1.29345455e-02  3.43438983e-01  9.95291777e-01 -9.49762707e-01
  5.63594904e-01  7.81160327e-01 -4.56540340e-02 -5.30924269e-01
 -1.46602809e-01  2.23736708e-01  2.81486647e-02 -9.53076027e-01
  7.90794650e-01 -3.30515923e-01 -4.30766869e-01 -6.19716298e-01
  5.63947333e-01 -3.33120202e-01  8.31536291e-01  8.30764692e-01
  2.23985604e-01 -9.91117928e-01 -9.63745440e-02 -5.79214096e-01
  3.24210000e-01 -1.23172299e-01  2.34548368e-01 -3.58273831e-02
  6.75823327e-01 -5.72071312e-01  4.69722113e-01 -6.27877830e-02
  8.94370504e-01 -3.93935207e-01  6.19523412e-02  6.59569673e-01
 -2.95279126e-02  5.65066090e-01  1.53495568e-04 -9.96743545e-01
  1.33334657e-01  7.33176764e-01  9.35110082e-01 -1.33791799e-01
  3.23579230e-01  8.93681068e-01  5.70858805e-01 -9.09201223e-01
  4.17415434e-01  5.49739338e-01 -8.77027812e-01  7.63366587e-01
  2.15481388e-01  3.91733392e-01  5.71226574e-02 -9.32450887e-01
  4.48346181e-01  3.73114225e-01 -2.45886481e-01  4.04727228e-02
  7.61868080e-01  7.75705185e-01 -1.29279970e-01 -4.35941247e-01
  5.11904454e-01  2.51478541e-01  2.28071599e-01 -5.12794864e-01
 -1.09309601e-01  8.75727750e-01  4.71591572e-01 -4.21390123e-01
 -4.24150899e-01 -8.91264945e-02  5.08277826e-01  3.39395874e-02
  8.76838902e-01  6.56445200e-01 -2.53086867e-01  2.02259745e-01
 -9.06025908e-02  7.68453876e-01 -8.89716460e-01  4.12230207e-01
  3.36502240e-01 -1.03516507e-01  6.87135450e-01 -8.77982311e-01
 -4.84177820e-01 -1.91221023e-01  7.69956468e-01 -6.80376782e-01
  4.76289771e-01  7.56122229e-01  7.51949286e-01 -3.12100420e-01
 -1.53065027e-01 -8.39265392e-01  7.49054715e-01  7.29045350e-01
  5.25164800e-01  2.27069993e-01  4.15204580e-01 -8.59284460e-01
  5.16698221e-01  3.03933930e-01 -1.91239528e-01  7.58468243e-03
  9.65099697e-01 -1.90374897e-01 -6.87897371e-01  1.66050934e-01
  1.69808362e-01  1.31365227e-01 -6.12525024e-01  9.81651676e-01
  4.08038108e-01  9.33624196e-02 -7.90773336e-01  4.88247214e-01
 -8.31370888e-01 -2.12686503e-01 -6.37068048e-01  9.47942967e-01
  5.15166908e-01 -6.91687170e-01] [-0.15491424  0.7561099  -0.24359994 -0.78445216 -0.6649661  -0.43638149
  0.36312522 -0.51916584  0.12986305  0.62571287 -0.27067245  0.37670207
 -0.69103183 -0.03287349  0.02019634  0.24674394  0.94770757  0.87719296
  0.43347874 -0.07799329 -0.61710115 -0.90739252 -0.22927586  0.72043713
 -0.23092878  0.3972609  -0.25808913  0.95143913 -0.65720135  0.60413995
  0.55585648  0.25349512  0.67360188 -0.71761965  0.33589693 -0.91531044
  0.48997692  0.31638825  0.73811349  0.0584888   0.7358983   0.89227922
 -0.57329208 -0.57047135  0.04456597 -0.94618007 -0.27760566 -0.85115796
  0.10259919  0.49866005 -0.97870953 -0.21077652  0.75226662  0.0428854
 -0.79378756 -0.13652202 -0.99576587  0.50809298  0.02667651  0.94071692
 -0.77623199  0.01702653  0.68202381 -0.11148014  0.28815845  0.33907332
  0.37271693  0.12709876 -0.42558885  0.18617942  0.81219101 -0.38044335
  0.338356   -0.74632656  0.90914325  0.15699248  0.14313292  0.55011358
  0.55117967  0.92087485  0.42152416  0.58081682  0.13319003  0.12311467
  0.61241328  0.9680527  -0.00422903  0.58456629  0.92483392  0.62344482
  0.23368639 -0.08737859 -0.89384641 -0.70520407 -0.63045165  0.74221655
 -0.36016681  0.58290672  0.39187419  0.10379542 -0.47219091  0.47630936
  0.4019288   0.48383205  0.36139201  0.55420168 -0.67147979 -0.90167712
 -0.56554577  0.36916773 -0.12978937  0.14033882  0.06142764  0.47730359
  0.2127928  -0.33476768  0.9699157  -0.90865953  0.42856938  0.15072439
  0.92849757  0.66362464  0.99165857  0.44756362 -0.00575979 -0.7289669
  0.11604854 -0.09382693 -0.64727159  0.15000295] [-0.82480611 -0.58643006 -0.64600995  0.60412547 -0.86073077  0.0507761
  0.83386075  0.78628361 -0.82698568 -0.38276086 -0.61018498  0.20184972
  0.44165314  0.98572051  0.94537115  0.03147682 -0.55092088  0.10265851
 -0.36218731 -0.65870288 -0.72827405 -0.40697238  0.23493676  0.85698886
  0.56698807  0.09886201 -0.28391354  0.72484276 -0.71983212  0.19512935
  0.18228243  0.72459611 -0.57709085  0.48941783 -0.41979216 -0.28669698
  0.54405278 -0.82270696  0.51652467  0.42186644 -0.19958526 -0.13696075
 -0.09428079  0.84780901 -0.28399798  0.99894555  0.54034072 -0.6238068
  0.97501576  0.59070989  0.71053336  0.68118281  0.56351611  0.34423339
 -0.02463417 -0.42993814 -0.98558762 -0.17411111 -0.80529358 -0.41499526
 -0.37838445  0.66013113 -0.14380127 -0.40384471  0.93343204 -0.74175814
  0.14654051 -0.36132735  0.24535633 -0.11332553 -0.91918534 -0.7731989
  0.98071835  0.76588059 -0.74268861  0.05800079  0.18488426 -0.21334956
  0.13308526 -0.7104323   0.10477537  0.73080445  0.73138975  0.2396765
 -0.90408331  0.7297698  -0.21349195  0.09028365 -0.8125514  -0.34999857
 -0.32850001 -0.03864537 -0.03800342 -0.39265789 -0.19557027  0.26508086
 -0.05520772 -0.49088029  0.13653063  0.8623158   0.53339828 -0.88682036
 -0.3228787  -0.4181442   0.95361113 -0.64531156 -0.93232724 -0.09871908
 -0.75945279 -0.70999894  0.70626732 -0.36812635 -0.56204966  0.24227134
  0.28144132 -0.03901463  0.02194104  0.52242666 -0.75763222  0.2298952
  0.34054342  0.151995   -0.71716332  0.99513536 -0.71736505 -0.06172126
 -0.31635257  0.48614253  0.1228737   0.28982421] [-0.5346113   0.48796684  0.20294217 -0.18241359 -0.92342463  0.85748945
  0.65796251  0.30355678  0.13300952 -0.64745311  0.47144843 -0.84165784
 -0.89138896 -0.15107986 -0.73614306  0.12452107  0.87934829  0.33780881
 -0.37781861  0.97777698 -0.07578088 -0.78928011 -0.36541936 -0.69414395
  0.43513326  0.82133369 -0.45130623 -0.84133761 -0.28503823  0.64262607
  0.89454495 -0.07200038  0.04236347 -0.34134426 -0.63457136 -0.4359912
 -0.95304967  0.38120247  0.72211014  0.8102529  -0.79010214  0.70114329
 -0.50820354  0.29801279  0.97368582 -0.06518923 -0.52071565  0.35823045
  0.06314455 -0.4107416   0.64297116  0.31618293 -0.57668803 -0.01797649
  0.50409471 -0.18049326  0.39670132  0.9023206   0.0410966  -0.91543114
  0.02218992  0.63615486  0.79288751  0.72515402  0.3119059   0.25599975
  0.97731476  0.14571824  0.33871245  0.8496209   0.33288193  0.22782458
 -0.19312852 -0.60171415  0.97860244 -0.84193786  0.23838466 -0.40735072
 -0.98528572  0.94569389  0.39654993 -0.96019784 -0.9664617   0.91075268
 -0.48823246  0.0237262   0.42630353  0.89883538 -0.63291212 -0.44551536
 -0.02607378 -0.13145617 -0.86083487 -0.86493997  0.94942481  0.90158585
  0.64112086 -0.05099102  0.02910395  0.61140013 -0.30451797  0.09809801
  0.8866443   0.45295399  0.27020426 -0.84901097 -0.73677923  0.85722474
  0.20307421 -0.51789048 -0.17571751  0.4375573  -0.00629297 -0.95494113
  0.220324    0.18977214 -0.37128499  0.91281182 -0.01718025  0.07115228
 -0.30837898 -0.52177122  0.29826659 -0.19370706  0.1246094  -0.34161169
 -0.47917319 -0.05369854  0.80166131 -0.48630783] [-3.38839254e-01  6.73903186e-01 -4.33492598e-01  5.43089501e-01
 -2.93358510e-01  2.99423139e-01  9.58891452e-01 -2.10672893e-01
 -9.15735959e-01  6.84574484e-01  7.21464353e-02 -8.87021917e-01
 -6.11105921e-01 -2.73130624e-01  6.62958592e-01  4.69743413e-01
  9.51677302e-01 -8.21391062e-02  8.24015372e-01 -8.79181999e-01
 -3.50300393e-01  8.00566917e-02  5.22360406e-04 -9.09742348e-01
  8.19914474e-01  1.56791348e-01 -6.91504698e-01 -9.21030351e-02
 -9.11302030e-01 -8.87371910e-02 -6.87325912e-01  3.56893000e-01
 -5.66844087e-01 -1.75575965e-01  9.44127905e-01  9.27073258e-01
  7.21562465e-01  1.41277346e-01  7.74180350e-01  4.54570658e-01
  7.72390065e-01  1.05754080e-01 -1.21022475e-01 -3.07664972e-01
 -4.17662647e-01 -1.00145589e-01 -8.27095968e-01 -9.35214956e-01
  9.14160030e-01  8.60435221e-01 -8.74864799e-01  4.54995754e-01
  4.89496606e-01 -1.67812926e-02  3.26941253e-01  5.70974479e-01
 -4.30209977e-01 -4.62108034e-01 -6.34070923e-01 -7.86859656e-01
  9.03407961e-01  6.12070005e-01 -1.59262756e-01 -5.47405798e-01
  8.42861915e-01 -9.15942670e-01 -7.09487588e-01  7.51015243e-01
  8.59144382e-01  5.95355036e-01  1.70645270e-02 -9.86737648e-01
 -3.05322536e-01 -1.68907171e-01 -9.92448153e-01  6.27905073e-01
  5.62554384e-01 -1.42253644e-01  4.00777349e-01  3.62587834e-01
 -7.60572918e-01  9.88539972e-01  5.68339692e-01 -2.31518096e-01
  8.95993335e-01 -7.88459324e-01 -4.96196496e-01  3.76426590e-01
 -5.57303031e-01  5.67010267e-01  7.10595946e-01 -4.76449987e-01
 -3.25520235e-02 -9.67640921e-01  4.13503057e-02  4.54861389e-01
 -2.97677164e-01  5.40341341e-01 -2.44925795e-01 -7.88018273e-01
  7.03775345e-01 -1.66273456e-01 -7.10644476e-01  9.40747687e-01
  5.70972036e-01  9.90824327e-01  6.83612318e-01  1.16769992e-01
 -1.80201529e-01  9.67542863e-01  4.11074170e-01 -6.19051074e-01
  2.20871619e-01  9.52155087e-01 -2.09379052e-01 -8.72699722e-01
 -4.71719896e-01 -5.64430236e-01  7.95297043e-01  8.69831480e-01
 -8.87973575e-01 -3.19565022e-01  5.16712354e-01 -7.36424693e-01
  5.92648897e-01 -1.83854293e-01 -7.37527825e-01  1.68068058e-01
  6.07278191e-01  1.43280133e-01] [ 0.0892777   0.43494783  0.71628294  0.64402557 -0.13853279 -0.42647719
  0.36905971 -0.03761826  0.61143384  0.43057947 -0.78421464  0.45808896
  0.99691445  0.18734076  0.3560084  -0.91825936  0.97489238 -0.33690472
 -0.00907238 -0.84473535  0.04100643  0.56296395 -0.88517545 -0.99088795
  0.28994553  0.48944398 -0.20603093 -0.38167292  0.50092774  0.20523627
 -0.50370194 -0.76311914  0.27363204  0.29266996  0.61233944  0.54184907
  0.51421915  0.95731675  0.34523128 -0.65908919  0.71107951  0.21324499
 -0.35796661 -0.46204955 -0.08027331 -0.0496605   0.49769103 -0.88248355
  0.45435976  0.99384562 -0.92600936 -0.23911927 -0.79615689  0.134844
  0.22235249  0.92580354 -0.83107991 -0.55664807  0.45507636 -0.92666291
 -0.04872005 -0.30294773  0.84391956  0.22958794  0.72233883 -0.45744109
  0.79794588  0.79529817  0.94138829  0.34175402  0.73453556  0.38103304
 -0.05537085 -0.34927749  0.48000877  0.11208683 -0.89970153 -0.20733885
  0.57274215  0.44552285  0.75318844 -0.56627921  0.94038191 -0.82498178
 -0.35168373  0.87605884 -0.62867547  0.13603337  0.46851116  0.27449193
  0.79864508  0.22106549 -0.86545809 -0.65688093  0.95446826  0.49535975
 -0.82657327  0.20976776  0.81865776  0.72224614 -0.84964468  0.36406619
 -0.94809242 -0.36661807  0.19259039 -0.79598124 -0.88686901  0.68221535
  0.48514894  0.4266054  -0.18560183 -0.55247877  0.68310719 -0.17299422
 -0.39560523 -0.20344071 -0.99448349 -0.68596962  0.72654873 -0.27645216
 -0.67430341 -0.56222402 -0.05212238  0.71088557 -0.42547604  0.2228399
  0.97733774 -0.39590848 -0.57871739 -0.44359208] [ 0.20007104  0.62691105  0.12733659  0.58278626 -0.1248118   0.69147975
  0.05006633 -0.39380054  0.48927358  0.00664101 -0.37969432  0.82555672
 -0.0679462  -0.15727879  0.89680825 -0.23281063  0.23914409  0.1486763
 -0.90864989 -0.5142537   0.92908112  0.84327838 -0.52406281  0.3154981
 -0.35322179 -0.69064268  0.67460068  0.23910544  0.80545166  0.86032334
  0.76551683  0.02329252 -0.09820855 -0.69907368 -0.65768195 -0.22331386
  0.36532191  0.72289668 -0.11394504 -0.54831132  0.87151788  0.76148387
 -0.94642235  0.69486762  0.22684466 -0.2829734   0.18828956  0.18112492
 -0.85743589  0.82693573 -0.17945844  0.86028696  0.67669652 -0.99765506
  0.10029319 -0.8594325   0.52553737 -0.24989832 -0.70610995 -0.43342392
 -0.37730381  0.40518552  0.67580114 -0.84021344  0.10672159  0.34523504
 -0.3366908  -0.48467568 -0.8267301  -0.16708839  0.43883108  0.87119126
 -0.91334068 -0.70072274  0.75839923 -0.89168681 -0.67922674 -0.68677777
  0.86509074 -0.50295923  0.64742656  0.93811668 -0.10980131 -0.63036357
  0.82569893 -0.14943654  0.79380687  0.52736497 -0.22796224 -0.01055101
 -0.68531515 -0.09520439  0.0451276   0.49484295 -0.0701285  -0.13330769
 -0.97218219  0.65849906 -0.95813321 -0.17559998  0.13925129 -0.11195281
  0.00763867 -0.46970263 -0.40637377  0.08257405  0.39518951  0.52961316
  0.63354002  0.69338331  0.66436743 -0.99857122 -0.25805567 -0.77762206
  0.06599875  0.38262409  0.19490431  0.59653786 -0.61334901 -0.72991924
  0.1982134   0.26944948 -0.54217425 -0.31375122  0.15133339  0.23284855
  0.41029541 -0.06546266 -0.96759218  0.62094045] [-0.67252669  0.64280146  0.83052796  0.61255333 -0.17453722  0.19728065
 -0.67623423 -0.35747155 -0.34975346  0.63379668  0.2789704   0.71976255
 -0.41647231 -0.19357796  0.95898071 -0.3569881   0.92186288 -0.09462353
  0.64051611  0.34267024  0.34605711 -0.04060518 -0.69509598  0.31044598
 -0.03138316 -0.91438029 -0.62626838 -0.45385907 -0.5923705   0.08934362
  0.99023023 -0.04539566  0.1542171  -0.41709454  0.28816493 -0.99944489
  0.53236995  0.88614493 -0.20920553  0.65793755 -0.28157334  0.71156529
 -0.45997518  0.49368284 -0.29285993 -0.3600797   0.43560473 -0.74451677
  0.58769625  0.67402471 -0.77721824 -0.29748075  0.96889873 -0.4253134
  0.22258111 -0.89680362 -0.95308413  0.16861674  0.49729971  0.63971962
 -0.66382348  0.37879192 -0.38364959  0.4799427  -0.81347814  0.16130044
  0.21355701 -0.74210683  0.63923477 -0.33315978 -0.67840486  0.95352761
  0.96496545 -0.18073063 -0.61561486  0.19010898 -0.23348607  0.93048797
 -0.66015627 -0.32918279  0.42346699  0.38305562  0.98599081 -0.51514481
 -0.70401956  0.7603273  -0.69219707 -0.27905513  0.77658903 -0.16517031
  0.1079157  -0.47288861  0.1181827  -0.06388473  0.76396325  0.48568827
  0.72128509  0.97956628  0.6280251   0.54997726 -0.74162352  0.89987984
 -0.91355392 -0.5997448  -0.56469645  0.77296491 -0.77066031  0.28025294
 -0.10306025  0.6860195   0.52303624 -0.00311546 -0.26476087  0.59322402
 -0.24609357 -0.53725007  0.45895728 -0.0222231  -0.86678673  0.13621948
 -0.59237609 -0.28165409 -0.03552339  0.3997695  -0.92893629 -0.75347882
 -0.81872597 -0.770597    0.4842826  -0.24799817] [ 0.89747386  0.88422569  0.19978152  0.44919948  0.29599244 -0.0014217
  0.3947125  -0.47816186 -0.6974742   0.93859247  0.84577909 -0.21504596
 -0.83372992  0.32965533 -0.17309912  0.31101119  0.52890347 -0.11002531
  0.79685429  0.82883432  0.64708333 -0.03435264 -0.62409361 -0.66916626
  0.72468901 -0.82873913  0.00815113  0.54705481  0.67891408 -0.82467328
 -0.42331763  0.36639221  0.56613562 -0.66727922  0.66665509  0.6876534
  0.33094142  0.50722238  0.17313685  0.59814406  0.99992876 -0.25731144
  0.32078128 -0.32290697 -0.66424669  0.49352232  0.80914121 -0.01277114
  0.28157671  0.38533514  0.93405796 -0.12007247 -0.05741854 -0.78157712
  0.56187178  0.3234447   0.53910351  0.9061227  -0.06223031  0.85195896
 -0.84882678 -0.61473314 -0.94740292  0.52793293  0.13964629  0.45147194
  0.68136547 -0.01902894 -0.81949425 -0.19052244 -0.17568661  0.56158416
 -0.85727749  0.36273642 -0.80674013  0.76803456 -0.51668914  0.5467831
 -0.59160712 -0.72658284  0.17142386  0.06734869  0.88423744  0.79465628
  0.21520696 -0.59545923 -0.70715974  0.23975267  0.32055279  0.82386939
  0.81345445  0.44114527  0.70613337  0.88997836 -0.5529609   0.66165012
  0.65199409 -0.72483951  0.67040312 -0.48679343  0.17094968  0.31186781
 -0.71809721  0.89069137  0.16757726  0.79972709 -0.9422392   0.0674975
  0.10832124 -0.15226276 -0.52056457 -0.09424993  0.04905762 -0.63964209
 -0.66718436  0.77671771 -0.07104549 -0.75156245  0.5146919  -0.13269351
  0.09133796  0.06259291  0.73012008  0.96952835  0.93108471  0.84276847
 -0.48934716  0.73442817  0.92229973 -0.55504191] [-0.89807619  0.31307433  0.51687151 -0.48744448 -0.50658486 -0.48803839
  0.41604355 -0.59492869 -0.61454327 -0.95547909 -0.86311275 -0.05394457
 -0.94632771  0.31137189 -0.45511638  0.5028303   0.97649113 -0.91455783
 -0.88116802  0.37032802 -0.90416217 -0.08044611 -0.53118411  0.76996473
  0.7835995  -0.80104627 -0.04088753  0.70368723 -0.99123864 -0.96615928
 -0.00873489 -0.43084388 -0.9988931   0.51125202 -0.86400826  0.79638417
  0.77060216  0.92917212 -0.91380284  0.96770049 -0.37560068  0.12285561
  0.57279525 -0.67650625 -0.30441503  0.14383869 -0.89969267  0.44657706
 -0.84432144  0.7989462  -0.95582992 -0.30934684 -0.58083727 -0.29247571
 -0.38878191 -0.90672613  0.63565046  0.13571508 -0.44731701 -0.7889604
  0.76469291  0.87310397  0.79756086  0.21370513  0.59602605 -0.54582159
  0.37830281  0.16580111 -0.54660023  0.979187   -0.46620416 -0.70204654
 -0.84317179  0.1245718  -0.94111633  0.28694024  0.19157813  0.58817139
  0.90680268  0.16516458  0.67446428 -0.04739321 -0.83621434  0.66467499
  0.64656337  0.90762001 -0.12438699  0.16296297 -0.15079959 -0.18481251
  0.42041313  0.07538249 -0.56410425  0.08611224 -0.39891707 -0.50802097
 -0.35360771  0.82515093 -0.25355014  0.60586625 -0.1799104   0.2667703
 -0.36188766  0.39355965  0.86274668  0.5467632   0.14245758  0.95793989
 -0.46129379  0.5922607  -0.17272892 -0.05479491 -0.08526545  0.22691145
 -0.00479756 -0.2953912   0.55903175  0.44026437 -0.74500806 -0.02269126
 -0.09925818 -0.24084109 -0.32574369 -0.40863562 -0.92886855 -0.12894032
 -0.42533124 -0.60287224 -0.3423967  -0.4206856 ] [ 0.77059703 -0.2672092  -0.35175628 -0.01042115 -0.52254294  0.66790326
  0.27664091 -0.98496878 -0.01497061 -0.04655109  0.29952471  0.79079351
 -0.34732951  0.52225732  0.76368157 -0.02080377  0.38946838 -0.34299756
 -0.23969791 -0.3678106  -0.03233714  0.94456217 -0.27180404  0.04800873
 -0.39872634  0.80634681 -0.70527983 -0.43222931  0.02058173  0.24027948
 -0.43068494 -0.66746098  0.85159434  0.5659441   0.39853853  0.6809422
 -0.64514476  0.24349506 -0.46841748 -0.22797496  0.5727666   0.47282702
  0.36539681 -0.74968157 -0.39293002  0.70436635 -0.47370387 -0.75407568
 -0.92321313  0.26102481  0.84266486  0.49511822  0.04369769 -0.77481675
  0.77726657 -0.18262083  0.30808915 -0.24782692  0.16398183 -0.62292226
  0.24673985 -0.00642223 -0.169422   -0.79712894 -0.61544552 -0.57109572
 -0.38512235 -0.03107946  0.0122734   0.69730767 -0.8670967  -0.14493094
 -0.54767985  0.20853145  0.12524068 -0.61422075  0.6916486  -0.33562955
  0.36125097 -0.13496481 -0.89239165 -0.7110326  -0.09320709  0.2035002
  0.21956507 -0.95300058  0.25595964 -0.7648576   0.65442504 -0.79699617
  0.39727277 -0.73717912  0.13384418  0.34151125  0.04421085  0.2111872
 -0.19580382 -0.13543587 -0.73425369  0.20610852 -0.08921665 -0.53057651
  0.68066703  0.39200774  0.54292181 -0.96004422  0.15196401  0.51048253
 -0.42592335 -0.11151508  0.73538859 -0.40444902 -0.23280715  0.41526425
 -0.93367293 -0.89015882 -0.45367973  0.69035148 -0.16045452 -0.07947129
  0.42122875  0.45103908  0.16193771  0.60500481  0.48577141  0.6004423
 -0.79128554 -0.7226641   0.26029856  0.12929434] [-0.08813283  0.82164871 -0.33141902 -0.06459251  0.44425321 -0.58975257
 -0.97185284  0.61124955  0.87340454 -0.06375002  0.19172509 -0.66712295
  0.05428149  0.82523686  0.17871519  0.9517839   0.41644413 -0.53252229
  0.2412985   0.83648235 -0.25220006 -0.09040629  0.89154336  0.38103
 -0.54441579 -0.890297   -0.57844795  0.64394361  0.64209287  0.3617885
  0.41201009  0.29702021  0.73452957 -0.72998922 -0.36001376 -0.76421452
 -0.75685161 -0.9552618  -0.76430579  0.03773092  0.55982933 -0.99009297
 -0.69900698 -0.28908106  0.03141442  0.43758862  0.53602587  0.87818247
 -0.05940035 -0.362261   -0.5654044  -0.8518104  -0.415791   -0.73442179
  0.80707275  0.34693849  0.75643888  0.49998099  0.64686388  0.24235843
  0.18146125 -0.76737921  0.13632372 -0.19208444  0.20513243  0.74440655
 -0.59433297  0.61054367  0.35371233 -0.86672955  0.88878109  0.20606345
 -0.06811989  0.66589174 -0.98971357  0.30829472  0.31973402 -0.71198506
 -0.21148303 -0.41125516  0.89914639  0.42041779  0.43359526  0.16634205
  0.86585907  0.66354878  0.48807419 -0.34555208  0.65295564  0.55686377
 -0.47723245  0.70225138  0.25355728  0.85270272 -0.297178   -0.65615
 -0.4155858  -0.63971293  0.09521022  0.46281198 -0.64663056 -0.05990635
  0.98950762 -0.40898937 -0.74677753 -0.79663788 -0.75273746  0.53464942
 -0.38161417  0.40220707 -0.10386749 -0.90963005  0.58764534 -0.65146147
 -0.07840772 -0.97886319 -0.02526919 -0.49168912  0.46131111  0.70718568
 -0.38922758 -0.12103215  0.13028336 -0.10218772  0.89876581 -0.90621895
 -0.84347091 -0.19970012 -0.38226727 -0.29410012] [ 0.00896935 -0.16555899  0.40263364  0.52942393 -0.60222793 -0.06895795
 -0.15981723  0.62404757 -0.57045183 -0.17738162 -0.6668249  -0.25542333
 -0.9475914   0.9571078   0.18492054 -0.64098286  0.4728747   0.97648045
 -0.87222168  0.32393649 -0.98565029 -0.04182527  0.26999922  0.42216398
 -0.52169894  0.31345021 -0.95494474  0.16912324 -0.76908455  0.78910093
  0.69297199  0.72612868  0.91721082  0.32742342  0.93115097  0.48266851
 -0.16722986  0.41899815  0.18286906  0.14535925  0.08623851  0.47935277
  0.66247927  0.1339635   0.39440056 -0.63255613  0.27103056 -0.8579338
 -0.17077802  0.8753712   0.34057752 -0.52590253  0.66339743 -0.4931719
 -0.312924    0.73351532  0.01430557 -0.98911219  0.61951259  0.17675353
  0.65474168 -0.12444078 -0.92692793  0.05789527 -0.91277002 -0.18094265
 -0.62637947  0.70700914  0.43974092  0.69394778 -0.10293898 -0.51711128
 -0.06371452 -0.10133374 -0.251066    0.41637732  0.52762093 -0.58007534
  0.58313902  0.15231677  0.11364494 -0.06660239  0.65410276 -0.09275211
 -0.51431591 -0.11620711  0.78500235  0.50737904 -0.49059256  0.64454823
 -0.05853259  0.76827317  0.09949913 -0.92257158 -0.81870666 -0.89099454
 -0.03005324 -0.95262168 -0.49920769  0.15195795  0.59414865 -0.2414232
  0.54974136  0.40749322 -0.98475398  0.39737335 -0.09851575  0.11227307
  0.38148062 -0.97834053 -0.78179009  0.59104737  0.56566354 -0.7782978
  0.5134471   0.5307623  -0.03765912 -0.99918097 -0.87036729 -0.28887249
 -0.67822728 -0.35063644 -0.25014018  0.27314485 -0.27731291 -0.97713949
  0.25809328  0.26812966  0.29514969  0.65579593] [ 4.00496296e-03 -3.74513706e-01  6.89537392e-01  4.70471394e-01
 -4.24123763e-01 -7.65498227e-01  7.89122927e-01 -2.27358770e-01
  7.48977813e-01 -3.27211682e-01 -7.96301498e-01 -5.69159747e-01
  7.34644744e-01 -9.52535913e-02 -8.52371962e-01 -5.75125876e-01
 -2.55058261e-01  8.48885846e-01 -2.87136666e-01 -6.72120106e-01
 -4.63575138e-01  5.53531544e-01 -3.89084482e-01  6.27324137e-01
 -2.19839398e-01  8.16852460e-01  8.46954602e-01  9.40456255e-01
  4.53018441e-01  6.15632910e-01  2.78933704e-01 -3.81993456e-01
 -9.71298394e-01 -1.72993412e-01 -4.91732206e-01  6.28995392e-02
  2.42008939e-01  5.21948025e-01 -1.72277276e-01 -6.26969940e-01
 -8.71863973e-01 -8.18741177e-01 -5.23659751e-01 -7.88257072e-01
 -8.71207048e-01  9.94827345e-01 -6.45057979e-01  9.37545879e-01
 -8.88183676e-02  4.75907372e-01  1.17702013e-01 -6.98592322e-01
 -7.64416872e-01  1.01531520e-01  1.25332407e-01 -3.37745445e-01
  2.69054360e-01 -2.64131606e-01  6.51461569e-02 -9.47103131e-01
 -1.29449034e-01  9.67273511e-01  2.31189433e-01 -2.96155184e-01
  4.42627549e-01  3.35425402e-01 -1.53207394e-01 -9.35421761e-01
  5.54126756e-01  8.84536971e-01 -1.23849055e-01  4.65434047e-01
  4.89648517e-01  2.53626446e-01 -8.20220399e-04  3.72648280e-01
 -3.88908724e-01  5.86303818e-01 -8.69555137e-01  7.69716429e-01
 -9.26118267e-02 -2.62773985e-02 -6.98877799e-01 -1.34789140e-01
  8.11632182e-01 -4.13865808e-01 -5.24483408e-01 -8.93664990e-01
 -8.17428158e-01  4.33174621e-01  5.80865102e-01 -7.28704095e-02
  4.90190087e-01  2.65821597e-01 -8.65602933e-01  7.66670992e-01
  3.91399764e-01  7.29660168e-01  1.81890592e-01 -9.74727892e-02
  7.25106892e-01  3.41030529e-01  3.96279797e-01 -5.41764321e-01
 -6.20609632e-01  5.38627250e-01 -9.53495071e-01 -4.83180564e-01
  5.09323518e-01  4.48145918e-01 -7.88270110e-01 -3.64619843e-01
  2.06752482e-01  4.01238123e-01  4.92630042e-01  2.48332806e-01
  3.82400951e-01 -4.32346865e-01 -1.12632434e-01 -6.81632401e-01
  3.05954380e-01 -2.34104748e-01  4.19433728e-01  7.04641611e-01
 -8.29460122e-01 -3.69798908e-01  7.90649451e-01 -9.68799856e-01
  2.26067763e-02 -9.97132935e-02] [ 0.41300859 -0.65099111 -0.95912086 -0.71528415  0.04306743 -0.55389277
 -0.13077058  0.82063323  0.62345402  0.53991032  0.511673    0.65599531
 -0.90379123  0.48975223  0.84722346  0.74924555 -0.90263788  0.63811245
  0.73366621  0.79239831  0.92935355  0.55343343  0.35023249 -0.08053164
 -0.31517484  0.53330639  0.23059152 -0.1451652   0.26849169  0.86842821
 -0.73545996 -0.05154923  0.3105509  -0.5437516  -0.51714186  0.37804222
 -0.71170742  0.99927469 -0.43915205 -0.58778613 -0.12925798  0.63944735
 -0.9501597  -0.60809998  0.15315228 -0.64701772  0.00476448 -0.92841333
 -0.9018218   0.82636416  0.32293057  0.11381034  0.93370412  0.82067399
 -0.11865484  0.8122418   0.17401899 -0.49181289  0.96646779  0.18322425
  0.42847305  0.08562222  0.1928179  -0.92614896  0.58055122 -0.28556859
 -0.38272776  0.29643619  0.72934256 -0.24422751  0.832231   -0.70969306
 -0.71017277 -0.93953019 -0.18869337 -0.2652099  -0.93223066  0.31903442
 -0.11173179  0.66972956  0.85318727  0.13179039  0.10668535  0.6270516
 -0.89596269 -0.45286628 -0.02434951  0.55100001 -0.62670941 -0.55715097
  0.80116066  0.95990672 -0.85841916  0.67639238 -0.9330169  -0.72035152
  0.83256433 -0.4251823   0.31981435 -0.02423163  0.35378444  0.82773194
 -0.49290222  0.66494346  0.12035603  0.40137427 -0.99303858  0.73101428
 -0.46737255  0.27569565 -0.17120775 -0.69834375 -0.74260643 -0.70772998
  0.50475064  0.91831774  0.15004117  0.86464446 -0.64367996 -0.25842586
 -0.26118034  0.50431409  0.78585502 -0.48625082  0.30999901  0.9280909
 -0.90581797 -0.9997215   0.30644454  0.8607266 ] [-0.52647719  0.44637449 -0.66139075 -0.53461406  0.98949834  0.93164028
 -0.39685481 -0.67478667  0.38763717 -0.58244318  0.5647873   0.91580641
 -0.6704548   0.55749047 -0.19455003  0.06500911 -0.71253438 -0.21544817
  0.45575637  0.49221403 -0.58711955  0.21601352 -0.22622814 -0.01463259
  0.82053498 -0.40571645  0.45670566 -0.44835683  0.6820899  -0.66612973
 -0.24669377  0.52709263  0.04595116 -0.27013429 -0.51492394 -0.6345935
 -0.70314147  0.81688732 -0.41025193  0.98748264 -0.06526819 -0.29470005
  0.94473419  0.02937567 -0.61408056  0.9366335  -0.34838439  0.90270976
  0.16529437  0.74394349 -0.70430408 -0.76026968 -0.85503955 -0.09760495
 -0.24727929  0.93595389 -0.0950706  -0.21083416  0.68494456  0.25943343
 -0.08878747  0.98904919 -0.94501059 -0.54146762 -0.92101311  0.48111274
 -0.5678585  -0.02599715 -0.85500737 -0.90443184 -0.16926747 -0.80701305
 -0.15899915  0.22715986 -0.72560435  0.21590626 -0.10843215 -0.84347954
  0.82067342  0.9004128   0.91066801  0.75988809 -0.01761081 -0.93321132
  0.92138189 -0.21988978  0.44378988  0.90046877  0.38126329  0.8926158
  0.00145723  0.88246849 -0.54563684  0.52487568 -0.12084496  0.04823564
 -0.34539929 -0.11814636  0.78134756 -0.48454259  0.99380896  0.91398705
  0.21098565 -0.61877148 -0.37621159  0.54164917  0.24366049 -0.34527324
  0.22120604  0.93809285 -0.24540438 -0.46981092  0.75100271 -0.89991783
 -0.03716839 -0.61104148 -0.97281121  0.36775679  0.23030764 -0.6578507
  0.72352061 -0.15065197 -0.93546463  0.47094394  0.68125105 -0.59844861
  0.21389248  0.13987275  0.26721183 -0.67654885] [-0.70825266  0.64806046 -0.84525766 -0.89034157 -0.20617456 -0.20256003
  0.94940845 -0.9930266   0.35816922  0.82060837  0.42140299 -0.64536054
 -0.45911839  0.33551357  0.38815856 -0.4770562   0.6363244   0.17303829
 -0.50103365  0.35838696 -0.23401449  0.91067249  0.52401693 -0.0555301
 -0.5231946   0.97258461  0.38716636 -0.35938445  0.62428886 -0.2427071
  0.84894342  0.20512207 -0.324978    0.71629749 -0.57008079 -0.15432392
 -0.84152015 -0.25086712  0.25572596  0.61126305 -0.05652353 -0.67075306
 -0.30529771  0.69000388 -0.92627839 -0.99099052 -0.16199329  0.58374517
 -0.5758335   0.90626177 -0.69349409 -0.99046047 -0.01758448 -0.69484095
 -0.73837201 -0.72813906  0.90942221  0.73785174  0.63001592 -0.99685576
 -0.10456192 -0.37910422 -0.46170538 -0.62234214  0.0119254  -0.85900375
 -0.23593823  0.7534387   0.29171511 -0.73804374 -0.02761459 -0.77950805
  0.68639971 -0.03375668  0.67976378 -0.33718231 -0.5070688  -0.01503793
  0.92270607 -0.87114878  0.17451638  0.90474296  0.21413979 -0.38574449
 -0.17366071  0.73910858 -0.56444145  0.72882126  0.87005315  0.86437525
 -0.45859076  0.00803009  0.34453831 -0.56869382 -0.79425655  0.06855302
 -0.5249645  -0.4806026  -0.6388355  -0.0787883  -0.1541555  -0.96353778
  0.02084725  0.52035083  0.2607157  -0.05948461 -0.35780953 -0.970231
  0.45297372  0.87928757 -0.78706328  0.47679879 -0.28133    -0.52100311
  0.00197551  0.79223154 -0.18174534  0.00453432 -0.21116187 -0.42695464
 -0.92953596 -0.80098451 -0.80341131  0.75313791  0.29215556 -0.74152919
  0.46750893 -0.81816256 -0.2318467   0.78327719] [-0.7073992  -0.19046393  0.55105984  0.46874468 -0.39516605 -0.5908218
  0.79598618 -0.86112036  0.11833205  0.97671509 -0.08951716 -0.82222316
 -0.66433445  0.19634094 -0.62068739  0.49963476 -0.21578014 -0.22879389
 -0.76286831  0.06775223  0.55058695  0.44111099 -0.07957105 -0.90742547
 -0.60353888 -0.30273534 -0.50667364 -0.89981374 -0.44924632 -0.58733066
 -0.49257218 -0.10431369  0.20218703  0.57433077 -0.60129882 -0.81296066
  0.65941668 -0.95696706  0.72163133  0.68005843 -0.03431413 -0.75448389
 -0.65677152 -0.04763721  0.40209549 -0.41473782 -0.84311392  0.77754609
 -0.7390591  -0.49776179  0.06109771 -0.42255913 -0.94895079  0.09327869
 -0.00305139  0.89183337 -0.50506734  0.57230875 -0.89798468 -0.95007419
 -0.96687804 -0.57088433  0.53335538 -0.5866798  -0.00958434 -0.63817587
  0.65322525  0.77562283  0.65122308  0.23038052 -0.63204237  0.39483071
  0.71793261 -0.72141234 -0.22565112 -0.44404931 -0.93892855 -0.72674603
  0.89988034 -0.89800183  0.46802176 -0.80672339 -0.30665045  0.4897531
 -0.06727158 -0.61620941 -0.85345096 -0.13703817 -0.68834608 -0.15818201
 -0.38885631 -0.42847866 -0.41526805  0.58945833  0.65489785  0.84883477
 -0.02759663 -0.03786833  0.21192852  0.08649894  0.56465015 -0.42016125
 -0.62358674 -0.61532678 -0.8354442   0.17772134 -0.58006066  0.61680583
  0.73161388 -0.09052582  0.32190274  0.79574622 -0.93306903 -0.94837692
  0.11298127  0.09872906  0.44840301 -0.88565535 -0.57615381  0.78019788
  0.6660987   0.16583069  0.48550495  0.67569483 -0.61651858 -0.36433962
  0.95108182 -0.07642716 -0.66465149 -0.88053142] [-0.87193201  0.81752259  0.38611844 -0.26050787  0.86221972  0.86953911
  0.33789236  0.81605516  0.3596782  -0.98056236 -0.31697927 -0.67439257
  0.56952496 -0.73824314  0.45928169  0.46676306  0.76940264  0.91856966
 -0.1658616   0.9272662  -0.21593795 -0.91345543  0.57754579  0.55663733
  0.45571669 -0.89497785  0.05612249 -0.27048423  0.7870417  -0.17353587
  0.68935536 -0.76217923  0.01694178  0.7984214  -0.74301807 -0.84411637
  0.18028648  0.82420521  0.23171133  0.36577879 -0.68030205 -0.39499296
  0.77573447  0.26641866 -0.68306857 -0.15830719  0.34166622  0.44265473
 -0.26227998  0.19649546  0.06163878 -0.40590301  0.0825035   0.72193888
  0.69688824  0.63635058  0.10294359  0.93638545  0.01912912 -0.53087095
  0.96093849 -0.24157152 -0.65333519 -0.49180398  0.28330692 -0.20720317
  0.46437269  0.29685996 -0.62791716 -0.61594411  0.1867512   0.52756039
 -0.57953484 -0.04703647 -0.40659493 -0.84896277 -0.93008357 -0.80586633
 -0.7524425   0.22452208  0.69439041 -0.65451445 -0.90176289 -0.21934913
  0.08683446 -0.82652253 -0.27591587 -0.08193985 -0.8989145  -0.44977504
  0.40802508  0.02366312  0.2872339  -0.40976262 -0.5184783   0.27667167
 -0.56320901  0.89050186 -0.75019546  0.9242376   0.86153893 -0.47766083
 -0.40012056  0.7051581   0.88744924  0.86999652 -0.23133235 -0.89316718
 -0.79459662  0.22596094  0.60256272 -0.72406822 -0.01214461  0.51281715
 -0.11183064 -0.40869789  0.08176257 -0.52546288  0.69396623  0.78316906
  0.07101137 -0.28946158 -0.66185981  0.19676333  0.5167377   0.38123568
  0.0096259   0.04119948  0.0336094  -0.30594744] [-0.78268841  0.01959191 -0.62405571  0.31638823 -0.0152598  -0.38874837
  0.06937882 -0.60322022 -0.94173744 -0.27163062 -0.51472376 -0.39929152
 -0.30935205 -0.96219939  0.18865723  0.39431306 -0.05296656  0.52175437
  0.07370162  0.01786392 -0.32711047 -0.75809039  0.9715292  -0.90969466
 -0.78103885  0.40290996  0.17442903  0.71761184 -0.52336978 -0.21159801
  0.26534876 -0.07982082 -0.40184119 -0.98292957  0.86564718 -0.06135834
 -0.85582983  0.49560288 -0.67983432 -0.68064219  0.84716761  0.46841453
  0.69462595  0.82282982  0.36653365 -0.93930449  0.99403734  0.78392166
  0.97073044  0.03187059 -0.50132392  0.61849279  0.53886869 -0.19393951
 -0.68640627  0.46160668 -0.68203009  0.08106446 -0.07916242 -0.14307917
 -0.39866158 -0.28972504  0.54793703  0.08330961 -0.0679417  -0.83151086
  0.72226594 -0.54304226  0.06391039  0.56576182  0.52787102 -0.02885324
  0.11858709 -0.1527867   0.905287    0.79199364  0.34971639 -0.81633719
  0.56073033 -0.61267803  0.20996311 -0.27998789 -0.23327939 -0.57753647
 -0.70236637 -0.43665196  0.44167079 -0.63341764 -0.01083227  0.89859536
  0.95972943 -0.30958916  0.9568337   0.11001166  0.54988291 -0.93838534
 -0.95916128  0.4071965   0.20706585  0.20005638 -0.77550555 -0.34769875
  0.07767695 -0.42056863 -0.73216935 -0.44781618  0.4480543   0.29648446
  0.45102657 -0.33013774 -0.87354673 -0.42944136 -0.59173415  0.17180477
  0.39739867  0.38881259 -0.76197016  0.30091924 -0.47818133  0.93910635
 -0.49654552  0.1891215   0.69693191 -0.69842628  0.20965468 -0.14139439
  0.0463437  -0.7794188  -0.72745428  0.2295848 ] [ 0.69184669  0.45797815 -0.79125212 -0.63283504  0.2143445   0.51018387
  0.40658611 -0.09660201  0.86846347 -0.7307572  -0.29828357 -0.89163439
  0.52566432 -0.78463848  0.8661205   0.34124745 -0.39922802  0.78955001
  0.31403199 -0.54683777 -0.51363482 -0.18961025 -0.29037505  0.43501733
 -0.52943814 -0.94903189 -0.40147077  0.65269689 -0.34705964 -0.42999769
 -0.16646344  0.07773175 -0.98508288 -0.90023604  0.75046752  0.16796416
 -0.24526225  0.46710888 -0.54188463  0.89574109 -0.68790142  0.70181022
  0.36142427  0.65318216 -0.04445266 -0.18005467 -0.14423245  0.80537478
 -0.18318468  0.75488818 -0.05673527 -0.80016952 -0.00832614 -0.04561143
 -0.83719286  0.97515926 -0.90247293  0.92520975 -0.85606711 -0.49434161
 -0.00209539  0.45952126 -0.85540127  0.23502894  0.06528586  0.93723196
  0.86259995  0.50291878  0.33058793 -0.23415487 -0.88681412 -0.5587968
 -0.87027029 -0.0639475   0.59346294  0.69800396 -0.18198736  0.02609807
 -0.62230498 -0.79128052 -0.89783071 -0.69755643  0.22986184 -0.22279882
 -0.26186495 -0.17045987  0.58317243 -0.63048508 -0.0356486   0.40951593
 -0.45493995 -0.467515   -0.01054251  0.7691379   0.77978651  0.31002168
  0.07109814 -0.79405666  0.06043508 -0.73113536 -0.33218268 -0.34076446
  0.56832097  0.54699441 -0.28140268  0.71691925 -0.14202578 -0.67667621
  0.12845601 -0.07710715 -0.79908626 -0.26585499 -0.73350213 -0.74570448
  0.15712596  0.1029985  -0.58732393 -0.3095919  -0.1346893  -0.39526217
  0.57744965 -0.06241751  0.25081966  0.55287988  0.89643853  0.21548303
  0.10921118  0.22394693  0.62116887  0.67636802] [-0.64390391 -0.47131195  0.36979805  0.27667282 -0.22650928 -0.44611113
  0.28570715  0.99559588 -0.2418076   0.74610029 -0.16203792  0.3374911
 -0.74746724  0.48766368 -0.06353759  0.85457189  0.53114697  0.07124576
  0.24967913  0.02887983 -0.18703878  0.60508786  0.35232673  0.52141404
  0.32024324  0.61376365  0.01967614 -0.174284   -0.57875833 -0.81609309
  0.62413131  0.52092744 -0.51458393  0.24839355 -0.73595019 -0.21595299
  0.09858141 -0.49932769  0.99813032 -0.5746171  -0.99864176  0.79530838
  0.21642353 -0.58334008 -0.75479328 -0.5779451   0.64008132 -0.54476201
 -0.58936157 -0.01243504 -0.55558521 -0.18548131  0.68197122  0.10493419
  0.16179728  0.61027005 -0.81112314  0.09931512 -0.38388841 -0.02167848
  0.81316889  0.51171695 -0.30024134  0.04918988 -0.29750954 -0.81416175
  0.66947849  0.3383361  -0.96883929  0.96438135  0.30903867  0.93079775
 -0.93513931  0.5244419  -0.81128046  0.622763    0.35839491 -0.32089717
  0.26393615  0.11008303  0.58227364 -0.74815471  0.30267976  0.17896432
 -0.1803897  -0.0338512   0.59072967  0.1726624   0.62364725  0.2552215
  0.49692987 -0.85496212 -0.43488614 -0.69607424 -0.88712329  0.18238617
 -0.05415625 -0.32580236  0.83888333  0.60590343  0.40239527  0.48781755
  0.58676617 -0.74931782 -0.36809135  0.81934449  0.63684549  0.10726779
  0.32578275 -0.22731765 -0.00967977  0.05379625  0.47958921  0.45086973
  0.66441018 -0.56975581 -0.94027999 -0.91735468 -0.14607954 -0.42880055
 -0.72003007  0.68217178 -0.98351934  0.57309185 -0.57189508 -0.56869426
 -0.50125232  0.34049749  0.87248282  0.47407907] [ 0.84490563  0.97840501 -0.71025881 -0.99032868 -0.67644641  0.37667428
 -0.04795672 -0.5705653  -0.96985591 -0.3429681   0.92660504 -0.80845051
 -0.41322401  0.98473277  0.76080299  0.1923723  -0.70370001 -0.07933716
  0.23967133  0.64013458 -0.62148153  0.32120458  0.07641561  0.18282794
 -0.01373475 -0.92448679 -0.03892967  0.71294055  0.06415331 -0.70304677
 -0.59229209  0.40861377  0.81563364 -0.9363718  -0.24190885  0.04664275
  0.68904882  0.9308214   0.17098249 -0.948711    0.01741704  0.4478792
 -0.62693105  0.34430227  0.33936243 -0.81409325 -0.16584114 -0.21695516
  0.02645771 -0.95813363  0.25342017  0.01195377 -0.4138758   0.80779798
 -0.90459154 -0.47819682 -0.05988975  0.35355993 -0.84075909 -0.51839121
  0.39909162 -0.24314053  0.61628117 -0.05988101  0.98408892 -0.06366894
 -0.4191215  -0.50172592 -0.44667425 -0.5453618   0.34014992  0.83867813
 -0.44862469  0.06776447 -0.6826491   0.28085413  0.90274348  0.66599045
  0.13004846  0.97718651 -0.62676827  0.19811149 -0.3028961  -0.69165991
 -0.00932284 -0.95950461 -0.82742808  0.39438223  0.55945213 -0.82752079
 -0.636732    0.30011472  0.62199892  0.77196954 -0.72888004 -0.32789623
  0.75004798 -0.59005653 -0.87896103  0.87373874 -0.9688664  -0.90149107
  0.15090822 -0.44603028 -0.06669997 -0.02538051  0.61279922  0.63835198
 -0.35801    -0.39876848  0.55539967 -0.75513576  0.67199566 -0.95258998
  0.07441816  0.55740699 -0.24763801  0.65232121 -0.37830375  0.25179237
  0.14792153 -0.25154817 -0.20396749 -0.77083218  0.04874565 -0.10870608
 -0.76146377  0.13807888  0.2477356  -0.2886015 ] [-0.47100707  0.63084833  0.96032177 -0.73508091  0.92755599 -0.69833035
 -0.50132803 -0.67362353  0.91805331  0.32997967 -0.64595453  0.04721955
  0.86767846 -0.63575181 -0.69736074  0.33808285  0.29256653  0.90533244
  0.09151126  0.38303697 -0.3760118  -0.03926038 -0.46162824 -0.69511989
  0.22070091 -0.24031894  0.67420521  0.53221225  0.47259037  0.96197195
  0.9428496  -0.48728261 -0.15686028  0.45851919 -0.76518184  0.1565275
 -0.06950366 -0.53271592 -0.48522053 -0.41256643 -0.06582031 -0.84248035
 -0.1975487   0.47358108  0.86024925  0.20294939 -0.65889528 -0.10614219
 -0.17347018 -0.38522841  0.33077413  0.71802362  0.95177169  0.25084638
 -0.79665759  0.95879838  0.75636149 -0.43441833  0.12065421 -0.74362806
 -0.61533448  0.62404217 -0.64197714 -0.70946732 -0.55497865 -0.65954213
 -0.08425834 -0.31558653 -0.04082253  0.28735673  0.41311379 -0.88186902
 -0.94430547  0.4309227  -0.29733062 -0.07250203 -0.0275734   0.55132745
 -0.75439691  0.38220874  0.07533793 -0.33887245 -0.9544449  -0.13558728
 -0.85236572 -0.44463628 -0.56235879 -0.06700499 -0.99551357 -0.12373148
 -0.92014694 -0.30578812  0.00372551  0.19477175  0.83774074  0.41214911
 -0.60865146 -0.63360093  0.55951162 -0.50641279  0.05561433  0.75941231
 -0.75282224  0.56837533  0.99277558  0.48519058  0.08570308  0.83318752
  0.7285984   0.36531169 -0.54110588 -0.54297942 -0.87347677  0.45066091
 -0.86317117  0.20834519 -0.83667636 -0.27353627 -0.57141047  0.28932203
  0.46453069 -0.60721721 -0.26578547 -0.69786367 -0.96102547  0.85722638
  0.36770838 -0.00575707  0.00397398  0.94141031] [ 0.69211874 -0.93269379 -0.70610774 -0.47435921 -0.04033762 -0.97884244
  0.74869092  0.59810834  0.78715926 -0.68133047  0.30109172  0.06398851
 -0.45970823  0.65872433  0.66262845 -0.48185591  0.13157048  0.82850516
  0.25781548 -0.38496185  0.83193434 -0.20727543  0.72956938  0.26274829
 -0.67865494  0.71716332 -0.42119459 -0.64805493  0.8493866   0.27809782
  0.53147757 -0.40555641 -0.25990693  0.94026433 -0.96983667 -0.33514612
 -0.61257828  0.83036351  0.33619715  0.31978646  0.18610488  0.23494613
  0.90565935  0.11255669 -0.36292193  0.85293138  0.3547123  -0.09822646
 -0.79350549  0.71448899  0.24911175  0.21937488  0.6295257  -0.36931548
  0.55252003 -0.03321976  0.97395453 -0.46054711  0.78701622  0.33347757
 -0.98943044 -0.76476907  0.07426804 -0.45186789 -0.7508435  -0.51073674
 -0.00489218  0.23277992  0.12878972  0.10025229  0.68696866  0.31366591
 -0.17431853  0.80797963 -0.69163228  0.52970608 -0.28142581 -0.61591124
 -0.83291752 -0.30751719  0.58634838 -0.56319889 -0.60906467 -0.81043608
 -0.92837574 -0.02762487 -0.28092955  0.44543512  0.85976407  0.62625745
 -0.82374008  0.25855971  0.89885053  0.45764014 -0.98416837  0.2804541
 -0.92416527 -0.49304648 -0.07298856  0.477932   -0.04440871  0.90317126
 -0.08778836  0.10615556  0.68775692 -0.53641824  0.50186735  0.4796692
  0.09201645 -0.31602851  0.85740957 -0.53029614  0.23820744  0.89100566
 -0.84452227 -0.81085419  0.12285126 -0.02127076 -0.45598689  0.92178391
  0.87636246  0.97418639 -0.80579798  0.34025738  0.38632715 -0.70495149
 -0.94118193 -0.95853079  0.80384682 -0.21392246] [-0.32780541  0.73261869  0.11067658  0.72741524 -0.32375449  0.27567393
  0.06883615  0.18109154 -0.06367446  0.20793996 -0.23292972  0.18393752
  0.9742658  -0.8977995   0.65287904 -0.48873406 -0.76304579  0.7086185
 -0.8512621   0.5513575   0.58981005  0.68532234 -0.35638987  0.53558038
 -0.91454625 -0.09880509 -0.20692983  0.33942859  0.50049056  0.7989297
 -0.63911899 -0.62486994  0.128019   -0.09260028 -0.51895789 -0.41763231
 -0.88343996 -0.04939102  0.2522681   0.91415742  0.61463367 -0.77883651
  0.52373434  0.43131247 -0.97582072  0.79319436 -0.75740944 -0.00738944
 -0.57289847  0.32032636 -0.33151843 -0.21601424 -0.95314341  0.19779059
  0.72755365  0.27769453 -0.83252146  0.98796133 -0.70281982  0.91985542
 -0.77968588  0.56945114 -0.41255131  0.67373886 -0.26931434 -0.61383743
 -0.99174195 -0.30097879 -0.43166477  0.98529573 -0.83186757 -0.62995069
 -0.05814557 -0.69025458  0.94182252 -0.84938058 -0.72164687  0.39223787
  0.48096349 -0.47902433  0.4675746   0.73066417 -0.7524165   0.02672327
  0.46240851 -0.07814073  0.62991307 -0.67062527  0.5820219  -0.03612642
 -0.18944126  0.53722738  0.8519811  -0.69208574  0.70522401 -0.45381909
  0.09993835 -0.74192157  0.45006338 -0.27095582 -0.95560447  0.46141717
  0.56491273  0.43258273  0.10411582  0.34613537 -0.49956759  0.32534051
 -0.57652584  0.69581534 -0.16957625 -0.60300297  0.30729426 -0.994827
  0.35033343  0.95868061  0.08757507  0.26668353  0.03764319  0.82986513
  0.14900853  0.77720013 -0.15612945 -0.28834053 -0.66464755 -0.20788403
 -0.92705098 -0.01665747 -0.16910923  0.94415522] [-0.69283581 -0.7318164   0.82487849  0.58734171  0.23745594  0.39270946
 -0.11744449  0.11505398  0.58268139  0.38666119  0.19086811 -0.07025973
 -0.82633153  0.69549996  0.72613165  0.05413435 -0.64505754  0.34925031
 -0.36466865 -0.32705424  0.7613385   0.94692571 -0.47933703 -0.62391266
 -0.10055246  0.39428856 -0.89312015  0.15708412 -0.12480104  0.36428941
 -0.18836378  0.81951405 -0.50802288  0.57492957 -0.39248431  0.25513257
  0.05511331 -0.4338581  -0.80547587 -0.65181312 -0.70387807  0.85254518
 -0.93189325  0.28762392  0.98135001 -0.41671312  0.52901478 -0.33376041
  0.24066973 -0.54919384  0.72984257 -0.75602161 -0.08733189 -0.86011398
  0.26874053  0.09134137  0.43929998  0.68880059 -0.70762995 -0.29885879
  0.26786002 -0.15148102  0.33107965  0.31466994 -0.11561465  0.95866576
 -0.16634957  0.8613896  -0.4480291  -0.79417432  0.12638204  0.14236974
  0.25484828  0.13894769 -0.7376638   0.55009834  0.23721834  0.35055813
 -0.65526439  0.75465578 -0.57884899  0.84905478 -0.83833265  0.28998626
 -0.40488235 -0.21142527 -0.26549332  0.2962553  -0.87470148  0.49471791
  0.69866431 -0.82321132 -0.40843049  0.31056073  0.67154854 -0.43257416
 -0.71201485  0.69436196 -0.67154542  0.48080124  0.35371368  0.56561109
 -0.22730714 -0.71658755  0.43123227  0.25407975 -0.28993619 -0.6710397
 -0.46136499 -0.92945175  0.13049173  0.4017771   0.18916527  0.62490553
 -0.90706312  0.58436299  0.82271466  0.92300114 -0.5037704  -0.55232391
 -0.81844908 -0.79073643  0.05040389  0.78682617  0.53666645 -0.94278965
 -0.57192711 -0.57274943 -0.04141474 -0.54871071] [-0.11283176  0.62550387  0.12430961  0.15350194  0.57665481 -0.08246243
 -0.81217426  0.21084533  0.29108104  0.00405962 -0.8023374  -0.17172639
 -0.98409932  0.66656015 -0.56849468  0.57045607  0.55181887  0.73297517
 -0.67495382  0.42076653  0.29814021 -0.13054055 -0.53587313 -0.44080718
 -0.97696429  0.30473717  0.63275536  0.61146401  0.8884205   0.33919006
  0.03349083  0.59987672 -0.34081036 -0.28509261  0.27372494 -0.72148206
  0.75205932 -0.91973354  0.71541638 -0.42980473 -0.83112994  0.70162541
  0.17511446  0.62344649 -0.89635565  0.98260265  0.94011083  0.64959498
 -0.07869898  0.55758265  0.41906896  0.06368422  0.32930466 -0.53804859
 -0.98539528 -0.37965033 -0.77994163  0.06321127 -0.60826312  0.35825702
 -0.3976651  -0.4441805   0.13187235  0.82650174  0.68731455 -0.79202731
  0.66226074 -0.89218129  0.52458775  0.03848018 -0.51792447 -0.55642825
  0.02024851  0.14742527 -0.23344771  0.39804998  0.92344375 -0.78354575
  0.28659584  0.30562789  0.54866637  0.97425939  0.35375431 -0.75860123
  0.7886954  -0.28172734 -0.30684851  0.18260011  0.78226526 -0.14462381
  0.2412089   0.49448749 -0.98800846 -0.95684406 -0.39652723 -0.29691919
  0.60109015  0.63139551  0.19358767 -0.2677671  -0.82790468 -0.5961616
  0.27240623  0.87667142  0.12594699 -0.2201994  -0.61968257  0.20576554
  0.84185999 -0.75108307  0.41430894  0.99742802  0.78309535  0.53749709
  0.51893297  0.48404638  0.97609184  0.33838736 -0.05925407  0.77703117
 -0.51358645 -0.26447524  0.62297831 -0.00944576 -0.27466654 -0.60566812
 -0.73209758 -0.58497298 -0.35800739 -0.12262347] [-0.46068153  0.2333815  -0.75635637  0.34292677 -0.40292192  0.36577547
  0.87547118 -0.75134965  0.48480229  0.42777901  0.44252548  0.76412408
 -0.40631123 -0.35227375 -0.35218405 -0.85967351 -0.82805003  0.82532625
  0.58728237  0.27845481 -0.95855675  0.19008655 -0.7289542  -0.51127216
 -0.21612853  0.5462555   0.98646076  0.58155844 -0.35168079 -0.85403962
 -0.17066118 -0.31936638 -0.01248736  0.0249631   0.07618199  0.97817487
  0.27414358  0.55615828 -0.784583   -0.89890958 -0.11222276 -0.08189081
 -0.85724746 -0.27000517 -0.06342338  0.02670237  0.79932803 -0.22486003
 -0.98371618  0.87764484 -0.49745827  0.65754263  0.24924503  0.74360775
  0.33736739  0.67461568  0.1027935  -0.13854941 -0.15853483 -0.85133257
  0.57033404 -0.60603074  0.00532647  0.7817729   0.41176699  0.75847108
 -0.56485829  0.57981507 -0.98653536  0.72150173  0.78019652 -0.08497448
  0.03493582  0.87819112  0.6132224   0.92969083  0.454563   -0.29987276
 -0.03958808  0.09461219 -0.80701852  0.60168759  0.08048017 -0.12135074
  0.9618855  -0.45465842  0.755721    0.31322136 -0.40230974  0.86604838
 -0.10000558 -0.68133567  0.69938234  0.92367879  0.37002338 -0.27842342
 -0.02917689  0.82707972  0.56134987 -0.00546514  0.6704094   0.45861841
 -0.63598883  0.40358492 -0.35060973  0.28661025 -0.53121898  0.32691203
 -0.91403179 -0.43056806 -0.5583521   0.88419769  0.44530644  0.86860886
 -0.15273815 -0.60615677 -0.0938767   0.72916288  0.06029043  0.8668329
 -0.22902701  0.90614437  0.1416844   0.50670317  0.2962007  -0.30778547
 -0.55490215  0.17567436 -0.1174809  -0.42048609] [-0.06169479  0.98304052  0.49713306 -0.95656901  0.0627486  -0.87514301
 -0.00268254 -0.43949493  0.43249253 -0.17503513  0.70585278  0.65070139
 -0.71695399  0.18840885  0.68869589 -0.6425115   0.69451856 -0.84272319
 -0.76282187  0.69236417  0.11893204 -0.91071634 -0.26838297  0.90367866
 -0.48882223  0.40368456  0.29616842 -0.6415568   0.51019029  0.68745426
 -0.51092906 -0.93590201  0.4864847  -0.63767767 -0.14480966  0.82268696
 -0.97044847  0.26036759  0.31418906  0.70484258  0.58102466 -0.68413081
  0.73068857  0.83310983 -0.70029     0.08784607 -0.51600254 -0.04011456
 -0.26725315 -0.54186892 -0.68345989 -0.23673604  0.10946803  0.39068262
  0.06693745 -0.20458322  0.89269479  0.18687143  0.64658871  0.35560844
 -0.691671    0.42183316 -0.80894233  0.21558514 -0.86478402 -0.25390644
 -0.25605413  0.4011343  -0.4317794   0.51987895 -0.65619802 -0.55919724
  0.79269763  0.91687524  0.0407654  -0.65541378 -0.6892003  -0.89406394
 -0.68682337  0.05164338  0.13960987  0.30204101  0.24386749 -0.41650399
  0.27361885  0.1899974   0.60510112 -0.0892744  -0.12529137  0.74406777
 -0.54230175 -0.94472438  0.02373777 -0.85198229 -0.73572859 -0.93274148
  0.15361985 -0.32736758 -0.54457016  0.47618526  0.43996337  0.43352522
 -0.11905855 -0.41334322  0.11507867  0.61411574 -0.64886081 -0.49026859
  0.43292053  0.66992713 -0.92883311 -0.66266799 -0.45552386  0.73200777
  0.98506478  0.80627993  0.29631387 -0.495712   -0.52530542 -0.38511155
 -0.01354471  0.59660472 -0.92659323 -0.06160359  0.73585582  0.7101731
  0.39861958 -0.85406983  0.85037272 -0.0923743 ] [-0.9851007   0.45720212 -0.09133545  0.6248471   0.37485777  0.7992656
 -0.47358766 -0.17566541  0.56630655 -0.8527299   0.21601293  0.85673186
  0.79703622 -0.83955588 -0.4673494  -0.50327437  0.86512866  0.97777074
 -0.0622544  -0.32773719  0.12463577  0.69222635 -0.13059615 -0.95649568
 -0.17545224  0.92690045 -0.48215911 -0.10982963 -0.94689873 -0.15817852
 -0.94699822  0.78551121  0.18824464  0.22925346  0.04245335  0.00184415
  0.27443726 -0.85317335 -0.73549349  0.3161195   0.32602462  0.2253551
  0.02264127  0.86770716  0.91758119  0.08676071  0.87954341  0.78274045
  0.4566102   0.2194984  -0.86905521  0.18040481 -0.51355171 -0.95096659
  0.17842403 -0.83251225 -0.12331408 -0.09552033  0.18066292  0.23920797
  0.93833048  0.03934137  0.55954895  0.72866891 -0.74568209  0.00434559
  0.73586419  0.96817981  0.51344077  0.79504144  0.95662104 -0.32814923
  0.20764476 -0.71942814  0.6461142  -0.70929597 -0.45177111  0.49520933
 -0.83438102  0.65352391  0.45532787 -0.30462375  0.15233457 -0.44396496
  0.7578412  -0.03423738  0.86043222 -0.59311578 -0.02034121 -0.97640902
  0.73372243 -0.69770032 -0.89556835  0.50124973 -0.65178315 -0.45754703
  0.48470058  0.16973565 -0.65298335 -0.07416977  0.52315284 -0.26595668
  0.36390563  0.09621378 -0.29441676 -0.19947254 -0.47842925  0.15535359
 -0.29943778 -0.18068294  0.78719274  0.94536113 -0.80790332 -0.39248416
 -0.17600396 -0.1740514  -0.74895426  0.65795962 -0.45659651  0.86910343
 -0.61443965 -0.88914086  0.24392142 -0.77166407  0.19923767  0.79336678
  0.08784809 -0.97197276  0.69898846 -0.60494737] [-0.14411403 -0.76625828  0.57548481 -0.75281953  0.01619844  0.49226529
 -0.10038014  0.37159684 -0.82187139  0.09997948 -0.06543681 -0.57270634
 -0.76193951  0.27734185  0.57443568 -0.61217369  0.86388884  0.66006904
 -0.7853424   0.25943383 -0.56434695  0.64167642  0.01412686 -0.94402591
  0.23283255 -0.58314978 -0.34709036 -0.51573931  0.99348383 -0.4109242
 -0.02391434 -0.90014561 -0.69616688  0.61528626  0.20602592  0.05560429
 -0.43716687  0.29323995  0.52868728  0.07776681 -0.00890793 -0.91068888
  0.03660808  0.37619393  0.50595903 -0.44052919  0.98855378  0.9705886
 -0.13312868  0.81521531  0.14250561  0.73946818 -0.54614782 -0.90986463
 -0.86896123  0.31897656  0.60099084  0.48014782 -0.61718239 -0.19158934
 -0.84556367 -0.57829328 -0.75356864 -0.2788751  -0.00160679  0.82330511
 -0.54857076  0.7537822  -0.23248137 -0.00711978 -0.86007111 -0.58112236
 -0.48518879 -0.63916339  0.89470216 -0.20061199  0.74846891  0.19731848
 -0.44599791 -0.70517935  0.6136098  -0.94663168 -0.39451071 -0.70610122
  0.75731178 -0.79958347 -0.54019617 -0.20534009  0.01722917  0.48503798
 -0.5392329   0.52087495 -0.4251875   0.87705527 -0.4186734  -0.19115135
 -0.34416173 -0.17129144  0.32550962 -0.06022152  0.89408629 -0.56778733
 -0.32445491  0.21389729 -0.30239066 -0.79232047 -0.27806567  0.78694016
  0.58450838  0.52251338 -0.50527216  0.93651957 -0.50023433  0.67986868
  0.43788612  0.08835336 -0.21074719  0.49533604 -0.23083347  0.02503118
 -0.42247539 -0.90591392 -0.8734644  -0.17758987 -0.4891815  -0.53880682
 -0.38870559  0.86597578  0.44766897 -0.41443995] [ 0.12172855 -0.3351459  -0.24562383 -0.5325273  -0.02720111 -0.44056054
 -0.87302751  0.24558027  0.97198263  0.37023063 -0.80926145  0.68607186
  0.02580537 -0.72503291 -0.59868469 -0.55402462 -0.2166317  -0.74880561
 -0.57883783 -0.77059236  0.97239933  0.28340671  0.81873965  0.3967587
 -0.02075454  0.43043995  0.60157857 -0.61785116 -0.87367214  0.34303075
 -0.3824708  -0.94382663 -0.77514293 -0.82280007  0.5415532   0.86568156
 -0.47886832 -0.73314664 -0.8924194  -0.95586495  0.74278441 -0.8146334
 -0.60867967  0.48658638  0.64161045 -0.1803466   0.36994478 -0.12372156
 -0.56699794  0.7496881  -0.22423054 -0.14550753  0.9129576  -0.5409077
 -0.20390334  0.5759777  -0.04330517 -0.71597298  0.32468273  0.41529396
  0.06529345 -0.71498239 -0.12242528 -0.33027257  0.94695457 -0.48053037
  0.59694183 -0.82349403 -0.04994857  0.33818    -0.19035076 -0.41726349
  0.50137475  0.09330073  0.77410828  0.08584658  0.42856426 -0.03945179
  0.33191529 -0.53898972 -0.73055374 -0.34131412  0.16935504  0.81364455
 -0.79262612  0.28882062  0.72049271  0.78497744 -0.61161607 -0.16889383
 -0.03935113 -0.96084665 -0.68134332  0.40226159  0.36761212  0.22899568
 -0.50702015 -0.75674847  0.55859412 -0.87708812 -0.21760018 -0.75440177
 -0.04807738 -0.94816815 -0.07601675 -0.42706779 -0.18462326 -0.30427236
 -0.075102    0.88841656  0.96209125  0.07893545 -0.59677205 -0.23942018
 -0.66634597 -0.36314737 -0.45218978 -0.70875027 -0.17819535 -0.66159443
  0.98375271 -0.88038354 -0.49960154 -0.34104276 -0.39567747  0.65432103
  0.19225854 -0.91483572 -0.69856538  0.57545702] [-0.01234375  0.552842    0.53191646  0.51582843  0.51398747  0.53955567
  0.78167069 -0.41130256 -0.45476172  0.37762518  0.92226707 -0.71277409
  0.02894161 -0.83078185  0.62888619 -0.0023994   0.59140288  0.75124408
  0.32625593  0.88552182  0.90529222 -0.90531225  0.3663962  -0.22756258
  0.65650263 -0.71807459 -0.21712704 -0.72402378 -0.15505442  0.81264215
  0.78264163 -0.24279591 -0.02635737  0.91684393 -0.74290694 -0.65391279
 -0.16100836  0.3981699  -0.35032708  0.57940611 -0.62254327 -0.78526958
 -0.40327131 -0.90248418  0.64297059 -0.48896993 -0.75534637  0.85745037
  0.0510569   0.17908358 -0.98817721 -0.66563275  0.20905984  0.77587493
  0.42244521 -0.32150538 -0.1491382  -0.19833278 -0.24867581  0.32626551
 -0.03107996 -0.02506733  0.77827579  0.53821227  0.67179976 -0.2817826
 -0.13191591 -0.58758193 -0.81459276 -0.66038722  0.57009219 -0.41111506
  0.78296856 -0.39811087 -0.26004184  0.07717095  0.89621004 -0.91937644
  0.4162664   0.08224833  0.3285472   0.89565397 -0.15708568  0.29572984
 -0.95779297 -0.74983386  0.09350643 -0.0598965   0.91812506  0.67890407
  0.18061849 -0.42205461 -0.00109766  0.90974706 -0.95143745  0.40003647
 -0.08565832 -0.19179751  0.6274978  -0.39739861 -0.02177203  0.15545117
  0.96890246  0.75377089 -0.46835562 -0.75977536 -0.85377302  0.04570877
  0.17468055  0.04448952 -0.16698033 -0.01475378 -0.19178838 -0.52739829
 -0.59534577  0.13054726 -0.42702053  0.65074953  0.46193671 -0.08834735
  0.59547554  0.12078888 -0.66770161 -0.4039619   0.64467312  0.21677066
 -0.23000116  0.8575525   0.07395882 -0.79117779] [-0.09483365  0.44576395 -0.52311235 -0.81603742  0.9597131   0.79495147
 -0.91495378  0.31258162 -0.24203054 -0.75353658  0.28243325 -0.59704049
  0.8604447   0.1604649  -0.01059748 -0.05402244 -0.58888576 -0.84290127
  0.45347377 -0.01312953  0.30997409  0.79521394 -0.21691621 -0.10275269
 -0.08854209  0.23871623 -0.91397729  0.94006016  0.33384036 -0.33468823
 -0.27017002  0.09726018  0.98975999 -0.90244665 -0.21947296  0.27736943
  0.03685588  0.51875553  0.04616084  0.44508196 -0.45154913  0.64146902
 -0.19099324 -0.80098184 -0.10746998 -0.22589535 -0.16544348 -0.84304765
  0.03985962 -0.8370889  -0.65396448  0.59856007 -0.33603264 -0.0430588
  0.17403051 -0.90605637 -0.47993745  0.90990243 -0.56635525  0.39139005
 -0.40537468  0.73993812 -0.29775005  0.60766317 -0.82843482 -0.28631509
 -0.72049464  0.57266846  0.38544548  0.21284834  0.99379614  0.59502707
 -0.93260547  0.09675628  0.96053537 -0.94566143 -0.05642882  0.90491174
  0.97356658  0.18286527  0.81142977  0.03469849  0.56718481 -0.6966396
  0.64725921 -0.70988365  0.26014986  0.0238348  -0.03064624 -0.53686767
  0.96986409 -0.17758573 -0.4173247   0.78314704  0.01158387 -0.03890508
  0.76803988 -0.78691389  0.10118841  0.49007538  0.5609676   0.54092551
 -0.39973353  0.80968674 -0.90408143 -0.76073707 -0.53510743 -0.87437713
  0.53514677 -0.51326225 -0.28602414 -0.50093052  0.10517972  0.41715759
 -0.42152424 -0.87471497 -0.47785999 -0.9329599  -0.68745883  0.59166379
 -0.64672823 -0.31951483  0.39423785  0.50274894 -0.95039493  0.08087295
 -0.57054064  0.74746907 -0.28405195  0.72671544] [-0.50910855 -0.85239933 -0.66922278 -0.89236639  0.45198277 -0.82900036
 -0.41781584 -0.45054482 -0.3286947  -0.25504484  0.8134591   0.36853044
  0.6926851   0.54653713  0.04939024 -0.5718533   0.6342797   0.35278428
 -0.21119459 -0.07766037 -0.13442343  0.95582188  0.83434752 -0.43135236
  0.09893447  0.88723466 -0.68720936 -0.0824916  -0.84589147 -0.32863813
 -0.60655518 -0.77296057 -0.13958666 -0.95345574 -0.28654773 -0.70535593
  0.12491786  0.71230517 -0.86640564  0.47854543 -0.49212745 -0.61983371
 -0.68197714 -0.60318682  0.11105803 -0.22554674 -0.14561168 -0.4815826
  0.24454111  0.64436729 -0.59069238  0.49172646  0.24083491 -0.83995144
  0.90666724  0.97744785 -0.97335963  0.98908134  0.98181493 -0.12135581
  0.33741533  0.70282668 -0.24346932 -0.50132261  0.91524924  0.39021104
  0.42372645  0.84693158 -0.40632664  0.5531959  -0.83209877 -0.2140747
 -0.92248484 -0.48842132 -0.3925339   0.85322288  0.32941472 -0.8006671
  0.21486907  0.24152539  0.04226172 -0.97358217 -0.14598376  0.55232074
 -0.29589783 -0.94160519  0.86074185  0.35298668 -0.36337229  0.59169565
 -0.22665374 -0.58841372  0.97703034  0.43134024 -0.89521446  0.31499854
 -0.36795953 -0.10551671 -0.10325698  0.80552715 -0.24183476  0.31885006
 -0.08430312  0.47035335 -0.75378229  0.24191424 -0.50279562  0.8106095
 -0.43693219  0.08842163  0.24434755 -0.0308443  -0.88889807 -0.07616782
  0.49669794 -0.50767841  0.32142795 -0.79793979  0.57935674 -0.35307385
 -0.69345445  0.80305463  0.97316022 -0.4892475   0.80608872  0.70084026
  0.36280756  0.92436458  0.59297485  0.40946219] [ 0.36069345 -0.45946354  0.65171108  0.66802414  0.98239169  0.23663521
 -0.61127508 -0.08513036 -0.39836689  0.2861516   0.74742612  0.95448627
 -0.83530261 -0.40880547 -0.23928998 -0.12784207 -0.17589426 -0.55524486
 -0.02080985 -0.09430343  0.28007151  0.69555011  0.3889422  -0.49916761
 -0.57059757 -0.10941789 -0.31110181  0.6320196  -0.21295298 -0.38826625
  0.56503512  0.16421228 -0.38467309  0.21088469  0.72119922 -0.7474544
 -0.8773795  -0.37244934  0.27844483  0.32809039  0.58941395  0.5911784
 -0.04915795 -0.42822514 -0.99575215 -0.57862383  0.77131127 -0.17116551
 -0.32900183 -0.82875515  0.53999691 -0.40113952  0.6784217  -0.83291514
 -0.24667361 -0.76024699  0.14886118  0.61705521  0.85973741  0.61722811
 -0.91810985 -0.06573142 -0.61770624 -0.90330237  0.72500338  0.78662091
  0.80365051  0.71648983 -0.62838245 -0.33268251 -0.27212011  0.03736787
 -0.74673947 -0.36308013  0.96385175 -0.86527678  0.23753335 -0.82151478
  0.79101466  0.54997631 -0.91300713 -0.89814289 -0.55019673 -0.27392106
 -0.29567874  0.23045244  0.888682   -0.64233839  0.00744756 -0.24503879
  0.83592527 -0.62076593  0.85245032  0.76353855  0.90010443  0.58605224
  0.75338502 -0.13522891  0.52635818  0.23300699 -0.09042555  0.90704513
 -0.29892829 -0.02493357  0.66566567 -0.0473936   0.67382081  0.87031862
  0.49247691 -0.49427318 -0.96703203  0.01001069 -0.25849431  0.57740102
 -0.51915324 -0.00873788  0.45521591  0.35618084 -0.16274014 -0.93090659
 -0.90650468 -0.98032711 -0.23853039 -0.91311069  0.35700223 -0.31600626
 -0.18514069  0.54691745  0.00201919  0.12316205] [-0.01707786 -0.6938827   0.23714736  0.95953649 -0.11629998  0.811325
  0.050328    0.84159721 -0.611675    0.31640113  0.32660365 -0.59245222
  0.71144596  0.24180962  0.90791826  0.99498413 -0.67612257  0.96873608
 -0.60188907  0.54359276 -0.30879826 -0.11468673  0.28616158  0.2199181
  0.95062067 -0.86301164  0.36092079  0.56972417  0.44903149 -0.6369551
  0.43508828  0.83329395  0.43678245  0.00168134 -0.34273534 -0.23250762
  0.32597078  0.63307245 -0.18623266 -0.48871785 -0.16179394  0.84173142
 -0.14914583  0.88718347 -0.33023955 -0.83049243  0.75668698 -0.62210484
 -0.48230905  0.99244785 -0.58687355  0.55373354 -0.06437853  0.08867096
  0.84767278 -0.7082576  -0.40714403 -0.22398347  0.26248907  0.66073853
 -0.1161798  -0.13480451  0.49938727  0.46433682  0.18740689  0.596969
 -0.45783397  0.79003356  0.89593979  0.68930365 -0.12544112  0.34381511
  0.24308658 -0.32793965  0.61997912  0.7109614   0.57710675 -0.55978006
  0.17242677  0.22379791  0.83766748 -0.76344671 -0.49560934 -0.17114225
 -0.18110851 -0.97927001  0.60675638 -0.23603155  0.42525288  0.43392913
 -0.48072963 -0.75442666  0.47116234  0.16098109  0.35065908  0.92361587
 -0.58683687  0.10961545  0.76722201 -0.83975022  0.909538   -0.64718995
  0.02922651  0.2886098  -0.94336452  0.32364262 -0.15270123  0.94843838
  0.42465228  0.52968728  0.70424628  0.30169741 -0.63684706  0.38362125
 -0.09058825  0.50509313  0.09335662 -0.53965531 -0.10253424  0.13501293
  0.18589343 -0.73810429  0.52776461 -0.03044398 -0.65665131 -0.66047939
  0.17510136  0.30674757 -0.31458185 -0.29340957] [ 0.62317766 -0.97473195  0.58657722  0.62119642  0.40832404 -0.48251595
 -0.3693483  -0.34987492 -0.86873015 -0.46016974  0.54698349  0.68578544
 -0.32400339 -0.0520996  -0.74365385  0.78822414 -0.84245002 -0.456222
  0.53078533 -0.29949654 -0.27403609 -0.32603652  0.80958088  0.58562333
 -0.73168223  0.31879119  0.09041285  0.19946264  0.9552399  -0.47199723
 -0.74979228 -0.51214267  0.43871821  0.48407476 -0.27618593 -0.83500456
 -0.63492607 -0.29159959 -0.1429534  -0.85979124  0.81473989 -0.94428865
  0.17091803 -0.51053876 -0.55617695  0.15742449 -0.31812686  0.07856999
 -0.88847018  0.60591134 -0.02078208  0.90276418  0.68182889 -0.75379734
 -0.6961838  -0.05614927 -0.49611626 -0.31404338  0.46712769 -0.67015163
 -0.56812897  0.2460192   0.00255174  0.06993281  0.3935819  -0.99074368
  0.7091092  -0.66028085 -0.27278225  0.82265744 -0.61380195  0.83829943
  0.81396284  0.3030623   0.97269243 -0.6449989  -0.88814346  0.38845844
  0.44398428  0.47884926  0.25578824 -0.14317187  0.51727773  0.09663595
  0.43757404  0.49402409  0.44447103 -0.99919541 -0.47047381 -0.19063195
  0.47453192  0.9386599   0.54274674  0.66361393 -0.99886958 -0.58913515
  0.15232718 -0.49394732  0.25620163  0.71699829 -0.63735461  0.26338764
 -0.4364489  -0.63886225  0.26350487  0.0255354   0.46482852 -0.29720418
  0.86721202 -0.15374114  0.82260044  0.99670228  0.7047798  -0.69187949
 -0.53122219 -0.74897404 -0.63332913 -0.51651954  0.11996351  0.9101469
 -0.69142115  0.1962649  -0.33986828 -0.78887677  0.6024344   0.73772798
  0.4031469  -0.61005477 -0.06651942 -0.21157916] [-0.53164495  0.94282032  0.61746175 -0.99889204 -0.13872639  0.63511316
 -0.00961258 -0.57778648  0.23966924 -0.86376521  0.30307982 -0.94267749
  0.78622771  0.86929808 -0.74808024 -0.34027803  0.95034219 -0.31016237
  0.75376473  0.32160603 -0.03533242  0.84777198  0.70802289  0.59719738
  0.70828622 -0.82526517  0.00221596  0.89660757  0.77962019 -0.22102161
  0.53631134 -0.78945241 -0.32195151  0.69005519  0.41270005  0.70383187
 -0.56831848 -0.4628468   0.33916966 -0.787876    0.94216062 -0.77100202
  0.4254149   0.5527142  -0.97610989 -0.79679465 -0.7041251  -0.0056096
  0.21613029 -0.00584589  0.70039984 -0.53869471  0.48397017 -0.0605624
 -0.85146714 -0.4034985   0.04736688 -0.73173008  0.3228352   0.54723942
 -0.33724512  0.68901997  0.33879604 -0.5960033  -0.26074394 -0.47887437
 -0.94835447 -0.79703075 -0.6498038   0.63579453 -0.2966216   0.23172791
  0.22447719  0.56152457  0.75282019 -0.24332851 -0.62344072 -0.33608919
 -0.95924388 -0.06017364  0.48652203 -0.3659468  -0.29184423  0.67021813
  0.74511305 -0.87894831 -0.41284419 -0.90070654  0.11011173 -0.19805352
  0.92992927  0.11822334  0.63883685 -0.17155363  0.76563365  0.16552485
 -0.27383809 -0.84584946 -0.43315254 -0.34293529 -0.9737272   0.97134393
 -0.5675288  -0.8880296   0.32165078 -0.6086322  -0.71113582  0.47313538
 -0.67722447  0.8432974   0.59242591  0.93205306 -0.22828383  0.73273915
 -0.04707917  0.64639206  0.38745161 -0.78688907 -0.72202204  0.89883435
  0.71032503  0.13883828 -0.63876048 -0.45026203  0.3668517  -0.73727904
 -0.14726026 -0.39653185  0.51938705  0.19320828] [-0.881374   -0.35269512  0.58800189  0.49334988 -0.10958735  0.66109289
  0.95059133 -0.42840687  0.71133454 -0.45189632 -0.44461796 -0.23383922
  0.13945556  0.08066785  0.13884138 -0.10909228  0.79111121 -0.78535207
 -0.13228098  0.6104524  -0.05325484 -0.60619004  0.32821497 -0.78817403
  0.31240432  0.43642784 -0.22332094  0.36431436  0.50192303 -0.10768386
  0.00191662  0.46103326 -0.88432135  0.89584592 -0.24893593 -0.24906778
  0.26499724  0.80741199  0.34642487  0.20397304 -0.12057212 -0.57040937
  0.78349462  0.27460599  0.45573629  0.97067259 -0.16970446  0.06375314
  0.74169819 -0.17625096 -0.07193099  0.09481929 -0.98527701 -0.73048967
 -0.01837417 -0.8254619  -0.77439003 -0.42690683 -0.73933213 -0.36776113
  0.06716832  0.75228022  0.23650266  0.83002794  0.45553019  0.47192816
 -0.3202681  -0.40034297  0.21459307 -0.57728572  0.81285645  0.58546766
