[ 0.77091457  0.33209495 -0.59074319 -0.05462559 -0.33214208 -0.8717756
  0.00973046  0.3663665  -0.69382419  0.14131278  0.23638586  0.26368589
  0.31693529 -0.70597441 -0.53506468 -0.93130724 -0.33027083  0.17252923
 -0.74727904  0.00141561 -0.38371045 -0.39326122 -0.16625063  0.84725337
  0.92823495 -0.8492918   0.31726436 -0.12859665  0.35366542 -0.06379667
 -0.23838398  0.97159161 -0.88046697  0.33012403  0.1153069   0.57028985
 -0.82607884  0.21184092 -0.21245812 -0.17886665 -0.06140482  0.27049562
  0.62713697 -0.22779276 -0.16601944  0.09959583  0.3992165   0.08886118
 -0.16710297  0.28161449 -0.47468694  0.58799059  0.70146891  0.1533039
 -0.0322446  -1.02329751  0.52614067  0.63649672  0.49215026  0.86901998
 -0.60183757 -0.91741005 -0.54385195  0.26828354] [ 0.0300168   0.18258743  0.30220094  0.47083375  0.21172007 -0.9931818
 -0.66832215  0.1617608  -0.50583414  0.76523798  0.29091461 -0.4839444
  0.029163   -0.2630884  -0.62091183 -0.36492707  0.14061778  0.81296682
 -0.81665755  0.07725674  0.53819883 -0.27149935  0.55501947 -0.6325657
 -0.95246105  0.8768074  -0.64730858 -0.07329919  0.87969395  0.08121886
  0.11974855  0.58233575 -0.37679028  0.71838799  0.72623356 -0.3257501
  0.21554063 -0.79267316  0.03377111  0.1278278   0.90585891 -1.05215099
  0.51087461 -0.84381159 -0.3250717  -0.77901476 -0.9734643   0.25746825
  0.87901089 -0.39735418 -0.80622118 -1.21138576 -0.84983222  0.15831628
  0.15247219  0.69091806 -0.02847118  0.09753795  0.17956663 -0.03497764
 -0.16669974 -0.87816224 -0.647156   -0.15629751] [-0.83182298 -0.01203573 -0.49369505  0.70195284 -0.56419777 -0.63340803
  0.68712141  0.34802657 -0.47950215 -0.71267187  0.63395922  0.12684701
  0.84219332 -0.81271833  0.72438816 -0.06340026 -1.073974   -0.21667855
  0.68981062 -0.67890972  0.22437401 -0.19149636 -0.30272491  0.41516116
 -0.23865411  0.41564478 -0.4759833  -0.80455368 -0.0774207   0.19916217
 -0.36183695  0.41750713  0.1565814   0.03007683  0.68285873 -0.82549837
 -0.9904618  -0.7409866   0.79552615 -0.13079983 -0.21159616  0.6808249
  0.16354858  0.10308692  0.31988448  0.45152971  0.23530163 -0.55801953
  0.08913456 -0.67944227 -0.72327171  0.56603068  1.24528457  0.79751435
 -0.90261516 -0.21555163 -0.48114788 -0.92605916 -0.87955017 -0.24223025
 -0.43254423  0.78774878 -0.07525801 -0.04014696] [-0.01027402  0.7076249   0.83671936 -0.99076058  0.48096734 -0.58332219
 -0.06933426 -0.33011303 -0.88442507  0.15638699 -0.78944955 -0.37853431
 -0.58556002  0.73320197  0.68704522  0.43491961  0.67046315  0.17759543
  0.17224493 -0.41485798 -0.599951   -0.87862666 -0.70708557  0.61145449
 -0.80330048  0.53289362 -0.37652114  0.75934507 -0.52384789 -0.61408477
  0.17476387  0.66581289  0.79622087 -0.56820404  0.35505996  0.55062372
 -0.54134707  0.28601874  0.81800288 -0.61280759  0.05525164 -0.51913806
  0.74471609  0.24743743 -0.43529781 -0.15177023 -0.70398655 -0.98320877
  0.51414528  0.75824387 -0.23579981  0.91630013  0.78605276 -0.63374895
 -0.10720952  0.17004776 -0.63555209 -0.24779937  0.11312522  0.02580545
 -0.08593556 -0.43577442 -0.98786976 -0.66734563] [ 0.7497364   1.01563787 -0.94143408  0.61058464 -0.30192466 -0.62149142
  0.21196227 -0.55574751  0.82892033  0.2097629  -0.40848994 -0.95881617
 -0.92970225  0.22253056  0.63421447 -0.05568911  0.84809236  0.23133692
 -0.37180213 -0.56966624  0.09358494  0.35068823  0.61185573 -0.83624699
 -0.2800515  -1.0268664  -0.02911755 -0.38750392  0.95972191 -0.74500472
 -0.03708065 -0.29892807 -1.03476492  0.22981585  0.61664168 -0.67509988
  0.6244861  -1.35732499 -0.3343346  -0.74959083  0.71630252 -0.57013576
 -0.48558373  0.94735338  0.86989889  0.59131394 -0.43155898  0.13513878
  0.54436306  0.59937886  0.05718017 -0.29667109  0.77889087  0.30967391
  0.1974076   0.88929046  0.39013937  0.67802423  0.40566336  0.43273105
  0.82571508  0.7467162  -0.24181577 -0.91497912] [-0.45813726 -0.89180227  0.37060534  0.44154164  0.16152467  0.41398711
 -0.67405511 -0.67334017  0.22355369  0.62368791  0.72115194 -0.57039752
  0.75695924 -0.7102922   0.89018063  0.04371525  0.32667927  0.92387504
 -0.59138512 -0.39758344  0.32108085  0.74574494  0.63144969  0.55832166
  0.01421241 -0.1102824   0.11311686 -0.41473533 -0.85934644  0.25380312
 -0.37521376 -0.12788813 -1.01802713 -0.71721162 -0.30469872 -0.36849691
  0.38824118 -0.24543894 -0.12803594  0.09930764 -0.4515251  -0.1543014
 -0.02194145  0.17483229 -0.2099987   0.15793494  0.49139854  0.72325862
  0.96274454  0.21798883 -0.51048774  0.61953308 -0.86473944  0.40425174
 -0.31174619  0.79886979 -0.16340915  0.3015104   0.45852286 -0.35069926
  0.3394094  -0.85840987  0.4472107   0.12084387] [-0.78122937  0.90442148  0.39177654  0.79538281  0.2377523  -0.96796946
 -0.09670602 -0.57315433 -1.08282085 -0.07559807  0.76820869  0.32718889
 -0.29181651 -0.3574891  -0.29613403  0.28160182 -0.32024887 -0.12153501
 -0.35378658  0.67721787 -0.28414797 -0.07841164 -0.37873537 -0.46279753
  0.75620373 -0.82474142  0.80924237 -0.41105689 -0.57052465 -0.69933019
 -0.78279706 -0.47984085  0.16553365  0.2811385  -0.07939445 -0.80443721
 -0.59416943 -0.29368289  1.08544531  0.56528895  0.06435904 -0.7884811
 -0.79099035 -0.05312333 -0.72865821  0.08212872  0.18966849  0.40569514
  0.65995728  0.11039404  0.26674544 -0.02649722  0.62708103  0.63393138
 -0.40401981 -0.20869872 -0.26782778  0.52443633  0.16788514 -0.59529086
 -0.35017602  0.05949826 -0.28485554  0.50420291] [-0.67397296  0.00854866 -0.26115059 -0.35865257 -0.84129437 -0.81025644
  0.30314904 -0.92843646  0.59602868  0.13536401 -0.41124286 -0.05555741
 -0.27135383  0.20984205 -0.80070487 -0.18698734  0.46641995  0.87575369
 -0.9023799  -0.28369974 -0.01519204 -0.69053452  0.55900477 -0.28223331
  0.72215997 -0.61902696 -0.96322701 -0.57143666 -0.01967828 -0.2333188
 -0.7194999  -0.96108194  0.70058703 -0.94654164 -0.0260652   0.02140683
  0.30428462  0.61402363  0.05613162  0.74219777 -0.43325962 -0.12750202
 -0.45634999  0.52319341  0.58687799  0.27557106  0.74262618 -0.75192081
 -0.79345086  0.66741997 -0.47643118 -0.55039192 -0.68885419  0.18485432
 -0.54734218  0.42061802  0.25239742 -0.73104924 -0.12932486  0.91257105
 -0.98675714  0.19934502 -0.34028668 -0.01239709] [ 0.6050873   0.80850626 -0.34337571 -1.00177739 -0.38610877 -0.63094088
  0.21278378 -1.0670435  -0.64430171  0.70299103  0.46977633  0.68229629
  0.7314883   0.17645268  0.29961968 -0.10333893  0.19865601  0.47224473
 -0.20382531  0.44716379 -0.86175601 -0.59345008  0.8556632  -0.57603142
 -0.4759928   1.24798287  0.2869453   1.01676562 -0.57838768 -0.201607
 -0.15972097  0.90550544 -0.37457056  0.26867761 -0.04154128  0.54083972
  0.16464171  0.51197609 -0.52472826 -0.57324817 -0.09741457 -1.10667784
  0.8602688   0.69054388 -0.14111531 -0.44962394  0.14453096 -0.69001538
 -0.38498901  0.77863437  0.24955826 -0.67263209  1.08152257 -1.0429421
  0.52959869  0.9827872   0.44259207  0.91961313 -0.38862318  0.38400192
 -0.86721618  0.39710745  0.35251906 -0.1869132 ] [ 0.65275821 -0.75747213 -0.16124352 -0.21787177 -0.32291442 -0.51008795
  0.2037541   0.8052466   0.55364656  0.53948254 -0.15383833 -0.20744145
 -0.25810383  0.24737203  0.35190243 -0.90024266  0.28961298 -0.47412454
  0.64642518  0.76378381 -0.56053723 -0.69071483 -0.24158041 -0.7667519
  0.56536146  0.70179208 -0.5283391  -0.22016915 -0.4772405   0.56075512
  0.19862417 -0.53725137 -0.61527132  0.0203851   0.48720952 -0.16977364
  0.69812397 -0.95996944  0.61865878 -0.75625685  0.77910117 -0.06362947
 -0.65169129  0.25728137 -0.3684265   0.85779878  0.20968809  0.38714183
 -0.09304684  0.71141178 -0.95827634 -0.28412972  0.11967471 -0.20170232
 -0.28740214  0.56229576 -0.26848341 -0.06188717 -0.57036256  0.90709866
  0.17059327 -0.2750926  -0.64898133  0.0216605 ] [ 0.44018408 -0.91510031 -0.55640414 -0.91294769 -0.09150418 -0.74501337
  0.44633506 -0.50210162  0.7264412   0.45758141 -0.17070063 -0.99715166
  0.50020895 -0.02074075 -0.18291911 -0.80788432  0.59073746  0.89582985
  0.8732941   0.14445687  0.58769928  0.21966901  0.81706924 -0.68885733
  0.59582302 -0.88113374 -0.06125142 -0.71259946 -0.30050774 -0.72736804
 -0.25301264 -0.18945085 -0.93290047 -0.37033425  0.08879607 -0.06808553
 -0.75343362  0.42897406 -0.09459557 -0.48899347 -0.69918252 -0.5061819
  0.6787918   0.31032543 -0.15757311 -0.9318743   0.77896356  0.47476568
  0.86199273 -0.26796575  0.79237853  0.96442396 -0.89927732  0.58839883
  0.56761921  0.43993969 -0.5974476  -0.85418994 -0.08430921 -1.07654812
 -0.15647411  0.32659686  0.24351015 -0.38658872] [-0.2311715  -0.84522278 -0.70556324 -0.20273403  0.65127061  0.59150589
  0.30179675 -0.55047149  0.32804134 -0.50377179 -0.77550402 -0.48576147
 -0.70824237  0.72104754 -0.39808733  0.90253172  0.07971326  0.08650552
 -0.05306906 -0.78778667 -0.14316166 -0.63118331  0.71565264 -0.19795117
 -0.75911997 -0.02550917 -0.44899769  0.31464881 -0.76904314 -0.88214185
 -0.06390743 -0.27905867 -0.31627581  1.35769579 -0.21489416  0.68819114
 -0.10003038 -1.21667956  0.7925578  -0.92499474  0.33110326  0.31504819
 -0.46494263 -0.26544145  0.63666868 -0.11164995  0.40930406 -0.52116988
 -0.49936431  0.2235953  -0.93298887 -0.57792581 -1.02216949 -0.35585076
  0.98352246  0.09591182  0.82706254  0.68953081 -0.61773577  0.60015132
 -0.24855318  0.67863077  0.24885192 -0.74369029] [ 0.8868539   0.86004432  0.91225029 -0.50287747 -0.3203278   0.39671512
 -0.24047332 -0.09731631  0.58972923 -0.76309053 -0.11059526  0.04254314
  0.6090822  -0.04999126 -0.84347812  0.94494534 -0.60382235 -0.15078886
  0.34269322 -0.67666307 -0.06109698  0.29748806  0.68927851  0.98884693
 -0.10032385  0.41128578  0.20126907 -0.55866422  0.31412584  0.89964255
  0.34735229 -0.44514295  0.58539105 -0.46773971 -0.34698233  0.91317657
 -0.16842809  0.88975149 -0.69693949  0.80829199  0.01677712 -0.6964856
 -0.83421871 -0.29303669 -0.88707356 -0.23534034 -0.18701254  0.60221708
 -0.03766622  0.24190811  0.94272956  0.49570299  0.42197391 -0.15146932
 -0.07737964 -0.52033702  0.1606173   0.91718056 -0.26250902 -1.06666984
 -0.56634094  0.78042122  0.63796888  0.09414732] [-0.30925757  0.53000687 -0.87020144  0.04844921 -0.2934805   0.12882812
 -0.08439107  0.42685239 -0.2410045  -0.31042543  0.89772805  0.74234828
 -0.05220594  1.16399312 -0.89948276  0.68908183 -0.74005929 -0.52099199
  0.1157363   0.57585758  0.12337048 -0.28417454  0.19643342  1.1715385
  0.29609068 -0.74315218 -0.18071025 -0.74771887 -0.75782524 -0.69522625
 -0.63517661  0.18094379 -0.38559327  0.52484533 -0.46314091 -0.26702893
 -0.47308099  0.42624681 -0.89974468  0.90617058 -0.76404261 -0.55246821
  0.49359483  0.1773663  -0.09856828 -0.75715206  0.39185761 -0.49436072
  0.32268376  0.29039812 -0.32159923 -0.56513792  0.90386479  0.43056882
 -0.85395755  0.74018954  0.19469887 -0.94752245 -0.36051486 -0.92653654
  0.15621246  0.16437723  0.84376782  0.67838069] [ 1.07452422  0.06560583  0.84111649 -0.58999707 -0.22263625 -0.03582533
 -0.13254866  0.19475541  0.54587817 -0.90565485  0.86956661  0.30795915
 -0.23177693  0.8687437  -0.23609057 -0.33988558 -0.04792524  0.94310081
  0.84917774  0.47435899 -0.24964257 -0.59475743 -0.40513975  0.38043145
  0.85268668  0.21656134  0.72454812 -0.8274216   0.63998226  0.31747306
  0.88289826 -0.51261405 -0.49513026 -0.29613544  0.90925389 -0.48944159
 -0.16002299 -0.75282182 -0.0401168  -0.14605683 -0.66774334  1.09994822
 -0.39967303 -0.77902386  0.00148406  1.00526227  0.09200003  0.43416816
 -0.47788515 -0.27923141  0.45227402  0.11999011  0.77491872  0.48552603
 -0.23991816  0.68031513 -0.69203077  0.24058539 -0.62863256 -0.66536339
 -0.70759251 -0.19959258  0.15156068  0.80263233] [ 0.57963757  0.38711383  0.81119385 -0.34373547 -0.16058637  0.63259515
  0.29803554  0.23968402  0.75472024 -0.70244617 -0.60797029 -0.69204272
  0.30726444 -0.54815771 -0.30086673 -0.34353597 -0.97667733 -0.91252076
 -1.02149297 -0.35974228  0.0151133   0.90699892  0.54126712  0.61118139
  0.96316438  0.55294933 -0.80625674  0.83276235 -0.7950196  -0.61891662
 -0.36650208 -0.34064516 -0.26426356  0.75671691 -1.01512974  0.11075563
 -0.26939016 -0.79614915  1.19937459 -1.02101365  0.15649511  0.23068052
 -0.00738376 -0.01265058  0.41239113  0.08213562  0.43070592 -0.97205227
 -0.52364323 -0.3175919  -0.77962336 -0.14184769  0.39626277 -0.23098239
 -0.19742757  0.59926038  0.24004979  0.58575574 -0.46946903 -0.23870053
 -0.26359613  0.1736341   0.67457266  1.09052498] [ 0.72130845 -0.4943196  -0.24543028  0.35666259 -0.38959946  0.21736955
 -0.1506404   0.36323407  0.28053864  0.85924265 -0.20394857  0.90057326
 -0.10094377  0.14729386 -0.78057686 -0.53744925  0.34096006  0.04834294
  0.38236636 -0.14193553  0.66103093 -0.09660074 -0.7843499  -0.01951944
 -0.93005135  0.07857553  0.98527823  0.41367358 -0.70697468  0.06653832
  0.1730441  -0.72536914  0.89523751 -0.36156276 -0.17807919  0.02587937
 -0.83979959 -0.19924011  0.20931078 -0.54519275 -0.69511461 -0.0965612
 -0.64402478  1.12342054  0.90296151  0.88647225 -0.5342517  -0.78368188
 -0.79035058 -0.10736748 -0.80439296  0.32778765  0.588724    0.00496209
  0.46798912  0.83012412  0.67395282  0.98698994  0.75127839  0.84243647
 -0.08526817 -0.53732286 -0.56009502 -0.85662505] [-0.50876388  0.11680419 -0.27466495  0.87332502  0.48159462 -0.59842774
 -0.77877929  0.30567872 -0.78405901  0.09141001 -0.18871165  0.31190131
  0.96569201  0.31279584  0.85380121 -0.52270672  0.98323413  0.43066395
  0.1183112   0.55855745 -0.22641882 -0.25535497 -0.17804997  0.25233241
 -0.33340335 -0.20544406 -0.82941472  1.10714498 -0.11397932 -0.37976387
 -0.29817728  0.87662996 -0.89924404  0.49135785 -0.46799781 -0.34274436
 -0.78705895  0.35825329  0.44713846  0.82078391 -0.98175496  0.29609702
 -0.01587631  0.48695346 -0.54163264  0.0215796  -0.79719889 -0.77220521
 -0.80998751  0.66904334 -0.98784998  0.01925667 -0.56536102 -0.51671238
 -0.50590379 -0.73665407  0.42144192  0.16836018  0.80185732  0.92848641
  0.24750166 -0.43798863  0.76893348 -0.33138924] [ 0.17085529 -0.3851573  -0.16803812  0.36143105  0.9588929   0.03338276
 -0.76856652 -0.65204852 -0.00780954  0.20298974  0.61608271 -0.83569617
  0.02841439 -0.97717552 -0.40012035  0.26205369  0.49790796 -0.96545386
  0.02290598 -0.35995543 -0.90183437  0.67419366 -0.0965834  -1.51443804
  0.86462066  0.68720973 -0.36373858 -0.32877594 -0.73203066  0.2306312
 -0.46012204 -0.32898432 -0.37627761  0.20557986  0.51075079 -0.6866668
 -0.19318115  0.6732483   0.12979864 -0.38601071 -0.69102541 -0.11657331
 -0.35083565  0.13207724  0.94385568  0.26725214 -0.07089417  1.05401618
  1.0679773  -0.1033018  -0.52436779 -1.09980539 -0.45462979 -0.27593726
  0.35775756  0.25938502  1.35245528  0.18578582  0.27487043  0.90321828
 -0.38393644 -0.35577371 -0.20530206  0.59615931] [ 0.72797414 -0.50429733 -0.5841596  -0.62993369 -0.65656202  0.86263025
 -0.56623885 -0.45747495  0.70098467 -0.65152381 -0.10356619 -0.978062
 -0.42016039 -0.58377636  0.04669224 -0.47184309 -0.86526782 -0.08613671
 -0.90389982  0.45676777 -0.04652248  0.04929354  0.35599214  0.06169422
 -0.03436014  0.23973368 -0.85229581  0.31319332 -0.0154099   0.47305889
  0.65521384  0.21679937  0.47484719  0.88961703 -0.74555808 -0.63091432
 -0.4843289   1.04617378  1.0043003  -0.5628646   0.87022687 -0.72488819
  0.63844392  0.05397891  0.59640878 -0.38466794  0.76517041 -0.38804568
 -0.5953119   0.84642124 -0.07947721 -0.67971488 -0.97161937 -0.16293218
 -0.47771445 -0.21635355  0.65740418 -0.18923004  0.42009406 -0.47301448
 -0.10032235  0.45229355 -0.4049507   0.58656736] [-0.5126843   1.00711554 -0.61433888 -0.55063539  0.27099149  0.05468069
  0.21608837  0.6851219   0.52315519 -0.24010768 -0.1578755  -0.84296268
 -0.83131551  0.30176564  0.4261708  -0.22108342  0.85047724 -0.68698142
 -0.10529906 -0.59296796  0.82309324 -0.49685114 -0.88749618 -0.44913382
 -0.40360407  0.2769242  -0.44766836  0.50473867  0.66739317 -0.29076422
  0.6623242   1.00995263  1.12696161  0.32584805  0.04519325  0.26028359
  0.81749212 -0.09806391  0.23918525  0.16860623 -0.80797271 -0.82030752
  0.18285181 -0.34618292  0.06934149 -0.60877184 -1.24808978  0.42447101
  0.5226224   0.20994808 -0.24786858 -0.73170741 -0.49314335 -0.55685095
  0.00416337 -0.4660169   0.07075664  0.51476585  0.02139201 -0.18790368
 -0.74089441  0.07119616 -1.20243626  0.48912052] [ 1.04609152 -0.68208719 -0.08483409 -0.49716994 -0.79735623 -0.02441254
  0.98911139 -0.08041662  0.8869003  -0.44090355  0.469844   -0.0633818
  0.25591622  0.78921906 -0.42140751  0.10526383 -0.61845758 -0.55447646
 -0.83886379 -0.26774882  0.21947647  0.43654968  0.78937824  0.24638211
  0.54839517 -0.54880588  0.47783835 -0.7525138   0.33049026  0.04571976
  0.73476991 -0.00283763  0.01414395 -0.59619036  0.58925294 -0.42481143
  0.51304999  0.56640209  0.63663837 -0.20046634 -0.54366748 -0.27915725
  0.09325492  0.39469722 -0.74100065 -0.37037376  0.16271845 -0.01545128
  0.91113901 -0.269582    0.57991839 -0.62502103 -0.07453548  0.19082388
 -0.34085337  0.13721711 -0.29464093  0.02077057  0.52353542 -0.82498215
  0.80854991  0.46924179  0.29060942  0.29657531] [ 4.79110722e-01  3.16117332e-01 -9.95497220e-01  5.72792015e-01
 -5.89002314e-01  5.14892817e-01  3.79828175e-01 -8.76116115e-01
  6.26868625e-01  9.35504888e-01 -3.02218379e-01 -1.19001607e-01
 -3.93041808e-01 -1.83854805e-01 -5.45932420e-01 -6.99605753e-01
 -8.83431766e-01 -6.19820295e-01 -1.67573474e-02  2.96968438e-01
  8.08820452e-01  8.91861856e-01  3.03443557e-01 -4.58386608e-01
  1.33684655e-01  2.48711276e-01 -2.89760595e-02  4.65269260e-01
  6.51228141e-02 -8.18698800e-01  9.56882744e-01  6.97415439e-01
  1.09657708e-01 -7.36683412e-02  1.06299551e+00 -1.92430957e-01
 -5.50977253e-01 -3.40953504e-01 -1.17077991e+00  4.43424473e-01
 -9.35361395e-01 -2.60518325e-02  8.34634690e-04  1.31201351e+00
  2.12892244e-01  3.42568879e-01 -5.85615781e-02 -1.69087187e-01
  2.99260545e-02 -1.98676821e-01  2.25826858e-01 -6.82773091e-01
  1.11750329e+00 -4.25798150e-01 -1.23795184e-02  1.69764220e-01
  4.02274076e-01 -1.46534019e-01 -4.45115648e-01  1.37718618e-01
 -5.65957194e-01  6.26159866e-01 -1.65094432e-01 -9.68773143e-02] [-0.13516314 -0.5796469  -0.38690045 -0.86108938 -0.10601624 -0.45017649
 -0.95438496  0.39525576  0.23712658 -0.09246301  0.93754528 -0.25740821
  0.48543556  0.74113924 -0.24942166 -0.70411124 -0.43605592 -0.4934249
  0.83571284  0.87654121 -0.63994703  1.00854693 -0.28990702  0.07267937
  0.26651526 -0.85925658 -0.25233167 -0.87525596  0.0657956   0.87660718
 -0.80548736 -0.84955568 -0.26443787  0.39611919 -1.02457972  0.87388285
 -0.81719501 -0.68263973 -0.05619554 -0.27366284  0.30833694 -0.50837007
 -0.85177865 -0.06176403  0.29964281 -0.02493452  0.55011782 -0.83552513
 -0.74551233  0.30855826 -0.86582374 -0.14969441 -0.66270292  0.99537955
  0.14570329 -0.58403247 -0.61827449  0.16895126 -0.03073817 -0.4119486
 -0.37029227 -0.94787993 -0.42442907  0.64156003] [-0.37565677  0.68482815 -0.12709277  0.75860784 -0.21546423 -0.70095958
 -0.08470679 -0.3674439   0.59371921  0.53146098  0.94247995  0.23195964
 -0.82610773  0.5404048   0.82316785  0.43593708 -0.41335669  0.29420714
 -0.21613898 -0.37992386 -0.59373736 -0.51824243  0.27677981 -0.47296582
  0.81343208  0.40694291  0.61710339  0.52923559  0.64275316 -0.64824064
  0.86015895 -0.11069963 -0.39386425  0.19063545  0.91489141  0.9289116
 -0.12341371 -0.52548712  0.12371817 -0.37062079 -0.67771488  0.31804688
  0.01693154 -0.24779721  1.13880125  0.42009765  0.18112189 -0.83339543
  0.02115013 -0.68369879 -0.62971661 -1.01617804  0.36839805  0.54498684
  0.2379026  -0.4108332  -0.89764907  0.53264047  0.55946383  0.46466167
  0.69932236 -0.58902501  0.41534971  0.03000104] [-0.21985517  0.81099361 -0.85949847 -0.65941437 -0.63598639  0.41168309
 -0.65127266 -0.69731256  0.41845575 -0.23455668  0.56276075  0.12450035
  0.44335429 -0.77355427  0.65911481 -0.27114179 -0.27227508 -0.43056218
 -0.34305276  0.62861718 -1.03094644  0.67031339 -0.97228291  0.14670152
  0.52851715  0.61985713 -0.033219    0.31736444 -0.29129011  0.98757221
 -0.85649537 -0.51126071 -0.85043069  0.14307129  0.64640489 -0.23240858
  0.44058141 -0.1792559   0.69660422  0.27240429  0.37122061 -0.32589008
 -0.16372815  0.74501391 -0.1359449   0.11630738  0.42413917 -1.09532062
  0.50027684  1.13799616  0.06861614  0.58762442 -0.17837676 -0.178262
  0.01802782  0.25843967 -0.67957492 -0.91713226 -0.86427797 -1.05325539
 -0.16451898  0.63719962  0.00275507 -0.01576643] [ 0.58691879 -0.45969395 -0.04688404 -0.43312179 -0.43268482  0.44621153
  0.66751527  0.96179915 -0.53493759 -0.72284466  0.98773191 -0.44877613
  0.31535535  0.02449387  0.95008057 -0.0105066  -0.875667    0.93497159
  0.010024    0.44003582  0.92302926  0.98741648  0.63786504  0.90907067
  0.83999065  0.66350764  0.65610492 -0.76936861  0.75078904 -0.60069885
 -0.45528876 -0.08965961 -0.86164561  0.55501993  0.87266547  0.64337389
  0.82467531  0.38841255  0.36886184 -0.65378746  0.73374537  0.12397927
  0.31670276  0.88597974  0.73707854  0.87352481  0.90053839 -0.69277674
  0.26033037 -0.12014981  0.62710361  0.63277431 -0.14094835  0.26671224
  0.40609886  0.90263787  0.43340819 -0.86702401  0.32667023  0.88019786
  0.37393636 -0.79085952 -0.14575372 -0.00277274] [-0.54510743 -1.04643458  0.90257037  0.0472023   0.85862841  0.59332207
  0.17340184  0.24760607  0.49666278  0.13162572  0.83227307 -0.13398633
 -0.72010616 -0.232157    0.38425985 -0.83603887  0.6973599  -0.41943904
 -0.02413761 -0.735435    0.3378166   0.41915433  0.94710799 -0.38441433
 -0.47366714  0.01899378  1.01729082 -0.62811289  0.80857266  0.85107727
 -0.55161295 -0.549974    0.16454073  0.61676662  0.33253008  0.43712545
  0.55451823  0.27326857  0.07405536  0.668151   -1.02857906  0.50986264
 -0.50607449  0.77019829 -0.08202525 -0.74956234  0.50539075  0.44674715
  0.99603546 -0.33566763 -0.07019038 -0.37476166 -0.36974236 -0.23356896
  0.33327979  0.17835496  0.00551551  0.71688986  0.83381119 -0.72434287
  0.16487636 -0.55714117 -0.53134299 -0.36044238] [ 0.67364057 -0.36888175 -0.57131564  0.46055609 -0.19708021  0.11358313
 -0.31659412 -0.07030681  0.07907822  0.82607706 -0.0616241  -0.89616664
  0.5721707  -0.6678801   0.37564673 -0.10482749 -0.97364236 -0.79299279
  0.2378827   0.68397206  0.25795241 -0.38050953 -0.59853523  0.70189527
 -0.71866556 -0.0555813   0.11236783 -0.38039062  0.72657805  0.46923797
  0.54802349 -0.27848019  0.04149955 -0.38159984  0.90059465  0.23629678
 -0.88510839  0.57366051 -0.0216785  -1.05531939  0.11500362 -0.62659595
 -0.15077249 -0.41233073  0.07194792 -0.26887534  0.10041917 -0.23934345
  0.22179082 -0.22032323 -0.34914504  0.59467849 -0.91771584  0.07405338
 -0.50809914 -0.65564619  0.6865687   0.7177684   0.53938791 -0.68173645
 -0.27455804 -0.8550135  -0.46709941  0.40306906] [ 0.97126091  0.44333547 -0.97263216 -0.53902038 -0.85397672  0.35901977
 -0.88784554 -0.57222594  0.7049913  -0.76015221 -0.52546427 -0.37621037
 -0.220183   -0.03903375  0.30769603  0.97448669  0.42215429  0.62983816
 -0.87522284  1.01534503  0.19133772 -0.43590576  0.21112104 -0.20405743
 -0.89802359 -0.11790773 -0.02727809 -0.56804839  0.58304165  0.33159254
  0.90242339 -0.18359964 -0.50049454 -0.11142336 -0.30283484 -0.2228324
 -0.71419286 -0.07985127  0.14384951  0.10229428  0.55689388  0.85073429
 -0.44866569 -0.93562178  0.27314551  0.67631167  0.20681565  0.61429101
 -0.3526047  -0.71762211  0.33972776  0.32242896  0.89453661  0.90777152
 -0.41189627  0.79872431 -0.01995621 -0.71692362  0.51999052  0.85805514
  0.72179811  0.18486216  0.85590371 -1.00363038] [ 0.84988798  0.85141195 -0.247852    0.86657606 -0.60010328 -0.30897647
  0.9760421  -0.46545009 -0.28811427 -0.28460531  0.67891346 -0.38628274
  0.87377157  0.39648667  0.7390938   0.05442191 -0.44498009  0.94408903
  0.4063148  -0.71825419 -0.35075032  1.18229719  0.75450927 -1.11862253
  0.47540922 -0.2842962   0.74835292  0.30209084 -0.08410021 -0.29146756
  0.80092152 -1.01795322  1.06672405 -0.35319123  0.39167035 -0.4431472
 -0.17598229  0.80968734 -0.82346212  0.69755716 -0.41229504  1.17063242
 -0.64731516  0.5740077  -0.82437689 -0.82037038  1.04389863  0.96491809
  0.71165152 -0.62843777  0.93858658 -0.18089773  0.5380652  -0.19654815
  0.15497618 -0.79205699 -0.50873646  0.47477114 -0.11156393  0.60122837
  0.33167861  0.32046462 -0.33385215 -1.14135303] [-0.48836922 -0.55653975 -0.90836781  0.42081725  0.66964413 -0.11255169
  0.15681744  0.93142761 -0.35692539 -0.44491469  0.98393891  0.51156944
  0.46595134 -0.1194678  -0.52987858  0.7576979  -0.70384583  0.91283446
 -0.82540396  0.00602989 -0.46410233 -0.49780644  0.82795048  0.69445183
  0.45895487 -0.72673901  0.26858114  0.02696894 -0.5345573  -0.96156129
 -0.72230403 -0.91001456  0.50698543 -0.22743831 -0.08402195  0.06007075
 -0.02920741 -0.38031828 -0.39373535  0.69551714  0.31683919  0.21470061
 -0.93347711 -0.33665638  0.2810955  -0.58171294  0.30846657 -0.65589279
 -0.44410484  0.78023433 -0.292072    0.92356836  0.50470973  0.59656045
  0.27077303 -0.67159726  0.41625571 -0.84471957 -0.50580562 -0.11986711
  0.43260874 -0.09776324  0.03077199  0.38346596] [-0.60408043  0.36191247 -0.73499129 -0.04751123  0.40655388 -0.67208381
  0.40991341 -0.28850422  0.53232995  0.21000093  0.95475083  0.24364404
 -0.39668466  0.93233422  0.61437396 -0.1616988   0.75345426 -0.50060876
 -0.60975848 -0.26569973 -0.61947704  0.33036022 -0.25151424  0.70890379
  0.01518805  0.49858072 -0.94901363  0.06100562  0.4554518  -0.5150405
 -0.07007064 -0.20155062 -0.72106846  0.40848588 -0.15748092 -0.22003728
 -0.4620073  -0.40417741 -0.35149103 -0.81495997  0.12092668 -0.74506725
 -0.78349949  0.1358714   0.53797974  0.66243194 -0.40814516 -0.14549072
  0.90221422  0.1895346  -0.40038856 -0.5715662   0.28585948 -0.86311221
  0.14706826  0.08709592  0.94184606  0.06231014 -0.32401728  0.17172863
 -0.33559836 -0.23794026  0.75733125  0.18410497] [ 0.01710911 -0.01832591 -0.63364216 -0.08921568  0.46606632  0.13725765
  0.56667625  0.57397781  0.07496285  0.60110089  0.08610526 -0.86116642
  0.11397245  0.30069172 -0.29941253 -0.95664933 -0.48786056 -0.71153305
  0.3307213   0.7877501   0.82875348 -0.04802316  0.56350759  1.02188376
 -0.27930304 -0.69472469  0.38621249 -0.11026249 -0.31832389  0.97455613
  0.36647265 -0.14292354  0.32134941 -0.65974354 -0.33160998 -0.79676234
  0.54853286 -0.64107767 -0.27359619 -0.46866887 -0.12030493  0.08046936
  0.82082711  0.03030884 -0.78178761  0.26850454 -0.11610714  0.77054111
 -0.4234392   0.0565973   0.83119595 -0.34754322  0.24311221 -0.81510356
  0.00124363  0.28171237 -0.31093817  0.34914717  0.61652474 -0.71251817
  0.43623111 -0.63907959 -0.96842003 -0.1107201 ] [ 0.75082083 -0.75821285  0.52983825  0.5036962   1.22755714  0.55940906
 -0.63913936  1.14551784  0.67533732 -0.27081159 -0.94397678 -0.26784902
  0.96860958 -0.04497338 -0.485142    0.70264226  0.72528446 -0.22336471
 -0.00243135 -0.16686284  0.84828413  0.19677845 -0.12911951 -0.16877169
  0.94724256 -0.56728818  0.74704682 -1.14731883  0.89827986 -0.42623544
 -0.76146267 -0.46453192  0.31488278 -0.94792965 -1.12199778 -0.83746171
  0.47863461  1.07062026  0.3889495   0.54215445  0.2596705   0.24773902
  0.0666617   0.49678225 -0.81282073  0.97335916  0.67494939 -0.03554248
 -0.25888856  0.11991682  0.27475796  0.34033915 -0.98369486  1.04867355
  0.28132313  0.14658831 -0.21138353  0.90896732  0.96713815  0.14719343
  0.27773474 -0.12473298 -0.019245   -0.71847507] [ 0.70856268  0.94765467  0.22391756  0.94616586  0.42728954  0.03408164
  0.31309011 -0.89664982 -0.16367438 -0.28920153 -0.65381184 -0.23505631
 -0.85724813  0.16559887 -0.72777108  0.29597251  0.10400005 -0.99392547
  0.59394015 -0.22416682  0.94458589 -0.12750213 -0.36282022 -0.08990913
  0.62375888 -1.03446298  0.37376446 -0.86726788  0.21498865 -0.42062633
 -0.79134836 -0.22994379 -0.08268567  0.33577869  0.49389012 -0.48697157
  0.17825684 -0.05737823 -0.06136505  0.32216827 -0.06215572  0.00213749
 -0.13044105  0.2195021  -0.64640313 -0.73264894 -0.66884019 -0.04256037
  0.59951468  0.27849101 -0.89419428  0.97997467 -0.42539329 -0.60796509
 -0.17315231  0.55944033 -0.91880204  0.36796787 -0.16585021 -0.97411797
 -0.58436857  0.39751108 -0.95916021 -0.53296279] [-0.03742992  0.94344838 -0.10375344 -0.15498206 -0.14956069 -0.46124756
 -0.95774807  0.66266194  0.05155434  0.873645    0.11589307 -0.96430337
 -0.94995506 -0.59843132  0.7827413   0.73611426 -0.65284684 -0.50323329
  0.21139464  0.22565849  0.39564051 -0.86665638  0.13814167 -0.99370144
 -0.46444403 -0.81474058  0.0353874  -0.71417689  0.40295764  0.90807398
 -0.6537093   0.48188596 -0.74943032 -0.91117956 -0.60122715  0.33620302
  0.99408708  0.62735784  0.62237598 -0.6616605  -0.33319821  0.9677208
 -0.63642134 -0.70803907 -0.65483324 -0.6795045   0.76909038 -0.77065276
  0.34187263  0.62285826 -0.72157892 -0.47790835  0.33590044 -0.59238317
 -0.22099719 -0.24109871  0.71188371  0.49952788  0.91400055 -0.96204214
  0.40827717  0.62505428  0.4940531  -0.62202277] [ 0.76758644  0.80211464  0.53183639  0.61957165 -0.09127237 -0.115647
  0.28582324  0.46194438 -0.18445096  0.55270827  0.76469921 -0.81106412
 -0.82493569 -0.96211295 -0.95610112 -0.12481738 -0.76429026 -0.18450334
  0.82665844  0.40274325  0.73074647 -0.70177881 -0.01801204 -0.77032351
 -0.69196427  0.56163749  0.77285679  0.68543573 -0.8294367   0.16360463
 -0.25084079 -0.11308607  0.00533442  0.51871081  0.19283431  0.00131929
  0.03977316 -0.30194167 -0.12468077 -0.03376299  0.45209818 -0.42188688
  0.48490976  0.25517115  0.75012605 -0.26504359 -0.71560452  0.32470569
  0.79769014  0.10952613  0.19790765 -0.26444312 -0.61311995 -0.7609863
  0.90137355  1.02262807  0.36746341 -0.95192923  0.34158393 -0.37297399
 -0.86445279 -0.24402812 -0.58714934 -0.06976317] [ 1.01139477  0.48974208  0.40628542 -0.34588009  0.49953608  0.6959501
 -0.87376166 -0.46133213 -0.4461086   0.2449357   0.76032836 -0.34130245
 -0.12841239  0.35082902 -0.38655816 -1.00797564 -0.22128513 -0.46368556
  0.67968391  0.94439883 -0.59045456 -0.00500667  0.50654839 -0.03150718
  0.3113768  -0.19979531 -0.43794855  0.25684154 -0.35626708  0.00336101
  0.19732433  0.18594162 -0.53626958  0.62382368 -1.18958698 -0.36068503
 -0.22425467 -0.62531564 -0.47537589 -0.49576154  0.75832286  0.78394637
 -0.37812266  0.12799626  0.42982079 -0.65419021  0.71292394 -0.92526231
  0.93047932  0.03800209 -0.64016149 -0.58705617  0.50984197 -0.27619472
 -0.49420479 -0.15575243  0.98508689  0.96833552 -0.44990021  0.59391149
 -0.24224941  0.37374638  0.75533929 -0.56143337] [-0.78172275  0.78321771  0.89030802  0.807145    0.84968821  0.61907118
  0.13297751  0.66316699  0.36863875  0.72135518 -0.80078245 -0.13910691
  0.93305451 -0.69218521 -1.01211259  0.06960927 -0.55109779 -0.77457699
  0.14593073  0.7146309   0.60237591  0.9487489   0.07288778  0.88261439
  0.76601162  0.20546842 -0.20273059  0.43412592  0.31110508  0.89337336
 -0.91410138  0.2180776   0.43727699 -0.03827978  0.25743907  0.93137081
  0.63460609  0.9210706   0.02089473 -0.57282039  0.06407822 -0.10285943
  0.73640956 -0.54388695  0.41157981 -0.28693462 -0.48958875  0.76254203
 -0.79658311  0.80293999  0.492034    0.49806505 -0.11435665 -0.70349156
  0.1796358  -0.21544573 -0.41197669  0.34593987  0.86394814  0.1171123
  0.20588812 -0.05046532  0.56625774 -0.68206971] [ 0.51374683 -0.82113924 -0.23528352  0.85078727  0.04198576 -0.66722494
 -0.39568441 -1.33752649  0.27307399  0.53278922 -0.01719682 -0.92410473
 -0.05846014  0.30968644 -0.34054972  0.63895504 -0.43177857  0.05563848
  0.02477871  0.87658576  0.15205916 -0.06405799  0.58081406 -1.1194678
  0.81990175  1.10117725 -0.9660435  -0.31762299  0.57430539 -0.38420534
  0.98311546 -0.92340155 -0.04741182  0.54460647 -0.19527104  0.70691626
 -0.21564128 -0.74656387  0.44221928 -0.22067529 -0.01810242 -0.61002043
  0.59123795 -0.4987342   0.44369453  0.72557142 -0.86978277 -0.34387052
 -0.52030647 -0.90671123  0.20709408 -0.32782502 -0.18708229 -0.65479927
  0.0100889   0.92407624 -0.64190074  0.95087664 -0.9490384   0.39383057
 -0.2204086   0.53360104 -0.52110596 -0.79886781] [ 0.9316685   0.37555666  0.48126394  0.21159973 -0.01613789 -0.16883453
  0.1757289   1.21716002  0.31619824  0.21615707  0.8925172   0.7937101
 -0.87861265  0.16971315  1.01445303 -0.83321366 -0.86912635 -0.97140897
 -0.40010331 -0.89075657  0.589073   -0.2621321  -0.36565812 -0.5918293
  0.47397957  0.01742272  0.40624272 -1.2712758  -0.30559146  0.19113245
 -0.25645281  0.99057621  0.56884369  0.45639122 -0.0301908  -0.32994433
 -0.02954606 -0.42092332 -0.21322256 -1.16432779  0.22272981  0.67788172
 -0.53625678 -1.15102429 -0.27516032 -0.80857152 -1.14797786 -0.06065396
 -0.54159135 -0.13309047  0.75926598 -0.49480076  0.50168594  0.56205543
  0.50158591 -0.34396975  1.45874048 -0.05868013 -0.52074164 -0.49833157
 -0.27154459 -0.89539085  0.41997012  0.93755678] [-0.23217843  0.5356366   0.70389692 -0.61704198  0.13858368  0.16359105
 -0.06553045  0.36494755 -0.62582311 -0.20507797  0.13482468 -0.60106944
 -0.19207275 -0.91514284 -0.01227937 -0.42851571 -0.77303811  0.4571914
  0.214424    0.09707422  0.21620268 -0.45444123 -0.18701448 -0.74333223
 -0.04396466  1.38056736  0.54598309  1.11765677 -0.94856514  0.1492252
  1.07231041 -0.51864596 -0.95773115  0.00184471  0.74155704  0.17435061
 -0.5942749  -0.94931782  0.25613755  0.41898186 -0.25462602  0.18341807
 -0.55134039 -0.4458555   0.6798398  -0.88664998 -0.56334081  0.098366
  0.5792331  -0.12354625  0.36467798 -0.70324475 -0.23048714 -0.78959029
  0.95213086  0.0574686   0.06896773 -0.22297368 -0.74655858 -0.45656689
  0.08993791 -1.28464844  0.41356595  0.96964059] [-1.08611647e+00 -1.08769538e-01  7.07984309e-01  1.18142806e+00
  8.43320608e-01 -1.59076337e-01  1.67178046e-01 -5.62636527e-01
  5.18228463e-01  7.34213307e-01  6.51396720e-01 -9.84223216e-01
  3.75185787e-01  6.89458555e-02 -7.45957068e-01 -5.28823816e-01
  4.25645788e-01  5.32544787e-01 -2.41387389e-01  2.69273719e-01
  7.25458999e-01 -9.03476795e-01  1.50015695e-01 -8.64416685e-01
  3.84582304e-01  4.57528936e-01 -3.51796579e-01 -4.49120493e-01
 -4.16574346e-01 -6.62914597e-01  2.91519194e-04  9.49889588e-01
 -6.48829378e-01 -4.96773438e-01  1.42046421e+00 -6.48451967e-01
  9.37161571e-01  4.03443113e-02 -1.99649623e-01 -6.14204042e-01
 -2.55303366e-01 -7.78692988e-01 -1.07945991e+00 -2.00033077e-01
 -5.90330687e-01 -9.65943491e-01 -1.40953957e-01  2.12195867e-01
 -6.66646414e-02 -8.08033328e-01 -8.53271519e-01 -6.96725673e-01
 -6.64299370e-02 -9.41977223e-01  3.28023208e-01 -4.78918668e-01
  1.39724195e-01 -6.14181702e-01 -8.12672692e-01  9.13168728e-01
 -4.74470446e-01 -9.24830134e-01  3.99160135e-01 -1.19243958e-01] [-1.0018938  -0.17348978  0.6055828  -0.54281295  0.66539347 -0.47461163
 -0.90127064  0.33008475 -0.62391715  0.40777112  0.17924735  0.95788352
 -0.04382212  0.46552983 -0.52269943  0.44824943  0.53517605  0.08174937
 -0.96889602 -0.33799017 -0.96654253  0.32506618 -0.80279692 -0.37773697
  0.72594453  0.59612169  0.55738927 -0.08290417  0.10191333  0.66942886
  1.01962839  0.3452601  -0.2384696  -0.96423308 -0.23860427 -0.09414093
  0.5240693   0.5621423  -0.48897189 -0.03453843  0.00125081 -0.42556025
 -0.11594685  1.08203335  0.42971136  0.59179142  0.42876445 -0.01972175
 -0.39427101  0.28432249  0.44251115  0.32415959 -0.30259416  0.38831649
  0.38483499 -0.07635384 -0.35164596 -0.2927187   0.30139035 -0.69172665
 -0.74963753 -0.78483745 -0.40365315 -1.00050487] [-0.07165167  0.80673462  0.33287699  0.72980199  0.56344279  0.76648091
  0.45742957  0.54219999 -0.55763025 -0.46699858  0.25786422  0.02423341
 -0.77913264 -0.64223107  0.30854928  0.40492135 -0.4634099   0.27124732
  0.41290881  0.12694719  0.3546949  -0.5904029   0.93045435 -0.11359738
  0.48717666  0.47298157  1.05973846 -0.07143082 -0.72923575  0.18122378
  0.84032351 -0.2409039  -1.06495119 -0.73174455 -1.07245115 -0.60055153
 -0.0214345  -0.05337721 -0.10997998 -0.3260203   0.26377802  0.40351194
  0.38759742  0.46997297 -0.18083139  0.4844511  -0.80692554  0.34799045
  0.59924006 -0.61794352 -0.16465882  0.28556323  0.36062793 -0.61585923
  0.23547363 -0.04369388  0.41826183 -0.08470865  0.71843395  0.54145162
 -0.57884681  0.6249306  -0.07685021  0.11392816] [ 0.93830805  0.94448412 -0.71855567 -0.5558968  -0.93379831  0.10851354
  0.1055052   0.68964025  0.28811121  0.84228956 -0.01703807 -0.01597225
 -0.68944229  0.61591467 -0.39565623 -0.21620451  0.59335524 -0.93347386
  0.67711799  0.28388252  0.89869151 -0.52098986 -0.15192228  0.90605924
 -0.91353528  0.18891033  0.34960928 -0.16914128 -0.1207034  -0.9781977
 -0.89011912 -0.77224336 -0.56394161 -0.62454877  0.04183527 -0.03428684
 -0.12580868 -1.01027643 -0.73892154  0.27385792 -0.83195008 -0.01537942
  0.88942499 -0.66111775  0.22440411  0.08447354 -0.16136234  0.5761704
 -0.59096251  0.9054029  -0.28059224  0.41275859 -0.80004763  0.28187439
  0.3375963  -0.42067801  0.59944959 -0.04061754 -0.93750174 -0.30284187
  0.6253633   0.77090131  0.52211559 -0.01406509] [-0.21875344 -0.36467432 -0.4646514   0.74104708 -0.72872351 -0.97191772
 -0.18391383 -0.52991671 -0.10274737  0.24217416 -0.40273249  0.60826472
  0.80421746 -0.50664308  0.91753418 -0.51562032  0.21707671  0.15015665
 -0.59018486  0.15913076 -1.09412437  0.347318   -0.73646611 -0.00721743
  0.86750215  0.3449934   0.40573395  0.37737469 -0.55350091 -0.39400289
 -0.83021405 -0.71687087 -0.4905088  -0.37484181  0.84807871  0.37183685
 -0.16428303 -0.23827045  0.99265242 -0.24056913 -0.46662692  0.14814006
 -0.74710022  0.24915297  0.37224468 -0.44019133 -0.66743879 -0.32984877
 -0.31521664 -0.15673915  0.49106469 -0.99376464 -0.06076183 -0.31569138
 -0.25174313  0.1507073   0.42615277  0.01956983  0.69486084 -0.14906957
 -0.07118943 -0.28371658 -0.66649374  0.54409324] [-0.86660183  0.28237289 -0.75133979 -0.04100862 -1.07587987 -0.46473525
 -0.01158236 -1.06357599  0.9511573  -0.16581595 -0.78449326 -0.29664162
 -0.09969476  0.43461711 -0.78968328  0.62054281 -0.66003105  0.67313234
  0.71911416  0.10814234 -0.8922456   0.74376306  0.9379203  -1.0599636
 -0.8624875  -0.27982859 -0.09060613  0.99992815 -0.3799704  -0.07054287
  0.16833265  0.57878815  0.08312846 -0.00893666 -0.32857654 -0.52893206
  0.77272654  0.45578451 -1.00784951 -1.13321887  0.02981664  0.50300618
  0.25984689  0.16321605 -0.39520956  0.83149347  0.96058911 -0.80782541
 -0.6567122  -0.39391886 -0.06078084  0.02514758  0.27701818  0.24008459
 -0.87271593 -0.79377558  0.89071038  0.47027657 -0.88986735  0.04948938
 -0.90192019  0.89636742 -0.20838783 -1.13218009] [ 0.90272462 -0.78020871  0.45099769  0.39453962  0.44048224  0.56685935
 -0.420804   -0.06881282  0.79463161 -0.23688917 -0.48569053 -0.06246577
 -0.26038102 -0.76519382  0.85434716 -0.2050863  -0.61245135 -0.16224354
 -0.63886415 -0.2458925   0.17030995 -1.00105397  0.00404459  0.97646611
 -0.16469188  0.13836685 -0.37639321  0.16733936 -0.71450129  0.15656644
 -0.69866992 -0.53485935 -0.22821017  0.06813132  0.25247025 -0.30398663
 -0.10599039  0.59344647  0.05906447  0.80236627  0.65531691 -0.08747117
  0.32580768 -0.4062034  -0.05430232  0.22580487 -0.65944238  0.16133932
  0.00784215  0.58161881  0.25684196  0.17753127 -0.25876236  0.10498759
  0.29885139  0.11018684 -0.32033808 -0.27165385  0.76697479 -0.62978144
  0.51306423 -0.05493305  0.7830462  -0.30835262] [ 1.23304579e+00 -4.10805798e-01 -9.68376140e-01 -8.53234397e-01
 -4.00546605e-01  2.94471029e-01 -1.80224523e-01  3.51995439e-01
  2.46085590e-01  9.04148875e-01  1.21587145e-01 -5.99405693e-02
 -7.67960673e-01 -3.65100968e-02  8.71350939e-01 -2.58833544e-01
  6.15165992e-01  7.62524023e-01 -5.63873120e-01 -6.84055793e-01
 -9.23737498e-01 -7.65672127e-01 -3.10869958e-01 -3.27299199e-01
 -6.89367566e-01  1.95398406e-02  3.68505939e-01  6.98833247e-01
 -8.33874213e-01  3.13024553e-01  3.85874795e-01  8.52109805e-01
  4.78040542e-01  2.94436219e-02  6.22731686e-05 -7.71642821e-02
 -9.05272584e-03 -1.81746081e-01  2.42914317e-01  8.58662126e-02
 -9.46358525e-01 -3.75212895e-01 -3.20110446e-02  8.33906694e-02
 -1.76081978e-01  6.67086282e-01  2.16797564e-01 -5.44377810e-01
  7.67863184e-01  2.53796916e-01  2.61342495e-01  2.45600964e-01
  7.33122755e-01  4.00011881e-01 -1.45667694e-01 -5.06278660e-02
 -4.69604688e-01  2.07881648e-01 -1.16888171e-02 -1.02496079e-01
 -8.47586574e-01  1.18988861e-01  8.80117637e-01  1.06550035e-01] [-0.34704589  0.61311083 -0.18169027 -0.44526203 -0.54039425 -0.31748034
 -0.96851735 -0.10690488 -0.04151921  0.70832019 -0.1992631   0.11610349
 -0.451587    0.59525056 -0.531468    0.57929962 -0.31666871 -0.98396413
  0.64028708  0.31718329  0.47669036 -0.1390111  -0.75262966  0.27499463
 -0.41023317 -0.45573763  0.36037298  0.42285684 -0.66098931 -0.77354345
  0.10846752  0.61962146 -0.77385209  0.50853747  0.44815686  0.26017384
  0.22145221  0.17294186  0.64058212 -0.04180819  0.95806839 -0.24227001
  0.12413943 -0.34189967 -0.54450075 -0.48774619  0.26093719  0.22247057
  0.85341205 -0.32319267 -0.66858995 -0.58925419 -0.09729582 -0.03749684
  0.21337681 -0.90405307  0.18868663 -0.88063152  0.18016368  0.15046213
  0.73015763 -0.88052287  0.57593809 -0.14001422] [-0.46625527  0.82394655  0.24379526  0.12979873 -0.42717634  0.22768421
  0.44986404 -0.1235043   0.67376551  0.90745538  0.69162569  0.58284118
 -0.07865787  0.51430783  0.39297343  0.08113508  0.23788479 -0.87834772
  0.07782919 -0.10102326 -0.62256741 -0.15214526 -0.37338156 -1.14035109
  0.12719699  0.94014932 -0.06310068  1.00102205  0.05731679 -0.1566866
  0.2174622   0.75371244 -0.4151273   0.52323043 -0.35324256 -0.11097213
 -0.47593975  0.25978163 -0.67568422 -0.98445238  0.7564622  -1.24582136
 -0.73423588 -0.49163584  0.80623728 -0.09982876 -0.26541168 -0.5199962
 -0.32429955 -0.13743092 -0.58822385  0.14119277 -0.0279345  -0.18844452
 -0.94843734  0.28596414  1.02864739 -0.02851779  0.4632174   0.89056095
 -0.8109008  -0.39601854 -1.45004525 -1.12276138] [-0.71787623  0.55274202  0.79396866 -0.98041997 -0.24861542 -0.69930928
  0.73463391 -0.99282129 -0.69947745  0.26455009 -0.77222191  0.80096906
  0.71443074 -0.07170584 -0.83710255  0.3227327   0.91160299  0.25086262
 -0.65023282  0.61069398 -0.4350209  -0.70968978  0.7756822   0.28795135
  0.39055542 -0.81806342  0.91564588 -0.34511416  0.08204503 -0.77528366
  0.85261312 -0.61023318  0.19399431 -0.55515347 -0.25982865  0.2979296
  0.79321874  0.29873374  0.37078668 -0.33658218  0.97239076  0.49765891
  0.00892261  0.52390228  0.01771235  0.06079309 -0.85719293 -0.4605183
 -0.13742188  1.0781728  -0.60195942  0.9025772   0.24964601 -0.57032637
 -0.8306917   0.05567106 -0.7871419  -0.47146853  0.00377836 -0.39236249
 -0.06562983 -0.85819176  0.07584347  0.83803486] [-0.78147835 -0.874926   -1.01646412 -0.63003954  0.2884106  -0.41043186
 -0.40105984 -0.19135046  0.26603211  0.5486841  -0.34073386 -1.00839547
  0.70930856  0.46885553 -0.54416777  0.01463557  0.52804631 -0.31123647
  0.1976778  -0.81377698  0.46369787  0.33045395 -0.59416309  0.43461508
 -0.27102125 -0.99491855 -0.75712264  0.07677077  0.37379588  0.62895629
  0.26514235 -0.00738189  0.36112738  0.32677413  0.70090241 -0.54922457
  0.38346167  0.79255035 -0.17703688 -0.28995555  0.38550507 -0.83248699
 -0.69635727 -0.27952172 -0.76689727  0.88595305  0.42316697 -0.79016138
 -0.12091966  0.24504034 -0.01162701 -0.65242215  0.80673808  0.98643519
  0.01989644 -1.18861528  0.18571473  0.41674266  0.09948892 -0.06364611
 -0.88334186  1.12891822 -0.62715029 -0.17897189] [-2.16983051e-01  9.70059837e-01 -5.44059998e-01 -5.54212794e-01
 -5.63240821e-01  6.75167692e-02 -4.71088228e-01  3.86931024e-01
 -8.71399883e-01  4.62345900e-01 -4.56676581e-02 -4.05112275e-01
  8.91504485e-01  5.46626118e-01 -8.96846356e-01 -8.52834322e-01
  1.07081850e+00 -1.00432605e+00 -9.62981218e-02  5.65531288e-01
 -5.21354731e-01  7.61617919e-01  7.58305679e-01 -5.81834913e-01
  6.55434425e-01  5.61519463e-01  4.12998564e-01 -7.10281852e-01
  5.19733034e-04 -4.56491766e-01  1.52203081e-01  9.42584956e-01
 -1.09727435e-02 -1.08800771e-01 -6.93781127e-01  5.25223954e-02
 -4.78950691e-01 -4.33415514e-01 -3.40073485e-02  6.54832628e-01
  7.20370395e-01 -5.76316093e-01  4.84848395e-01 -4.66564505e-01
 -6.60736819e-01 -2.66749348e-01 -4.89426944e-01  9.01693052e-02
 -5.67983284e-01  8.46688709e-01 -6.22424197e-01 -8.46958459e-01
 -8.28199059e-02  5.88819725e-01 -7.10313927e-01 -4.05726427e-01
  4.09149154e-01 -1.48626930e-01  1.41391183e-01  5.65661376e-01
 -7.47102046e-01 -7.27432134e-01 -4.54295068e-01 -6.15708266e-01] [ 0.40568637 -0.02205068 -0.5213697   0.52012913 -0.14706484 -0.07851857
  0.92293307  0.31076955 -0.72858554  0.47579913 -0.85855826 -0.08011528
  0.58377601  0.23674465  0.19545251  0.44972936  0.53716911 -0.03846456
  0.24188288  0.37398977  0.40877859  0.49752124  0.57837214  0.71795786
 -0.84523314  0.60320054  0.56386694 -0.39665483 -0.802013   -0.79287717
 -0.68522167 -0.72248618 -0.09435026 -0.11888234 -0.96261336 -0.7785838
 -0.42594583 -0.22159903 -0.42249581  0.71227502  0.23626326 -0.43352007
  0.08449991 -0.25105861 -0.09332304  0.76896366 -0.01473269  0.17855131
 -0.27452482 -0.78395592 -0.97883046  0.79532777  0.31681981 -0.69507897
 -0.59564314 -0.2191487  -0.56420708  0.21204975 -0.10891129 -0.41984414
  0.4393696   0.39035681  0.96101312 -0.14382036] [-0.08952054 -0.0513642  -0.53175992 -0.85902617  0.56281015  0.82743673
 -0.64158551 -0.14035696  0.26604019 -0.60149819  0.25642084 -0.25590013
  0.156694   -0.76996101  0.31295005  0.33331006 -0.38821883  0.709968
  0.71964456 -0.06324041 -0.38994477  0.37661604  0.25662685 -0.83481024
 -0.15406612 -1.06124183  0.04008471 -0.73607565  0.06441527 -0.83939119
  0.51414553 -0.61631229 -0.0364366   0.40855802  0.3261991  -0.70867994
 -0.46605238  0.05201964  0.38371722 -0.40873159  0.58642006 -0.80359439
 -0.46842798  0.50402762  0.12776776  0.20846163  0.61293977  0.29149238
 -0.1764136  -0.69604911  0.1404508  -0.67361355 -0.26521521 -1.00712129
  0.99611269 -0.3765305   0.61901034  0.88113732  0.29333442  0.11245558
 -0.90520706 -0.24288031 -0.61989658  1.13625594] [-0.53559952 -0.56352949  0.76625914  0.70823302  0.17772879  0.24325189
 -0.96602653  0.81652121 -0.63676528 -0.26562298 -0.06903744 -0.62004207
  0.51252781  0.9108492  -0.853393    0.18196632 -0.14807737 -0.39671244
 -0.84158084 -0.97916496  0.44656447  0.39488814  0.35859737  0.07347407
  0.38500624 -1.06381059 -0.1054308   0.86025254 -0.95813584 -0.03169427
 -0.90293106 -0.93815007 -0.26773613 -0.83285222 -0.23800411  1.00916475
 -0.50594548  0.25844444 -0.35289554 -0.33734904 -0.57074983  0.75568242
  0.62898957 -0.94292279  0.35740304  0.72805559 -0.21233613  0.25648721
  0.02380005  0.24309159  0.90726894 -0.94269368 -0.69268472 -0.15678848
 -0.86134991  0.98474355 -0.06059581 -0.77551953 -0.01103174 -0.24527099
 -0.98164601  0.07775762  0.23114349 -0.50954915] [ 0.53485828  0.41883192  0.11569391  0.078479   -0.040297    0.99204307
  0.39398634  0.77782386 -0.63521407 -0.1515827   0.1139045   0.1374175
 -0.66337625  0.06779236  0.03270768  0.27779678  0.04990938  0.98820146
 -0.66915286  0.95099406 -0.93029023 -0.36011214  0.85205751 -0.84455436
  0.50505083 -0.20683939  0.9676039   0.71752969 -0.84628163  0.68577242
  0.15187275  0.17832656 -0.91039176 -0.23047212  0.04737031 -0.46879605
  0.00489064 -0.02053042  0.23376658  0.11213765  0.14526193  0.78641605
 -0.53355335 -0.29576607 -0.17653191  0.70443945 -0.07225811  0.94672187
 -0.34724004  0.39613026 -0.14634531  0.15523648  0.77091214 -0.67709723
 -0.14080024  0.63742693 -0.8483717  -0.58774342 -0.12502835  0.42683512
  0.72662478  0.2269701   0.24392064 -0.292615  ] [ 3.48196632e-01  1.58549160e-01  6.73980911e-01 -1.57717398e-01
 -2.27324912e-01  7.06673121e-01 -3.38883454e-01 -8.71911151e-01
 -2.57309159e-01 -5.88553778e-01  4.73970773e-01 -1.00063548e-01
 -8.16539917e-01  7.21425142e-01  2.71129493e-01 -2.41563639e-01
  2.66521246e-01  3.00986859e-01  5.83993888e-01 -6.38288870e-01
  2.53626552e-01  1.88453467e-01 -3.37296820e-01 -2.57285565e-01
  6.65652993e-04 -6.85898337e-01  9.47978300e-01 -6.18453994e-01
  1.30578005e-01 -9.33975690e-01  2.71185878e-01 -2.02580977e-01
 -5.01834618e-01  3.58308657e-01  6.86460257e-01  1.18315739e+00
  9.75031232e-01  4.74203004e-01 -2.80351755e-01 -7.08761182e-01
 -7.13065841e-01  6.52477154e-01  7.25149495e-01 -9.06267581e-01
  7.59894910e-02 -5.42389634e-01 -4.12559668e-01 -1.67389529e-01
 -3.95185316e-01  4.01545747e-01 -8.76184365e-01 -6.78020263e-01
  3.92590541e-01  9.73415063e-01  5.05458788e-01 -3.73864458e-01
 -1.19290962e+00 -6.93361266e-01 -3.97305026e-01  1.01708555e+00
 -3.52785953e-01  8.63107871e-02 -3.28828152e-01 -1.54854031e-01] [-0.75048261 -0.65224201  0.66190644 -0.90958465  0.04457856 -0.77112123
  0.430467    0.13356724  0.37586206 -0.90753747 -0.00859183  0.89774826
  0.97012886 -0.83715394  0.18284975 -0.14580515  0.71994423  0.07237482
  0.17364926  0.33589402  0.34427842 -0.6293824   0.24591066 -0.03430368
 -0.43288903 -0.19303838 -0.72002887  0.96102691 -0.88759441  0.66847985
 -0.73837938 -0.93700328  0.61758022 -0.73683789 -0.21626749  0.29686266
 -0.25148303 -0.39139034  0.94148359 -0.18015406 -0.0022103   0.28749056
  1.03566898  0.18779818 -0.1487454   0.24309374  0.6769178  -0.26882527
  0.03612742  0.31935478 -0.28803532 -0.85169309 -0.10746982 -0.88923
 -0.3016843  -0.47769203  0.56258841 -0.35775159  0.87796859 -0.45350738
  0.51795171 -0.29767937  0.50770222  0.02879182] [-0.39513764 -0.57323762 -0.84539004  0.5118559   0.94303297 -0.77079962
  0.35224732  0.58279186 -0.21013569  0.83169995 -0.37161521 -0.46353488
  0.94044722  0.691926    0.49129472  0.15478528  0.34536399  0.55991804
  0.93330932 -0.04177206  0.38210573 -0.33188492 -0.66163752 -0.70293384
  0.11221357 -0.02657127 -0.38458262  0.45298342 -0.87432157 -0.18504538
  0.2729068  -0.46805647 -0.2695439   0.85406492  0.54460998  0.81388046
  0.27935433  0.44464486  0.45447768  0.54749053  0.43585868  0.35973559
 -0.40676498  0.59510987 -0.34587296  0.85215292 -0.27942514  0.97678936
  0.63370452  0.6782522   0.12680018  0.60099208  0.193473    0.54519507
  0.56660478 -0.07307903 -0.16876366  0.20438688  0.9886941   0.8439196
 -0.40106331  0.69253649  0.77050068  0.51236024] [ 0.2615993   0.30872124 -0.98609087  0.58648707 -0.03426194  0.6216155
 -0.18876699 -0.27165746 -0.4908727   0.61291952  0.36572112  0.66565749
 -0.60514423 -0.88053902  0.33773667 -0.34744746 -1.19786382 -1.00478916
  0.5091655  -0.11631302 -0.68996244 -0.01188832  0.11271931 -0.23645522
  0.64237077  0.58327712  0.03589283  0.4647136  -0.09023997 -0.42871019
  0.68356636 -0.71507187  0.57027623 -0.75062343  0.83409664 -0.42903267
 -0.94484126 -0.81037344 -0.42428625 -0.69957118 -0.59442512 -0.07796882
  0.06532407 -0.63301062  0.40490233 -0.88478977  0.05453853 -0.91752113
  0.64495439  0.23925064 -0.22201454  0.59367985  0.37904173  0.52854459
  0.39947885  0.97730144 -0.50373302 -0.89856422 -0.20600558 -0.24178541
 -0.96876906 -0.53869806 -0.61804907 -0.09395303] [ 0.78077183  0.77765156  0.23222871 -0.24126697 -0.40564941 -0.42218802
  0.01966273  0.31099023  0.19057035  0.34910345  1.0078212  -0.15362721
 -0.30737419 -0.43868665  0.46074553 -0.39160825  0.09295395  0.22040163
 -0.98940721  0.43192094 -0.0753041  -0.32836506 -0.3541958   0.12744298
 -0.16222675  0.5031228  -0.35960415  0.10299709 -1.00641995  0.39344452
 -0.0664668   0.63970561  0.00721201  0.26212138 -0.5270265  -0.50251773
 -0.15448924  0.74873536 -0.68192444  0.74019619 -0.6346007  -0.65976238
  0.74540732 -0.7448781   0.67998292 -0.22542921 -0.77230403 -0.44973982
 -0.6084264   1.06629754  0.57490947 -0.38994544 -0.11638083  0.01385089
  0.49936373 -0.49825493  0.64269288 -0.86161676  0.27872337  0.40618801
 -1.01325454  0.64897658  0.58876218 -0.29054968] [ 0.53176669  0.55542691  0.15883171  0.08240954 -0.52916139 -0.14356681
  0.43695594 -0.30802835 -0.95969699 -0.21872869  0.72015981  0.36961706
 -0.76943349 -0.50602245  0.02689281 -0.38498327 -0.19586466  0.656999
 -0.36217247 -0.8416783  -0.37694985  0.68309231  0.76874574 -0.10494035
 -0.75704747  0.5131488   0.15336123  0.36651726  0.02078903  0.71518431
 -0.41950545 -0.28815874 -0.32766812  0.87765515  0.4752164  -0.48117683
 -0.23149925  0.48597481 -0.72873619 -0.8288917   0.69709614  0.3784903
  0.6964143  -0.40256012  0.80112376 -0.34203727 -0.31709677 -0.53004925
 -0.18755974  0.95535864 -0.47543555 -0.37142989  0.39161838 -0.96999958
 -0.23169922 -0.29555618 -0.07156898  0.24132887  0.16280599  0.91429446
 -0.06391433  0.37566309 -0.22994323  0.25967515] [-0.47472286  0.58797731  0.12676132  0.00216776  0.1104762  -0.49811298
 -0.97943811  0.72460515 -0.59285317 -0.77832387 -0.46368932 -0.96566246
  0.75691807 -0.75208935 -0.98905651 -0.99158727 -0.78510149  0.88427774
  0.15341372 -0.5930204  -0.03586147 -0.85844905 -0.24257298 -0.22258044
  0.71084532 -0.62128078 -0.16587051  0.31734194  0.98244975  0.99260269
  0.19556673 -0.60804228 -0.63412869 -0.85447804 -0.20241227  0.97052115
 -0.07446323  0.5212779  -0.43319725  0.72662132  0.15034149 -0.74301791
 -0.69961525  0.40964295 -0.73129682 -0.77867329 -0.0501954   0.98281982
 -0.32301091 -0.65825154 -0.44122907 -0.56597866  0.27936373 -0.19943514
  0.29172419 -0.93098931  0.24559672  0.17139046  0.60803886 -0.58300327
 -0.69522609  0.67786288 -0.65452124 -0.50292458] [ 0.48548488  0.76090509  0.26414796 -0.62657295  0.49213686 -0.21425073
 -0.69241077 -0.44476304 -0.66128124  1.27409041  0.67213499  0.25887962
  0.51294443 -0.19850108  0.55108011  0.22811089 -0.04100842  0.52367382
  0.764569   -0.89926659 -0.26249824  0.72513824  0.87764459 -0.14930406
 -0.79235236  0.77070257 -0.7063171   0.14533223 -0.58138715  0.67554175
  0.28425229 -0.00308243  0.35472272  0.60039916 -0.07850792  0.7450913
 -0.81951018 -0.89918708  1.07916248 -0.53713349 -0.54766035 -0.98760861
  0.15248576  0.14736546  0.09655709  0.78373867 -1.04293608  0.65026455
  0.08849911  0.57515939  0.18680092  0.57956667  0.27443189  0.1913137
  0.64966596 -0.00800983  0.75199555  0.39439637  0.58294059 -0.74326402
  0.28981611  0.34338082  0.31478119 -0.16599046] [-0.71245886 -0.69127301 -0.63991913 -0.42003305  0.17034456  0.56275761
 -0.78312966  0.53193142  0.01007763  0.72829565  0.46888314  0.4012193
  0.77616189 -0.81816137 -0.42082927 -0.93343908 -0.78208774 -0.76535453
  0.66123731 -1.07452166  0.42902922 -0.1265328   0.77456059  0.30097197
  0.95153403  0.88591898 -0.63108502  0.5528809   0.77655991 -0.3945521
  0.60588453 -0.38707933  0.87568232  0.33829583 -0.42299077 -0.78011178
  0.04478444 -0.18511412 -0.8644816   0.16270896 -0.08350859 -0.61749642
  0.64033955  0.322468    0.13026985  0.14277296  0.09063225  0.61228283
 -0.67144294  0.73767249 -0.81829271  0.69432194  0.16012024  0.11933648
  0.30510629  0.29817384  0.67327959  0.99438484  0.80463899  0.75199194
 -0.3583744  -0.05090206 -0.13837536 -0.19836661] [-0.14140485  0.78272761  0.90422399  0.20395796 -0.67679375 -0.24364547
 -0.47974749 -0.65698643  0.46449451 -0.29066541 -0.88319456 -0.67990439
  0.9228216   0.91394621 -0.14223518  0.17378471 -0.52557158 -0.85919968
 -0.31688002  0.71097852 -0.9140279  -0.58563282 -0.18602795 -1.47729424
  0.61003825  0.51189122  0.61057295  0.12974807 -0.44235604  0.61532786
  0.99121066  0.54489266  0.78675985  0.43347187  0.43078739  0.38445379
 -0.61380736  0.04441762 -0.61357864 -0.69646931 -0.71708329  0.07631643
  0.02689901  0.27385978 -0.73032082 -0.54887382 -0.72717838 -0.26497684
 -0.15028456 -0.83308918 -0.08115468  0.32656926 -0.2739391   0.54853874
  0.55851199  0.43234903  0.27288069 -0.39343654 -0.49914426 -0.40835345
  0.40819878  0.49706863 -1.08332159 -0.95923284] [ 0.87531198 -0.22357789 -0.58916968  0.30607499  1.21948185 -0.0614072
 -0.27662671  0.39567896 -0.76868648  0.55075434  0.71923467  0.1385408
  0.92249815  0.77155489 -0.1212311  -0.63994955  0.42785512  0.38644865
 -0.15037914 -0.03580158 -0.38322195 -0.3937519  -0.89360909 -0.77680014
  0.46484987  0.32989201  0.80167721 -0.72709801 -0.85859979 -0.2366301
  0.83812796  0.45374038  0.05542662  0.26302236 -0.5796875  -0.2630956
 -0.26909447 -0.10483244  0.43810949  0.04205326 -0.22954391  0.57955379
 -0.36002531 -0.98641121 -0.01331589 -0.85011786 -0.40570769 -0.30294728
 -0.48841109 -0.58275828  0.27372229 -0.84340576 -0.42432924  0.47337762
 -0.58718238  0.87257776  0.42671202  0.76744339 -0.36156938 -1.04432055
  0.77120575 -0.31273742  1.00580163  0.18694465] [-0.05634313 -0.14707043 -0.2122561   0.80332736 -0.32267863 -0.8109864
  0.52960717  0.76977006  0.11414663 -0.54777176 -0.60142523  0.72472886
  0.44969193 -0.56390664 -0.93353761  0.96789984  0.65617939 -0.98309685
 -0.18430697  0.13668463  0.42161273 -0.27754302  0.0863314  -0.80103746
 -0.15188326  0.24274709  0.06687773 -0.02546053 -0.47419226 -0.65607088
  0.38047021 -0.51855843  0.5346739  -0.48975705  0.47946425  0.50590114
  0.3145356  -0.49367489  0.47813279 -0.6265654   0.51048448 -0.66184717
 -0.34666817 -0.09607635  0.02564354  0.76485107 -0.04271411  0.30730149
  0.24507126 -0.99129772  0.16856968 -0.55692864 -0.15448848 -0.50109952
 -0.14989805  0.26085054 -0.29532129  0.20857027  0.93878357  0.30994327
 -0.78738105  0.47207678 -1.29177796 -0.14844833] [-0.5402956  -0.58120168 -0.87470849 -0.61494046  0.58089794 -0.49827038
 -0.15913043 -0.00747664  0.0841815  -0.69112662  0.86863999 -0.44392975
 -0.81339046  1.33980699  0.64565683  0.09090122  0.26212086  0.97777118
 -0.31021785  0.15232573  0.79852398  1.12845856  0.61821799  0.74064909
  0.96528778 -0.55021658  0.09622836  0.32948591  0.51291782 -0.57573667
  0.08895949 -0.68197969  0.55418979  0.43419575 -0.46892612  0.20221437
 -0.6091523   0.97523934  0.52189061  0.20076753  0.78605197  0.63989336
 -0.75365994 -0.13110833 -0.94674283  0.23961247 -0.48388664  0.69675859
  0.31108777 -0.91207023 -0.81706356  0.16935659  0.27467774 -0.50584061
  0.35937891 -0.24685602  0.51642018  0.61028346 -0.89697978 -0.45738267
 -0.19032913  0.88571311  0.72106928 -0.09060277] [-0.77071037  0.36421916 -0.72729433  0.33231281  0.863055   -0.34519206
  0.02898777  0.59404291  0.08213636 -0.22444069 -0.34298083  0.68667464
  0.84067362  0.81837436 -0.3580441   0.25470056  0.20581235  0.30236169
  0.50296926 -0.135212    0.85134756  0.70255112  0.91121602  0.73044625
  0.4469709   0.32606113  0.13471415  0.08585335 -0.39487041  0.962965
 -1.01690857  0.10493141 -0.1477006   0.88336821 -0.19754277 -0.77250645
 -0.52564376  0.95069918 -0.4137729  -0.1151274  -0.1457894   1.15579712
 -0.79342351 -1.22317674 -0.06876846  0.56377305 -0.81928351 -0.84923409
  0.27047156 -0.21628552  0.14188242 -0.8286788   0.0103911   0.46515998
  0.04208276  0.25144513 -0.91928484  0.17240526  0.70796406 -0.42338638
  0.42914179 -0.45032841 -0.36718806  0.90416787] [ 0.20593842 -0.83917476  0.74525642  0.52078786 -0.40573964  0.07223953
  0.31624247  0.11801001 -0.72825235 -0.22621994  0.3901035  -0.78459897
  0.92856619 -0.61638402  1.00734467  0.49870218 -0.03709111 -0.88220473
  0.9495426   0.82709249  0.43404764  0.51234678  0.49700159  0.9738252
 -0.9556549   0.32188456 -0.53848324 -1.01378993 -0.57976987 -0.9345263
  0.99042386  0.42683633 -0.93779359 -0.39976807  0.52375814 -0.09269114
  0.02751271  0.80582032 -0.00252841  0.66305543 -0.98305854 -0.86334875
  0.60506589 -0.26873727 -0.63713613  0.30872197  0.79102305  0.21176356
 -0.97241487  0.38787406 -0.85069809  0.33370279 -0.42876018 -0.25260617
 -0.34600088  0.2242898   0.49464869  0.4493315  -0.65475974  0.06740746
  0.62899188 -0.0023929  -0.02265469 -0.56217651] [ 0.45578839  0.02684135 -0.19000308  0.12091725 -0.61967963 -0.67963603
  0.05964375 -0.31255829  0.44280097 -0.47690587 -0.43575479 -0.27192593
 -0.40784076 -0.41289007 -0.00697645 -0.83315616  0.95545399 -0.58278048
  0.17157942  0.71985588  0.81784701 -0.75083653  0.0817083   0.21196496
  1.03000539  0.96699404  0.26523842  0.18981335 -0.72676669  0.22953879
  0.06272809  0.91312467 -0.00526704 -0.70176195  0.86055305 -0.54109651
  0.77218918  0.79663107 -0.66504033 -0.52076388 -0.74054896 -0.34098446
  0.89361284  0.51196707 -0.57184411  0.26703155 -0.18630666 -0.18348301
  0.61917895  0.23074115 -0.40368488  0.20675591 -0.33168941 -1.05298326
  0.53835352  0.26526362 -0.57595941  0.09206557 -0.27039478 -0.40903094
 -0.26121765 -0.11498446 -0.61406264 -0.22595464] [-0.55384572 -0.12528533  0.84217106  0.70698751 -0.62542596  0.22339694
 -0.12359512 -0.85368762  0.98170257  0.35070346  0.45039216  0.67873194
  0.75594458  0.73793868  0.23455379  0.05041944 -0.04346984 -0.22694518
  0.48111656 -0.4088269  -0.39810849  0.16493138  0.09395734 -0.5737308
 -0.98097058 -0.08271938  0.92733028 -0.91435508  0.71259751  0.45531017
 -0.07199247  0.42603286 -0.4597134   0.51859351 -0.29690165  0.25665055
 -0.3437234  -0.87344646 -0.87928505  0.14511914  0.57693915 -0.31194612
 -0.18071123  0.45928434 -0.51612458  0.95217546  0.73912395 -0.5865648
 -0.02088269 -0.93125991  0.2157138  -0.04201741  0.48778835  0.7108735
 -0.28702681 -0.40715374  0.16849197 -0.58026846  0.97017056  0.74634159
  0.13756561  0.33273097  0.04820293  0.21867948] [-0.44346032 -0.01598583 -0.63835813 -0.12774232  0.04325179 -0.22218326
 -0.60176059  0.34280292 -0.7396176   0.18591143  1.00443575  0.13095716
 -0.88167468  0.45652159  0.68976163 -0.20625796  0.88946189 -0.05328256
  0.57875763 -1.23715157  0.77617478  0.11037452  0.2849326   0.32479524
 -0.23752625 -0.1750401   0.77813865 -0.52979383  0.61455246 -0.28470103
 -0.09856756  0.52635327 -0.09502026  0.87959318  0.2424064   0.72500806
 -0.9081851   0.25317931 -0.48303346  0.90074265  1.16278464 -0.82078574
 -0.22197194 -0.39407936 -0.76619989  0.7401967   0.14688312  0.81395289
 -1.12602621 -0.56203913 -0.43969157 -0.23020849  0.05051445  0.17800632
  0.87286522 -0.84992536 -1.21203332  0.57210071 -0.26870352 -0.36269082
 -0.57141417 -0.54706196  0.23159149 -1.08026271] [ 0.86765477 -0.89753006 -0.67922489  0.11896417  0.07829505 -0.4003145
 -0.80915993  0.35010795  0.4364637   0.19333476 -0.82402913  0.25808689
  0.47909289 -0.65125081  0.26013709 -0.60552948  1.16116202 -0.46669639
 -0.76967008  0.91247586  0.08291585 -0.61572903  0.89594106  0.37272096
 -0.67583339 -0.10803268  0.09568684 -0.12405604 -0.34339554 -0.943997
  0.78948785 -0.29764599  0.38281374  0.04394308  0.7533396  -0.3163221
 -0.72350067 -0.06471378 -0.21450776  0.21052561 -0.90429637  0.96963724
 -0.41728771  0.05555773 -0.77172013 -0.41259039  0.03338034 -0.2878261
 -0.73076792 -0.17867701 -0.37377806 -0.03153719 -0.42802602  0.46929826
  0.791574   -0.00539446 -0.33177459  0.36022733  0.94309473  0.41088743
 -0.81768753  0.74399248 -0.77658614  0.39941354] [-0.18304966 -0.09305428 -0.79510623 -0.0407631   0.82599411 -0.24076944
  0.60966848 -0.53955898 -0.70413892 -0.2472967   0.32421923 -0.4673925
  0.70543286 -0.67327094 -1.0064567   0.7371554   0.21985805 -0.26328675
 -0.82333845 -0.17546377  0.59891882  0.98455686  0.2403317  -0.35341555
  0.07505778 -0.71570642 -0.21863166 -0.16542686  0.82525533 -0.7313632
 -0.6718451  -0.3421224   0.36969424 -0.93931907 -0.44761974 -0.05655865
 -0.42619801  0.83484624 -0.36593033  0.04944039 -0.07312543 -0.31951688
  0.63519747  0.25422348 -0.76062548 -0.69321384  0.65278257  0.19805044
 -0.18729594  0.22150519  0.34552167  0.84368195 -0.58979964  0.97365271
  0.13844447  0.76004836 -0.62788117  0.37178756 -0.64640286 -0.34306071
  0.748564   -0.72138239 -0.54248293  0.05732403] [ 0.18660482 -0.95882926  0.26678911  0.33797487  0.13383962 -0.54570182
 -0.12379991 -0.88658918  0.46075067  1.0796132  -0.37795239  0.19537398
  0.14356793 -0.90258356 -0.58889189  0.24657276  1.09043873 -0.85551144
 -0.08374709 -0.18385655  0.10326201  0.80799848  0.65002218 -0.5694882
  0.66108316  0.45063644  0.99409468  0.21926674 -0.58556718  0.24974352
  0.87943719  0.45178402 -0.4068268   0.61935961  0.43200358  0.63185375
 -0.75983828  0.65612102  0.5867567  -0.10333507 -0.76844348 -0.07230386
  0.88240818  0.64076595  0.26926054 -0.79228983 -0.2984817   0.46900651
  0.11777962  0.40610332 -0.26291945 -0.60410561  0.49177682  0.58876992
  0.46971908 -0.99795871  0.60156989  0.9523846  -0.51943102  0.23494017
  0.31155883  0.18803909 -0.3127882  -0.91521245] [-0.95682619 -0.53429695  0.61080609  1.19186312 -0.79837435 -0.62498902
  0.78860839  0.77932424 -0.30328112 -0.35046552 -0.10022207  0.78561693
 -0.94409859 -0.21165226 -0.02514953 -0.82275378  0.53532077  0.40761646
  0.15348346 -0.30885369  0.54275349 -0.17897436  0.53725421 -0.46174651
 -0.73691778  0.54307501 -0.25575843  0.71063484 -0.08588493  0.64301132
 -0.36339068 -0.89342273  0.48620249  1.24990956 -0.4041756  -0.85479708
 -0.51384585 -0.94463483  0.40280473 -0.0683374  -0.01420383 -0.67365213
  0.34262432  0.43361517  0.24923193  0.35092477 -0.16789955 -0.82272648
 -0.24510662 -0.75634611 -0.40325754  1.08680436  0.61927756  0.3920745
 -0.47639504 -0.59492721  0.1183604   0.12783843 -0.61862579  1.1455866
  0.37232561 -1.15163905  0.7758659  -0.80009153] [-0.48244098  0.87280674 -0.98870064 -0.12684588 -0.49039358 -0.46326104
  0.41989687  0.48519284 -0.22931256  0.70750328  0.44238698 -0.0721475
 -0.66580337 -0.28993722  0.3208606  -0.18967948 -0.0826177   0.47836348
 -0.98684724 -0.50818401 -0.39881464 -0.65912986  0.35885043 -0.47986399
  0.96695026 -0.36231621  0.20179175  0.54727502  0.59891072 -0.17111053
  0.26451736  0.30857351  0.43565604 -0.67140986 -0.38370069 -0.15758312
 -0.35668028  0.6713154   0.47615639  0.61987257 -0.82193524  0.54916886
 -0.18390652 -1.03039353 -0.85667826 -0.28653547  0.09563812  0.65777603
 -0.78050354 -0.03380817  0.09100789 -0.01622373  0.20851818 -0.95555912
  0.14792003 -0.02697927 -0.01608099 -0.6642592  -0.48182975 -0.76725722
 -0.85696062 -0.2005733   0.43581144  0.25507219] [-0.22230599 -0.55109087  0.13113553 -0.08268374  0.08225163 -0.60527872
  0.68876029 -0.4110581  -1.26523057  0.97714469  0.0476238   0.81255252
 -0.68337747  0.55520818 -0.16620989 -1.06460264 -0.20560717  0.97428813
 -0.57168228  0.65541631  0.24967744  0.07340141 -0.17206292 -0.79150574
 -0.84437475  0.38425254 -0.16096088  0.17230676  0.17067144 -0.35962857
 -0.27806565 -0.37467484 -0.10377515  0.36404919  0.9685473   0.58220934
  0.1492828  -0.74958973 -0.0400807  -0.72139797  0.57274842 -0.80711578
  0.28366317 -0.60306319  0.80164931 -0.99662133  0.29320683  0.12680636
 -0.31258586 -0.67827488 -0.20391139 -0.77630137  0.68260113 -0.73234114
 -0.69043799  0.60217576 -0.57023296 -0.02199607 -0.0379949   1.08548619
  0.0450805  -0.39459363 -0.84770725 -0.53324831] [-0.27851287 -0.01965203  0.33740658 -0.67598376 -0.52193497  0.29856943
  0.12270228  1.05640137  0.25233878  0.17986117 -0.52063867  0.71588892
  0.9292212  -0.01439909  0.42255995 -0.67855991  0.81398374  0.96793978
 -0.0412126  -0.96574897  0.24970901 -0.17465675 -0.69118732  0.16938179
  0.84968702 -0.34041256 -0.85606503 -0.37771794 -0.45005745 -0.62444982
 -0.22952713  0.20950046  0.05095472 -0.90618412 -0.34690761 -0.42806522
  0.33817418  0.33457601 -0.1346795   0.69396358 -0.75929754 -0.14119898
  0.0449672  -0.144782   -0.38072695 -0.61311332  0.02654882 -0.86833079
 -0.60664048 -0.70066639  0.95209061 -0.05553247 -0.61787611 -0.23529393
 -0.74950157 -1.12988792  0.54573833  0.48362244  0.45487134  0.16144333
  0.1937108   0.23080759  0.2995146   0.6765787 ] [-0.13590308 -0.19856965  0.85448622  0.07614458 -0.46276564 -0.59241887
  0.53824676  0.16392288  0.25864996 -0.55562649 -0.40983863 -0.14507119
 -0.66977871 -0.41710879 -0.25418612 -0.06920909 -0.31584769 -0.90249253
 -0.06421558 -0.90550849 -0.1154237   0.05370071  0.33677038  0.36358574
  0.43401601  1.14182773 -0.19029585  0.51244791  0.32875468 -0.1831254
 -0.4353634   0.67970577 -0.19214589  0.30593251  0.205613    0.60216951
 -0.86164591  0.16012461  0.75649114 -0.38128304 -0.8375776   0.73444675
 -0.15113376  0.12813027 -0.4962526  -0.4024118  -0.01160592  0.80592651
  0.26590544  0.56277637  0.60227381  0.1673036   0.75280681 -0.74988944
 -0.12759282  0.06262433 -0.67422527 -0.78906537  0.1456823  -0.51165134
 -0.27244777  0.36100441  0.45816044 -0.31557146] [ 0.3668841   0.61897714 -0.68741394  0.04702337 -0.48141118  0.84964911
 -0.18278763 -0.97966755 -0.59053871 -0.31318445 -0.06800604 -0.38216171
 -0.53919258 -0.49848651 -0.08232326 -0.16682386 -1.19568511  0.02484292
  0.91977816 -0.59554806  0.68621655 -0.25921682 -0.97584419 -0.82400006
  0.31589783 -0.1993284   0.27657681  0.7042792  -0.33718315  0.08717496
  0.90690411  0.68969268 -0.14220602 -0.60413571 -0.82336137 -0.23388201
  0.75068661  0.35025335 -0.65588918  0.20937874 -0.40034062 -0.0271754
  0.50503664  0.29097856 -0.2774522  -0.47458839  0.3730308  -1.10416788
  0.23500336 -1.01801456 -0.18428728 -0.17649299  1.10725678  0.79499503
 -0.43334126 -0.39976271 -0.49723698  0.12414768  0.1580537  -0.43603066
 -0.61322087  1.18258982 -0.6902002  -0.55767426] [ 0.39966403  0.33921991 -0.98283171 -0.92773619 -0.6829356   0.09841124
 -0.45485404 -0.93233397  0.25845625 -0.14794944 -0.43651918  0.45181122
  1.02869474 -0.62941018 -0.30357526  0.06200772  0.13890944 -0.60001881
 -0.79567653 -0.65045538 -0.98877665 -0.21268025 -0.46852603  0.29397567
  0.80468167  0.7573213  -0.64891664  0.57243993 -0.95804009 -0.54475675
 -0.32842251  0.39441699  0.34819195  1.15066786  0.26572726  0.75195452
 -0.33678668 -1.27323422 -0.87180718  0.3700435  -0.82460375 -1.47966419
 -0.47275341 -0.79926386 -0.04100436 -0.49712314 -0.87596447 -0.02602694
  0.33371073 -0.5289543   0.05064976 -0.23038861  1.21393701 -0.43130527
 -0.18890746  0.49045954  0.87531611  0.72421366  0.19478691 -0.57045024
 -0.98958545  1.04850707 -0.23927845  0.01458203] [-0.51547684  0.35887372  0.5135699  -0.16518385  0.83661284  0.77917581
  0.48124401  0.72546767 -1.00092689 -0.60140721 -0.63336726 -1.05450949
  0.79421381  1.007647   -0.67599502  0.59311306 -0.63672344 -0.51675065
  0.05143732 -1.07073346 -0.95482268  1.03894871  0.01061937  0.00571906
  0.77434801  0.3408626  -0.61817092  0.66435207  0.44322591  0.75499707
  0.85859258  0.37121266  0.39177052  0.60335509 -0.4425025   0.89150152
  0.11585052  0.40536281  0.96407775  0.7529442   0.04417266  0.77382231
  0.50297933 -0.01672948 -0.93388476 -0.72643677 -0.62974512 -1.03103631
  0.11462692 -0.75514651 -0.83436067  0.457777    0.31613907  0.19085629
 -0.6368345   0.7290162   0.4600865   0.45912201  0.00214482  0.39607102
 -0.31346661  0.83956666 -0.66783217  0.76785941] [ 0.40790684  0.3699774  -0.47080659 -0.14080353  0.89697378 -0.19631455
  0.89630266 -0.13463554  0.73073066  0.94255377  0.63965044  0.63826264
 -0.92921435 -0.96577262  0.38979849  0.20045973 -0.16773421  0.60293759
 -0.7550929  -0.37085732 -0.35316707 -0.39595246  0.33431349 -0.51848187
 -0.88481202 -0.22976815 -0.48666791 -0.18945621  0.33836026 -0.59243098
  0.7306713  -0.76779227 -1.1101646  -0.77292795  1.04210305  0.22841476
  0.40116785  0.18925675 -0.73912223 -1.04119973 -0.62063209 -0.02435941
 -0.73699083 -1.06535474  0.51783631 -0.85296618 -1.02853714 -0.25934847
 -0.23274693  0.19672276  0.17414072 -0.47843735 -0.21939607 -0.43676847
  0.29058616 -0.965575    0.11612217 -0.02928733 -0.58677463 -0.36562061
  0.7817681   0.0174009   0.15809252  0.81578681] [ 0.39534038  0.01228216  0.44449951  0.36108288  1.26833819 -0.70657514
  0.2357438   0.22072435  0.05394374 -0.0151051   0.07072435  0.87734051
 -0.17644829 -0.78763021  0.27990074  0.35936868  1.15446739  0.47615054
 -0.17110983 -0.42077707 -0.13124387 -0.45434271 -0.71754655 -1.00926935
  0.60621605 -0.18938641  0.75412989 -0.63530147 -0.88127361 -0.60218469
 -0.72163341  0.63098156 -0.65788312 -0.56320345  0.4893745   0.19940723
  0.66131167 -0.10266112  0.30831521 -0.56212779 -0.60603898  0.01599729
  0.93353565  0.61864424 -0.09980333  0.033934    0.27743895  0.23526997
 -0.71924465 -1.05939464  0.9585272  -0.48493144  0.36767573 -0.7760312
  0.66616396  0.25039563 -0.06060787  0.47372044 -0.13623536  0.52992113
 -0.52352117 -0.27102546 -0.26741417 -1.3142205 ] [ 3.35603470e-01 -8.68899400e-01 -2.40733474e-01  6.06226003e-01
  4.12083622e-01  1.25184244e+00 -5.49955098e-01  7.90063254e-02
  1.13273834e+00 -4.39693466e-02 -8.44097210e-01 -4.43386049e-01
 -6.38723323e-01 -2.29801161e-01 -1.04974397e+00 -9.75739028e-01
 -4.27362314e-01 -3.65450840e-01 -3.97918853e-02  7.43821768e-01
 -4.49343136e-02 -5.40296401e-01  6.34558127e-01 -5.70850255e-01
 -9.36117593e-01 -1.50547575e-01 -1.75849345e-02 -7.54606866e-01
 -5.27726655e-01 -7.27121742e-01 -6.50735614e-01 -4.50199767e-01
 -7.36918021e-01 -1.02756289e+00  8.65549758e-01 -4.46797367e-01
 -8.25233396e-01  7.20610168e-02  5.59366411e-01 -2.38086575e-01
  3.82273236e-01  4.58057674e-02 -9.44779127e-01  1.39540604e+00
  4.12712309e-01 -9.13786574e-02  1.25790988e+00 -1.63924936e-01
  3.05804193e-01  3.91198608e-02 -7.98210716e-01  4.62524931e-02
 -6.64269148e-01  6.30676579e-01 -2.03141751e-01  1.13481610e-01
  1.48550645e-01  9.05816699e-01 -7.63382302e-04  2.10676372e-01
 -7.82129491e-01 -4.59480583e-01  1.36486040e-01 -2.78624425e-01] [ 0.57640455 -1.00846751  0.83531996  0.57358697  0.38832852  0.53329491
  0.7757727  -0.63309246 -0.89752455 -0.15157311 -0.48388294 -0.82681627
 -0.88313363  0.14713939  0.4851905   0.32104368  0.76263887  0.58002198
 -0.87873162 -0.40462086 -0.45652181 -0.76374195 -0.90249208 -0.79984712
  0.24372232 -0.19497994 -0.3252433   0.08654498  0.33698637  0.58572764
 -0.14385971  0.74266652  0.4398757   0.9345809   0.13925527  1.1637729
 -0.2429501   0.14374059  0.66251417 -0.10142561 -0.4445484   0.6319145
 -0.0376195  -0.62674452 -0.40819154 -0.9244596   0.58427284  0.93143208
  1.1716544  -0.59347197 -0.23996696 -0.88463803 -0.86809131 -0.09982824
  0.72454001  1.00731952 -0.37140029 -0.66855965  0.39091925  0.29624789
 -0.71680552 -0.46588352  0.37868353  0.24612954] [-0.52714618  1.0033141  -0.57232266 -0.70586198  0.52118533  0.50815956
  0.33843806 -0.63656733 -0.12119424  0.86578458  1.00732209  0.06589086
 -0.73288689 -0.14742513 -0.69093638 -0.52897292  0.50558484 -0.68925241
 -0.51183933 -1.05947382  0.97995647 -0.10517179 -0.99140379  1.11392134
  0.70842528 -0.53819385 -0.51339842  0.62417063  0.4844876  -0.60550603
 -0.44011734  0.97866733 -0.78468381 -0.87245139 -0.73863913 -1.00215481
  0.49350595  0.09014277 -0.4546774  -0.70118414  0.02853801 -0.86375428
  0.72022965 -0.0397314  -0.26315267  0.69143606  0.46760959  0.57739673
 -0.1940731   0.19980042 -0.7522554   0.33812109 -0.37915736  0.13480309
  0.45437747 -0.58742687  0.22733971  0.27344411 -0.47794235  0.88693727
 -0.24867734  0.67391892  0.68194366  0.39778274] [ 1.00502213 -0.59879253 -0.76391544 -0.45988924 -0.05304845  0.91248585
  0.35842597 -0.99817119 -0.8635469  -0.37530445  0.75035314 -0.31951574
  0.24432549  0.77145292  0.78283313 -0.90415164 -0.55543435 -1.01033306
  0.48029854 -0.06418682 -0.20856322 -0.44062694  0.75699808 -0.56838583
 -0.75515229 -0.93654211  0.09406408 -0.88612256 -0.05737989  0.40409671
  0.14081055 -0.02021542 -0.08616248  0.66817558 -0.46075971  0.01423613
  0.24636555 -0.86245917 -0.53866836  0.54045079  0.07535913 -1.19885353
 -0.93707089  0.12228943 -0.17375955  0.92104872  0.1071929  -0.22895976
 -0.29411906 -0.91493874  0.41906261  0.36861327 -0.56726533  0.83568775
  0.22430154  0.14046425  0.1702471  -0.83247175  0.79512181 -0.14792633
 -0.78814432 -0.42827584  0.72215091  0.20767326] [-0.78631647 -0.81747166  0.69519796  0.18062386 -0.16694594 -0.82032301
  0.42068195 -0.76622265  0.19414753  0.46232542  0.59005519  0.50124228
  0.61143028 -0.06609519 -0.80394295  0.62834565  0.95887107  0.65574277
  0.26080168 -0.63692701  0.93964008  0.12544602 -0.91906451 -0.71963303
 -0.67852975 -0.72187751  0.02601943  0.12389789 -0.56899428 -0.35077393
 -0.89951845 -0.38648573  0.85970434 -0.61547454 -0.77124767  0.78294215
 -0.51514548 -0.26300533  0.24964123 -0.15111697 -0.72666309 -0.33392996
 -0.22286294 -0.01511746  0.48888367 -0.71551547  0.25704529  0.26547338
  0.47077752  1.03226487 -0.47089289 -0.70102816 -0.57275698  0.7997238
  0.44254067 -0.14034474  0.47159465 -0.07587088  0.67620695  0.02024476
 -0.3480033   0.97878366 -0.37622725 -0.24147875] [-0.71281749  0.40126638  0.7853662   0.66781131 -0.35149353  0.07809112
  0.02479417 -0.60015939  1.00354565 -0.71846808  0.87960806 -0.63619539
  0.68360377  0.46181404  0.38226635  0.8012642  -0.41611497 -0.34124468
 -0.93469787  0.58641747  0.49139996  0.7815945   0.08053263 -0.68809227
 -0.60498764  0.38367573  0.62711566  0.27807646  0.30971449  0.92163481
  0.89249872  0.05469145  0.90075634 -0.68190007  0.87835029  0.61051579
 -0.10463604  0.39263432  0.00958857  0.23136424 -1.03523202  0.51158609
 -0.64838088 -0.2444687   0.93937597  0.73758833  0.59290357 -0.0459569
  0.76211252 -0.54105787 -0.48280772  0.13220584  0.19384211 -0.38153234
 -0.41274814  0.0723821  -0.18564862 -0.00858334  0.57628195  1.00816274
  0.24587954  1.51539836  0.32770057 -0.41725743] [ 0.27819679 -0.55757621  0.33861173  0.43434738 -0.86127293  0.34820661
  0.8156997   0.34129849  0.42210667  0.36317265  0.62298493  0.92369719
  0.1878502   0.09317872  0.21944265 -0.70647861  0.43388629 -0.38846472
 -0.37605082  0.90024329 -0.35118811  0.59774512 -0.95767709  0.00517506
 -0.89645881 -0.03638383 -0.59123869 -0.37313339  0.28758447  0.84445321
 -0.58119202 -0.42364716 -0.86880391 -0.5744254  -0.78928797  0.4787773
  0.94111477  0.68730227 -0.13075292 -0.4353677   0.09610797  0.68819637
 -0.84873725 -0.72701612 -0.11686347  0.87193186 -0.48765509  0.6914294
  1.05283569  0.34905239  0.32187524  0.76883108  0.62545017 -0.41928423
  0.034483    0.46303607 -0.03824302  0.17136764 -0.50471888 -0.5479661
  0.46457178 -1.03858254  0.0415805   0.21194461] [-4.63872907e-01 -1.29840206e-01 -8.25997639e-01  9.60715813e-01
 -2.81663475e-01 -3.85129773e-01 -2.68806526e-01 -8.18917636e-01
  2.14323552e-01 -3.71359972e-01  7.89262039e-01  2.41054660e-02
 -5.07390926e-01  6.24452457e-01 -9.31834319e-01 -1.58801092e-01
  7.12761141e-01 -2.57579537e-01  7.34639146e-01  1.84048882e-01
  9.24904514e-01 -6.32966026e-01 -7.52827045e-02 -2.61680020e-01
  3.27825309e-01 -3.64496861e-01 -4.98192432e-01 -6.54141482e-01
 -2.45349722e-01 -8.90846723e-04 -8.57697265e-01 -5.43160647e-01
  1.05306716e-01  6.71465165e-01 -4.04261308e-01  1.19941643e-01
 -2.02983218e-01  1.87520191e-01 -5.07193610e-01 -5.66596887e-01
  4.72636837e-01 -9.24790192e-01  7.77224264e-01 -7.74000977e-01
 -7.11221892e-01  7.56108610e-01 -7.48014641e-01  1.07145797e-01
 -4.25174409e-01  4.99293738e-02  4.98211325e-01  7.46871121e-01
 -2.12460109e-01  1.99385194e-02 -6.30256717e-01 -3.18184509e-01
 -6.71876525e-01  6.54416322e-01  2.29990278e-02  1.64485654e-01
  8.08436272e-01 -9.34035916e-01 -1.40319564e-01 -9.71725852e-01] [-0.06370972 -0.35409003  0.80571284  1.16431219  0.71646713  0.72472502
 -0.75105807 -1.03472981  0.47382133  0.4811634   0.9191129  -0.81442071
 -0.49827917 -1.52904101  0.21523301  0.315398   -0.97875833 -0.24467857
 -0.38462127  0.52509652  0.21855471 -0.72901426 -0.07817681 -0.6910321
  0.94360294  0.16960847 -0.05039392 -1.25054212  0.23814765  0.93499472
  1.16552416  0.66405217 -0.88002681 -1.41728214  0.9522481   0.08363882
  0.43254661 -0.29978729  0.40122541  0.06231154 -0.32760276 -0.29224832
  0.80781634  0.77080894  0.75443092  0.65198234  1.32181104  0.00657367
  0.61470116  0.04378505 -0.46782236  1.00363487  0.02168474 -0.19568255
  0.23063888 -0.48988057 -0.91505094  0.86761121  0.56800162 -0.51223149
 -0.31262749  0.20131981  0.66001052 -0.7147696 ] [-0.15241316  0.36332493 -0.57750126 -0.52324708 -1.15809069 -0.80416924
 -0.00828756 -0.58253205  0.53430169 -0.50009257 -0.2697922   0.08694042
  0.51103826  1.28328389 -0.96584987  0.72791297 -0.38592834 -0.2625322
 -0.31196025 -0.65981115 -0.82036586 -0.48870922 -0.95220831 -0.41683191
  0.03384517 -0.79777844  0.79863336  0.77725857 -0.22711858 -0.35629366
 -0.41965063  0.18145833  0.14851695  0.71940899  0.09685292  1.19346019
 -0.75175457  0.11289595 -0.31358254  0.66333178 -0.03931781 -0.63193909
  0.48276663 -0.46562598  0.38652436  0.30862165 -1.03639644 -0.47605192
 -0.93570564  0.07941962 -0.47291701 -0.48601193  0.94703954 -1.43764212
 -0.4546532  -0.48691819  1.3000303   0.23478347 -0.44363841 -0.26724426
 -0.90758943  0.41033068 -0.43542249 -0.12218329] [-0.47206046  0.95120328  0.07234553 -0.26933384 -0.61230875  0.71947462
  0.07290281 -0.5640582  -0.82973028  0.36426629  0.35429983  0.01169793
 -0.88130964  1.12076819 -0.93344604  0.16696644  0.78085874 -0.31322574
 -0.28999713  0.22436579 -0.33342421 -0.5809638   0.89412962 -1.15281431
 -0.52396176  0.76463365 -0.55212485  0.67592398 -0.67265273 -0.3978562
  0.34160016 -0.03016925 -0.54163815  0.58657275 -0.62994331 -0.40228073
 -0.70435799  0.03508847 -0.12434568  0.41551165 -0.49831167  0.63761467
 -0.8713871   0.79187007  0.82422146 -0.0067148  -1.02122526 -0.00351495
 -0.13401863  0.67076925 -0.41622579 -0.21663993 -0.2940371  -0.83758764
 -0.43428472  0.21062927 -0.74404007  0.97453082  0.63514229 -0.17297491
 -0.18117706 -0.65755356 -0.39674511 -1.0644175 ] [-0.35685719 -0.5372995  -0.21594236  0.89188373  0.21948425  0.7763308
  0.71973342  0.06425773 -0.58858949  0.68922276 -0.54972245 -0.63432512
  0.00414658 -0.41732774 -0.96025895 -1.13152486  0.21623349 -0.85265835
  0.25470947  0.88733506 -0.52734403  0.46633829 -0.23873959  0.13002831
  0.56330113  0.41038446 -0.63543327  0.13758692 -0.80433339 -0.43124433
 -0.09031485 -0.35096492 -0.79543037 -0.41043064 -0.5166248  -0.2622654
 -0.22055343  0.39860821 -0.74735292 -0.7534864  -0.273536   -0.3357173
 -0.90528716 -0.7246372  -0.07743175  0.38556057  0.49857474  0.39185805
  1.03408984  0.11683999 -0.81450543  0.17644725 -0.20718447  0.59388127
 -0.46157172  0.46591088  0.50889175  0.33424822  0.61112002  0.36457995
  0.52206583 -0.92511001 -0.58558042  0.20021698] [-0.68426637 -0.07025394 -0.855522   -0.53121608 -0.89216971  0.15620345
  0.92333846  0.62899717  0.51340823 -0.93852257  0.30769061  0.95798427
  0.28268359  1.15015054  0.85645823  0.82256699  0.88369056  0.29698871
 -0.40564704  0.89365912  0.51009814 -0.0551335   0.32500219 -0.31165129
 -0.03067731 -0.78690008 -0.17928817 -0.75098743  0.40770608 -0.24186284
  0.23338788  0.27048953 -0.41743651  0.46142157 -0.2673302   1.23564558
 -0.05790136  0.86960497  0.45581881  0.60065291 -0.88879742  0.52847302
 -0.42219851 -0.92586004  0.61887559  0.10219833 -0.33697017  0.9946019
 -0.62521778 -0.66531592 -0.21046375 -0.39649484 -0.59967564  0.52129689
  0.13024936  0.23204976  0.42089192 -0.13425217 -0.34795212 -0.65131634
 -0.02859066  0.65222927 -0.3389911  -0.32920793] [ 0.41526663 -0.07250606 -0.38312339  0.07619513 -0.18093359 -0.77084206
  0.71488342  0.82331061  0.45772369  0.35721192 -0.09078929  0.90733154
 -0.27149983 -0.0490843   0.33487444  0.59384809  0.09548181  0.34126276
 -0.78576039 -0.8870507   0.66890467  0.47648495 -0.45289801  0.75171711
  0.97674673 -0.4047955  -0.58310239  0.49124641  0.11970726 -0.26603841
  1.13075921 -0.70442895 -0.75857158 -0.18899797 -0.4177292   0.05403502
 -0.27317828 -0.98687637 -1.01583171 -0.20735675  0.86061311  0.24778769
  0.70349109  0.89364832 -0.99189219  0.49767558 -0.62217954 -1.18055159
 -0.44188755  0.0401426   0.32827431 -0.29152242  0.29057324 -0.85931439
  0.26992443 -0.3320092  -0.091967   -0.21824169 -0.97754907 -0.76994606
 -0.98952938  0.20407069  0.26272145  0.64144543] [-0.14456271  0.33240631 -0.44887486 -0.82249547  0.17929359 -0.46253006
  0.0767215   0.50361449 -0.91436853  0.66088251  0.52967514 -0.52690585
 -0.63153115 -0.50671465  0.19043032 -0.25824668  0.992473    0.18811091
  0.44346774 -0.84132863  0.80776764  0.42116388 -0.93017639  1.51704399
  0.31354087  0.37945437 -0.76556435 -0.92614549  0.03110617 -0.0444659
 -0.4614056  -0.17276596 -1.35325172 -0.17978078  0.04343607 -0.48631626
  0.10503668  0.54939084  0.57264214  0.56764525  0.15188865  0.8411354
 -1.03618781  0.18925937 -0.03104122  0.68783447  0.06261632  0.03431444
  0.65448013  0.61991142  0.00933176 -0.04438119 -0.08416257 -0.12834338
  0.08683928  0.33821695 -0.10510063  0.29420195  0.25677806  0.20504365
  0.17277287 -0.04582099  0.38261229  0.17579261] [ 0.20160604  0.05451709  0.94183946  0.57178181  0.14151035 -0.27125384
  0.91743803  0.40909058 -0.57687542 -0.47143307  0.61356173 -0.94881218
 -0.30600542  0.12233955 -0.30160413  0.88618568 -0.63120479  0.10006601
 -0.22721701  0.35057811  0.52039442 -0.90017666  0.35278123 -0.75058111
 -0.38696899 -0.21425861 -0.51511222 -0.42503273  0.05707657 -0.76478406
  0.85347803  0.52140662 -0.65075583 -0.93480797 -0.27967421  0.13928022
 -0.81480571  0.71035363 -0.09757411  0.21573864  0.76861958 -0.54546369
  0.74890038  0.62980208  0.02392976 -0.35477971  0.73288069 -0.25908359
 -0.66781194  0.55385651 -0.38040925  0.30796406  0.79199862 -0.20606876
 -0.89526954  0.07053478  0.82747473  0.43385877  0.92960484  0.09529389
 -0.77393116 -0.46892845  0.07638212  0.66567444] [-0.34978141  0.0821966   0.76134658 -0.6490073   0.80089952  0.52083255
 -0.23185199  0.58285604 -0.82864263  0.7318269   0.92264478  0.25083828
 -0.11859034 -0.11060978  0.46813019  0.76407048  0.37820741 -0.49653012
 -0.00441037 -0.66152666  0.25173904 -0.79502795  0.66578786 -0.54764951
  0.69279982 -0.10698403  1.00331417  0.97593727 -0.34322785 -0.39726119
 -0.14651418  0.43728021  0.14871335 -0.35018825  0.36216972 -0.53708953
  0.23896268 -0.98870413  0.07139347  0.09764246 -0.48612018 -0.91396985
  0.25461089  0.8518385   0.13228646  0.03278877 -0.33926306 -0.89651684
 -0.66685009  0.38190332 -0.50961052 -0.02243339  0.60427341  0.08234762
  0.67125059  1.02734883  0.21876045  0.88053602  0.99801145  0.58603846
  0.73944882 -0.18823695 -1.13539837 -0.13119034] [-0.93078774 -0.92059337  0.18726311 -0.45600787  0.73715403 -0.12654985
 -0.61935985 -0.9065488   0.38182579 -0.21027287 -0.26314455  0.90657429
 -0.47929712  0.18584608 -0.06508413  0.59974316  0.32134343  0.27393901
  0.24749268 -0.53181647  0.52876664  0.71734388 -0.25430701  1.15567325
  0.25046089 -0.4449007  -0.11025403 -0.98880437  0.30835274  0.03153454
  0.12304619 -0.83074292  0.54802354 -0.2489783  -0.03816097  0.03045402
  0.3761212  -0.79306443 -0.6827684  -0.50059448  0.45768313  0.77320693
 -1.01181037 -1.12371685 -0.85990117  0.14812351 -0.20841929  0.16505192
  0.03168285  0.83489804 -0.23320667 -0.90875424  0.26297132 -0.90848241
 -0.76533465  0.12594593 -0.35766459  0.75612349  0.66369728  0.09657447
  0.53942669 -0.70838553  0.18419345 -0.08149626] [ 0.73587077 -0.81324614  0.01141709 -0.42155258 -0.14919497  0.18662547
  0.262969    0.68050265 -0.08810146  0.74321286  0.4863048   0.46164208
  0.89143742 -0.0458204   0.22240271 -1.00214514  0.10451932 -0.15597362
 -0.98041354  0.43335024 -0.84800729 -0.53350922  0.56184086 -0.7156545
  0.29481955  0.59297681  0.91005858 -0.21380633  0.45864124 -0.27040458
 -0.07985969  0.12544133 -0.39450471  0.53629209  0.31599575  0.45762572
  0.68178792  0.48625318  0.81266102  0.55169591 -0.16069012 -0.0220554
  0.97409097  0.88213251 -0.99922619  0.253045   -0.55854623 -0.18454137
 -1.06563628  0.81204006 -0.0266689  -0.44882168  0.44797865 -0.60485522
  0.44830636 -0.44614323 -0.70277823 -0.64846816  0.04598055 -0.4279068
  0.3968342  -0.09500205  0.33906218  0.03004399] [ 0.19511664  0.41530068 -0.63751587 -0.29874214 -0.59103701 -0.22649335
 -0.72128825 -0.67885767  0.41752785 -0.76325094  0.70571651 -1.00393979
  0.69541125  0.10369475 -0.68837754  0.15124851 -0.51852865 -0.18995274
 -0.79974654 -0.07564878  0.09815893  0.8107225   0.16003929 -0.50235867
  0.59981971  0.47730064 -0.48002505 -1.01379114  0.55166679 -0.72172584
  0.71665145 -0.34725227 -0.00966736  0.28938066  0.72576755  0.58000003
  0.8477384  -0.53026176  0.81362507  0.3620755   0.60464781  0.38654337
 -0.22043032 -0.93148511  0.84292264 -0.13926183 -0.97164359  0.7578152
  0.28997126  0.77169951  0.1093132   0.77238015 -0.26355834  0.88445476
  0.67415797  0.01629282  0.61095824 -0.45525721  0.93957505 -0.53202514
 -0.47649889 -0.55422376 -0.296233   -0.42723698] [ 0.6980957   0.4711321  -0.05728672  0.2646268   0.52317591  0.47575471
  0.46050531  0.0221734  -0.22267683 -0.01093842 -0.81199601 -1.05698437
  0.20042315  0.92706828  0.04869059  0.09034199  0.91105061 -0.01013579
 -0.27731479  0.51172721  0.22630379 -0.77849317  0.82876051 -0.1706764
 -0.82831957 -0.51094606  0.34464252 -0.81221787 -0.98008111  0.19503937
 -0.19139997  0.49639571  0.68390265  0.89653847 -0.99670671 -0.10929511
  0.05945113  0.45322161 -0.82492553 -0.01776351 -0.69489961 -0.21023658
  0.71894641 -0.54855651 -0.61434753 -0.14953845 -0.4540074  -0.41413104
 -0.44500892  0.76136423 -0.13124426 -0.8606414  -0.55675306 -0.28331304
  0.11899742 -0.53959584 -0.2499363  -0.28515438  0.20966238  0.56047195
  0.85950064 -0.64071217 -0.66576974  0.04331564] [ 0.12228508 -0.52011395  0.34536949 -0.85019025  0.2676416   0.66521053
  0.26567414  0.76899458 -0.49751084 -0.48526607  0.22837188  0.01031153
 -0.47318484 -0.30637592 -0.36378573 -0.03877549 -0.02596504  0.74228329
  0.24114519  1.28987604  0.21915262 -0.58023791  0.61076134  0.54429405
 -0.58063029 -0.4730177   0.27326688  0.66650169  0.79630384  0.00802049
  0.09063773  0.28576093  0.21495576 -0.39746157 -0.18178682 -0.53713175
  0.48920712 -1.44093713 -0.76396126 -0.63765363  0.11170237 -0.35469714
 -0.24265372  0.52742943 -0.2313826   0.97509872  0.18107586 -0.15583492
  0.74805898 -0.67603274 -0.40897523  0.50059552  0.95860766 -0.6615488
  0.33750337  0.82199529  0.6931327  -0.20411747  0.26752195 -1.15813861
 -0.70186044 -0.23505471  0.83136457  0.26990543] [-0.93149648  0.03248063 -0.20746447 -0.46460499  0.59955837 -0.7432345
 -0.6783047   0.79040583 -0.32306068  0.70669673 -0.55690204 -0.65079744
 -0.94221269  0.41957552 -0.10115562 -1.13509496  0.42013312 -0.31365473
  0.31306043 -0.12301711 -0.5946015  -0.29793803  0.19405776  0.73802417
 -0.26442211 -0.30599159  0.726715    0.34642408  0.88242125 -0.86257489
  0.02799999  0.67595737  0.74108378  0.74827303  0.38374062 -0.03529439
 -0.29609006  0.39377809  0.8845777   0.55823529  0.88688774 -0.60137339
  0.71441141  0.57222444 -0.72330967 -0.37764201  0.22849981  0.90000718
  0.53625548 -0.44221702 -0.09688376 -0.08796101 -0.4872535  -0.71977074
  0.0865133   0.09630126  0.4961767  -0.36661253 -0.43497584 -0.91528937
  0.09675739 -0.82066951  0.25484474  0.34927462] [ 0.49862048  0.34507396  0.42159178 -0.45734117 -0.70159685  0.02584214
  0.24872393  0.07526969  0.18665131  0.06219896  0.78954229  0.74031133
 -0.00622026  1.16556689  0.00796197 -0.19753843 -0.91454881  0.31780145
 -0.3939136  -0.79258472  0.87965199  0.74235685 -0.96478799  0.72445188
  0.90936889  0.39449008  0.73958867  0.87142845 -0.78100121 -0.32482482
  0.36961196 -0.42837317 -0.95297084 -0.53343753 -1.14386235  0.54020855
  0.33604113 -0.04757791 -0.63156631  0.15135344 -0.80535634  0.66597343
 -0.56305936  0.84094213  0.87529564  0.51534997 -0.89052548  0.33193879
  0.43472451 -0.99100847  0.23241435 -0.64650399 -0.91102237  0.05060615
 -0.78124631 -0.3672677   0.08107205  0.91058006  0.17436055 -0.97718707
 -0.55676515  0.24544771 -0.12503406 -0.27429361] [-0.73304173 -0.14692574  0.1533699   0.65909079 -0.33372423 -0.29655028
 -0.18741986  0.44538509  0.64499831 -0.02041015  0.82190618  0.62962094
 -0.31646662 -0.49206136  0.29197503 -0.36435029 -1.19884922  0.59667959
  0.58478408  0.38523912  0.04029997  0.16566651  0.87073189 -0.92061103
 -0.12055822  0.31153251 -0.77230019  0.17793063  0.90661799 -0.11072585
  0.76693638 -0.09922229  0.46691132 -1.06476134  0.51570087 -0.54094993
 -0.69566568  0.11924567 -0.04092049 -0.26339509  0.3491811   0.31586677
 -0.76444121  0.94328995  0.99920972 -0.98644257  0.58047177 -0.88721629
 -0.50063562 -0.16657659  0.39147131 -0.74069694 -0.6240124  -0.92468505
 -0.56612844  0.19234614  0.31051304 -0.21237634 -0.1329074   0.65156111
 -0.1536534   1.04253068  0.5021526  -0.58694675] [-1.10698811e-01  5.88084371e-01  3.82842268e-01 -1.08589487e+00
 -3.49955122e-01  3.89206195e-01  3.77101642e-01  4.50851903e-01
  1.57077475e-02  8.38522564e-02  6.12069255e-01 -3.33690234e-01
 -8.43700291e-01 -8.28820044e-01  1.02028123e+00 -3.24585190e-01
 -8.50587160e-01  9.51397597e-01 -9.08474948e-01 -2.87797131e-01
  1.99243039e-01  4.43603478e-01  6.50835617e-01  6.53517942e-01
 -5.51212178e-01  4.95706489e-01  3.84384537e-01  1.20620303e-01
 -2.08169480e-01  3.34956348e-01  1.05020334e+00  4.52382428e-01
 -5.65284087e-01  3.15614143e-02 -1.00732935e-01  3.39494642e-01
  2.19883372e-01 -1.08979745e+00  1.19993676e+00 -7.59135610e-02
  5.14694717e-01  4.72128809e-01  1.55154437e-01 -8.27138593e-01
  8.51410327e-01 -3.75380111e-01  9.45312981e-01 -8.26082944e-01
 -3.75484845e-01 -5.06597801e-01 -7.78264354e-04 -7.36028299e-01
  7.04932676e-01  7.04750594e-01  6.95933388e-01  5.21781503e-01
 -5.00875636e-01 -4.22891650e-01  4.24241161e-01 -6.53604004e-01
  7.32771316e-01 -1.03593580e+00 -5.35057634e-01  6.45251096e-01] [ 8.68385528e-01 -9.22686924e-01  9.43255815e-01 -5.60032672e-01
 -2.36244496e-01  4.68562696e-02 -2.51536000e-01  2.63184464e-01
 -5.47581292e-01  5.45412629e-01 -8.38653170e-01 -8.28624334e-01
 -2.18356206e-01  6.69637755e-01 -5.28810993e-01  7.51418656e-01
  6.40078902e-01 -3.69667348e-01 -9.03866820e-01  2.92840369e-02
 -2.22297390e-01 -2.62096797e-01  8.94756798e-02  6.38337216e-02
  3.68896120e-01 -8.32952729e-02  2.63837832e-01  2.84829070e-01
 -4.41207017e-01  2.23338694e-01  8.63926256e-01 -9.30609512e-01
 -3.36366741e-01 -2.06587705e-01  5.43389364e-01 -1.00587283e-01
 -3.29690103e-01 -1.73036442e-04  3.04403817e-01  1.03575035e+00
 -1.55936757e-01 -1.79944335e-01  8.13818907e-01  5.85721076e-01
  1.02126244e+00 -2.51552976e-01 -1.08357886e-01 -8.66657533e-01
 -2.33009214e-01 -3.34273870e-01  6.22839728e-01 -4.07059507e-01
  4.77507553e-02 -5.74850371e-01  4.05518338e-01  4.84444984e-01
  5.93629727e-01 -1.23821248e-01 -8.45267785e-01  2.56386785e-01
  2.07386951e-01  8.75385713e-01 -7.84231842e-01 -8.94131423e-01] [ 0.78014886 -0.02117789 -0.13063523 -0.77989766  0.43979615  1.0078682
  0.24006987  0.28495361  0.18607618  0.38177416 -0.16077171 -0.60291675
  0.16825134 -0.66036697  0.72912518  0.68073352  0.55057848 -0.62006121
  0.54675899  0.05176991 -0.6978966   0.34653892  0.1506833   0.98280938
 -0.63093615 -0.56970732  0.4347047  -0.69742462 -0.91348113 -0.22101431
  0.51143526 -0.76820851 -0.02935863  0.79416597 -0.16044164  0.73351908
 -0.88672685  0.12913295 -0.78184215 -0.52304506 -0.30523467 -0.38057668
 -0.86689523  0.28855567  0.68287408 -0.68770068  0.24457896  0.59871455
  0.09174833  0.18099995 -0.23660003  0.85932663 -0.00181956 -0.9670883
 -0.86960016 -0.59212899  0.45669226  0.96840306 -0.30707607  0.77308564
 -0.92716875 -0.40062792 -0.86431831  0.20744315] [-0.07697528 -0.48429071  0.24024144 -0.26649196  0.3353248   0.11373857
 -0.42506666 -0.8998539  -0.42617217 -0.23198855 -0.02467088  0.26167226
 -0.96356358 -0.16079375 -0.78230196  0.65941408 -0.20006857  0.34328144
 -0.25328975  0.18794812 -0.49918748 -0.52301853 -0.69369734  0.66673692
  0.98489422  0.19985596 -0.42193098  0.26215656 -0.83657087  0.87561699
 -0.57137369 -0.8347769   0.66173981  0.58469003  0.84688306  0.42323411
 -0.29591034  0.26780871 -0.28871724 -0.04355648 -0.78475361  0.49628281
  0.89551124 -0.83671711  0.13384108 -0.75548421 -0.60330275 -0.12020972
  0.87414712  0.92706483 -0.45314002 -0.11184077  0.10627045  0.96267343
  0.67791864  0.85073386  0.48357346  0.1486801   0.97538155  0.66650226
 -0.29174257 -0.04025907 -0.86602979  0.1816876 ] [ 0.28769959  0.62439469  0.75919497  0.9868322  -0.05520678 -0.91798117
  0.52076345  0.369014    0.57891125 -0.59361067  0.16482751  0.78727346
  0.77717163  0.67139719  0.2976991  -0.14042254 -0.27519795 -0.30497552
 -0.49109406 -0.88572901 -0.1629304   0.23019011  0.59126516 -0.04380943
  0.68848604 -0.36542598  0.01920276  0.70350775  0.30360126  0.93977191
 -0.90255995 -0.49679033  0.21112067 -0.60443103 -0.52446643  0.58869482
 -0.92358169  0.44608517  0.60476963 -0.68977667 -0.53083446  0.79272522
 -0.26172493 -0.63942598  0.9471029  -0.47667751  0.20251936 -0.64201812
 -0.72507453  0.43803572  0.37307026  0.94090078 -0.94522334 -0.07849864
  0.10715982 -0.71533428  0.81978501  0.47360718 -0.49620656 -0.86802595
 -0.1459451  -0.94219238  0.55876839  0.91835509] [-0.62934192 -0.53304649  0.26208639 -0.99587326 -0.07586022 -0.47295592
  0.443647   -1.04149897 -0.8700148  -1.13258413  0.03500059 -0.91941903
 -0.77487749  1.04738153  0.5007533  -0.69782936 -1.03265561 -0.86600755
 -0.74348724  0.40854159  0.7339155   0.72772158 -0.7648344   0.82470659
 -0.70790193  0.58402335  0.62786102  0.38435051 -0.08181373 -0.21710474
  0.35543813 -0.73617533  0.47748804 -0.21498384  0.31745532 -0.02859731
 -0.42867285 -0.41359395  0.99883167 -0.94139633  0.47381347 -0.82295949
 -0.07970408  0.16176448  0.48552521  0.01509048 -0.5303545  -0.36594704
  0.36896643  0.03886922 -0.19428104  0.35065343 -0.58470072  0.15808072
  0.76475806 -0.69829151  1.04032303 -0.49098464  1.00371001  0.3502044
  0.56343636  0.34058039  0.26250626 -0.53990685] [-0.09741743  0.71223672 -0.49367892  0.93391764  0.72917925 -0.60634872
 -0.04894036 -0.18957137  0.49982319 -0.42541208  0.52125479 -0.26959103
  0.63304355 -0.1374189  -0.3309183   0.37914516  0.01199726 -0.4370994
  0.84596225  0.68577889  0.43310722 -0.30894595  0.07270284  0.89505637
  0.73005749 -0.31339865  0.45984425  0.08161243  0.64370564 -0.52803011
 -0.21944113  0.83678655 -0.69054374  0.28516688  0.38751958  0.973483
 -0.16140002  0.96772767 -0.77715658 -0.66194708  0.36213874  0.71081438
 -0.28332343  0.31178504  0.29805102 -0.88895991  0.55826809  0.38984756
 -0.66217585  0.26164204 -0.36090788  0.79604554 -0.34923396 -0.57283882
  0.09086133  0.95991186 -0.4844062   0.7095424  -0.53185362  0.77253995
  0.71363628  0.81203511 -0.16922616  0.72153554] [ 0.20568145 -0.4912429  -0.034549    0.52534372  0.38808101  0.39416089
  0.07818905 -0.48262236 -1.0102883  -0.37462463  0.19981189 -0.50394531
 -0.98946084 -0.15888893  0.74921476  0.64401398  0.78668533  0.11662968
 -0.70473049 -0.50207525 -0.93877195 -0.54065606  0.96910538  0.70305152
  0.62744298 -1.10494974 -0.30799533  0.19761279  0.64401015 -0.46785126
  0.73846364 -0.92076612 -0.69055428 -0.59222943 -0.09384264 -0.0139752
  0.32320657 -1.26900777 -0.34280206 -0.16859361  0.56688751 -0.71517385
  1.16511078  0.16486803  0.54277503  0.46092514  0.42579731  0.3148568
 -0.47704547  0.10854383 -0.892308    0.63696383  0.25385279  1.12566056
  1.49721498  0.42919706 -1.17425965 -0.76576174 -0.35561911 -0.64048845
  0.52939999 -0.86325964 -0.8545677  -1.20452173] [-0.4160851   0.82585044  0.23962894  0.78622772 -0.54991645 -0.25567024
 -0.13931789 -0.54423774 -0.50713906 -0.04777792 -0.88495463 -0.47755838
 -0.101967   -0.59672622  0.3009808  -0.50183839  0.49141394 -0.29436005
 -0.56035783  0.33627822 -0.12371251  0.04927875  0.82028284  0.40589979
  0.08335574  0.76225302  0.39076819 -0.7257332  -0.72006294 -0.1295029
 -0.85601209 -0.43512147 -0.6951678  -0.30534764  0.30291806  0.58071319
  0.33870725 -0.25305089 -0.04949129  0.23367235 -0.88542479  0.60531496
 -0.44920368  0.45886434 -0.10688742 -0.96380711  0.50468745 -0.23259717
 -0.86731996 -0.02172632 -0.26583641 -0.73077731  0.76844524 -0.52650716
  0.73744822  0.63358828 -0.36662909 -0.77895663  0.95663898 -0.61637775
  0.41788735  0.25698388  0.18275834 -0.1759681 ] [ 0.62652875  0.71773056 -0.34584563  0.98886982  1.01133396  0.48797727
 -0.98414777  0.24118317 -0.31304089 -0.74753394  0.70090762 -0.74706091
  0.09488999  0.66625379  0.49117653 -0.40700984  0.59321191 -0.2321947
