[-0.99717928  1.32397612  0.25619904  0.74624542  0.73669662 -0.50944842
 -0.01851249 -0.84482155  0.85013647 -0.4523119  -1.00663063 -0.61924225
  0.80569222  0.19001982  0.3558239   0.21841873  0.20693523  1.03513846
  0.70222348 -0.58367855 -0.44343209  0.82833468 -0.94408665  0.50265732
  0.70055477 -0.48697134 -0.35849006  0.39815562  0.77082385 -1.06347149
 -0.13387012 -0.32426219] [-0.36472065  0.80957042  1.03632705  0.22035003  0.18623702 -0.26469914
 -0.23403565  0.00160731 -1.04135064 -0.2443843  -0.93762376 -0.78493717
  0.81764216 -0.3721445  -0.05186934 -0.50829385  0.90756698 -0.26206841
 -0.3575634  -0.32606863 -0.77756397 -0.68633683  1.18341393 -1.03966288
  0.6429209  -0.49422565 -0.82821349 -0.68388205  0.45784963  0.51445041
  0.17664633 -0.35486551] [ 0.48526846  0.65040298  0.87323318  0.41290092  0.91930117  0.69246911
  0.42022173 -0.20586287  0.41778733 -0.83203982 -0.99871586 -0.45609831
  0.06552761 -0.54345291  0.24477107 -0.59690882  0.48017895  0.33780283
 -0.06740918  0.27734179 -0.2586779  -0.42455295  0.80320225 -0.13653072
  0.80978361 -0.86518977 -0.2550132  -0.35466572  0.90312638  0.57389579
 -0.51686716  0.65160876] [ 2.47695288e-01  4.91163181e-01  4.04564057e-01 -2.01997774e+00
 -6.41270985e-01 -3.45759536e-01 -4.89424306e-01  4.63960501e-01
  1.47190427e-01  1.54286263e+00 -8.68381642e-01  1.23805587e+00
  4.35660231e-01 -1.65453260e+00  1.05545878e+00  3.07993161e-01
  5.65259329e-01 -5.09303465e-01  6.77662729e-05  7.76420516e-01
  5.27466575e-01  4.32453024e-01  1.23805636e+00 -9.91384433e-01
 -2.57704729e-01 -2.80796486e-01 -9.77457182e-02 -2.12283310e-01
  1.29797564e-01  9.39278015e-01 -1.38826570e+00  5.92999381e-01] [-0.79979387  0.81275329  0.58267401 -1.09107492  0.32408592  0.52267019
  0.13936956  0.32805759  0.54055035  1.27513176 -0.7978691   0.70060652
  0.52097289 -1.65268502 -0.24493092  0.68032615 -0.32715862  1.00116212
  0.39080315 -0.87565878  0.19311971 -1.10903014  0.41462514 -0.43032149
 -0.86243291 -0.23860893  0.23507066  0.80488434  0.65381866 -0.002906
  0.09793853 -0.53911345] [-0.59346013  0.69204051  0.25961213 -0.31132918 -0.80652811  0.63248185
  0.02312858 -0.94392041  0.24207278 -0.56318485 -0.52471475 -0.61090625
 -0.06442931 -0.10271279 -1.02272609  0.39781062 -0.89194548 -0.57487573
  0.60864256 -0.03930183  0.68332118  0.68434614 -0.44607236 -0.80333777
  0.70499357 -0.4420063   0.79314553 -0.41250234 -0.63853649  0.06815239
  0.70131418  0.92813387] [-0.49224905 -0.93128965 -0.26022745  0.39916235  0.81672689 -0.79596098
 -0.73786798 -0.11006766  0.63991402  0.28428309  0.89578477 -0.92989715
 -0.75832846  1.0552846  -0.47663931 -0.26839435  0.79637821 -1.04190494
  0.66641228 -0.67919302  0.3774716   0.65084418  0.85786606 -0.7365942
  0.44294767 -0.63082634  0.29717351  0.59785492 -0.71274336 -0.57611003
 -1.09081654 -0.15492154] [-1.13701848e+00  6.63403235e-01  7.52126317e-01  1.02851455e-01
  6.28512912e-01  1.09386351e+00 -1.07552778e+00  6.70794544e-01
  4.01883262e-03  6.71684110e-01  6.79927217e-01  2.24003727e-01
  6.32210869e-01  4.77036375e-02  5.17005115e-01  2.31845841e-02
  4.10258307e-01  1.21902723e-01  1.15073066e+00  5.35053221e-01
  3.37590490e-01 -1.08761681e+00  9.60054106e-01  1.13753233e+00
  5.00895176e-01 -1.18796929e+00  9.35497857e-01  9.09850616e-01
  7.02921925e-01 -4.79699624e-02 -1.34429668e-04  6.64726621e-01] [-1.09391398  0.95628419 -0.60034158  0.38273467 -0.03239821 -0.93626811
  0.59195708 -0.14162955 -0.51431004  0.25045806  0.34252837 -1.13236233
 -0.89679414  0.61636466 -0.77030509 -0.29408489 -0.0542396   0.55370171
  0.46211944 -0.95850265 -0.09902229  0.69108586 -0.27827807 -0.97353619
  0.74882564 -0.09537681  0.9544253   0.06930805  0.75043592  0.38962146
 -0.51711794  0.06523233] [-0.56508132  0.90027919 -0.1499911   0.32660423 -0.46745778 -0.26660892
  0.73338037  0.51306925  0.07614764  0.39848199  0.08127817  0.20257817
 -0.20566951 -0.87699104  0.82391493 -0.99264515  1.04124354  0.70211223
 -1.07345142  0.55862043  0.13202083 -0.59785986  0.56760507  0.69087404
 -1.09886723 -1.07893296 -1.03129087 -0.12241286 -0.559756   -0.07714475
  0.67130233  0.63841016] [-0.78719567 -0.60303417  0.04120092  0.44073908 -0.80613462 -0.58262571
 -0.56420011 -0.02024864  0.64576579  0.4828899   0.02048478 -0.22848696
 -0.38282991  0.12169732 -0.31409249  0.38066788  1.02122232  0.36999187
 -0.09547383 -0.15981044 -0.28988972  0.32118479 -0.22933288 -0.7314022
 -0.66554372  0.61434411 -0.38955289 -0.45109997  0.10739115  0.03286044
  0.09546099  0.31634086] [-0.39845738  0.80618694 -0.3432686  -0.28069277 -0.40282998 -0.83409867
  0.32259777 -0.97980432  0.2724458  -0.23576628 -0.27593469 -0.17790051
  0.45757425 -0.32659097  0.68760898  0.64447731  0.87519541  0.2985747
  0.66520881  0.12777009 -0.11869819  0.23094783  0.79511072  0.6992935
  0.50245844  0.26412124 -0.78454588  0.51085773  0.95945193 -0.04057251
 -0.66900677  0.38298599] [ 0.78596798 -0.65389153 -0.213856   -0.1851211  -0.43050115 -0.18832941
 -0.9275364   0.36659098  0.35032992  0.46477874 -0.29145477  0.60064879
  0.50381065 -0.4109369  -0.36613195  0.92715351 -0.00773602  0.98902257
 -0.13389329 -0.18266646 -0.55626527 -0.27052323  0.26095326 -0.04620253
  0.62923866 -0.03372016 -0.7926198  -0.82660369  0.5912432  -0.28476721
  1.0130208   0.09088621] [-0.50535702 -0.22894941  0.84883828 -0.91454818 -0.71600644  0.0393698
 -1.08086932 -0.0140009   0.43234604 -0.89787805  0.79526249 -1.09341343
 -0.73035221  1.91863073 -0.34928745  0.0122388   0.14511947 -0.81499614
  0.60821965  1.54172032 -0.74959182  1.90874606  0.17239635  0.74417284
  0.14975929 -0.98076746 -0.06823391 -0.50509165  0.77348604  0.50755063
 -1.12261598 -0.86398193] [-0.72585579 -0.9944345  -0.16564272  0.79094143 -0.85955242 -0.33414376
 -0.94166901 -0.69455078  0.53868062  0.82885112  0.30646303  0.35051432
  0.4586453   0.84181453  0.5083748  -0.73436455  0.39911553  0.41269998
 -0.43092659 -0.18524399 -0.80509646 -0.30749063 -0.60946891 -0.76063402
  0.48031791  1.01686675  0.29168574  0.31869993  0.3243053   0.92709914
  0.33890525 -0.38599886] [-0.68268838 -0.67835796 -0.92103102  0.88828279 -0.54286012 -0.84847156
 -0.426918   -0.16842149  0.30415118  0.71710051  0.57882321  0.03338493
 -0.95568416  1.03370044  0.51638851  0.2237954  -0.38035026  0.39086547
 -0.50228643 -0.30094837  0.10316382  0.03445909 -0.81964297 -0.83429987
  0.29420695  0.01124112 -0.64348497  0.10830358  0.9846434   0.69872601
 -0.89591412 -0.96028457] [-0.11217953  0.84322813 -0.02619212  0.39386426 -0.28903312  1.67425836
 -0.55242092  1.09008326  1.1155869   0.63148415 -0.85431327  0.9799719
 -0.49338597 -0.33581726 -0.17981245  1.14598501  0.27339773 -1.26230321
 -0.57730339  1.87004606 -0.47557813  0.27216832 -0.70539442  0.73397497
 -1.48845206 -0.30780419 -1.30744394  0.95219152 -0.56595597  0.22147552
 -2.10090007 -2.08940068] [-0.1011145   0.18909529 -0.51677238 -0.08163213  0.57959073  0.67948041
  0.01367218 -0.31955612 -0.05038184  0.70756065  0.34691586 -0.05162693
  0.31019475 -0.40057925  0.86474555 -0.27427685  0.40732616 -0.22828683
  0.48004463  0.72662987 -0.15831286  0.81319472  0.05158526 -0.16905509
 -0.43337191 -0.64088513  0.63722322 -0.10591485 -0.47840623 -0.56713095
  0.73266675 -0.51793312] [ 0.46099805 -0.74076456  1.00108921  0.27684532  0.47531342  0.02932989
 -0.83399731  0.32445766  0.89140044 -0.03106558  0.52119861  0.53619264
  0.33982271  0.7303132  -0.66255135 -0.76494333 -0.46118074 -0.48134645
  0.07647157  0.54021402 -0.02338839 -0.48749129 -0.22856866  0.27699683
 -0.67251454 -0.63275179  0.50248879  0.41809476 -0.89088468 -0.33846405
  0.16906477 -0.19976397] [-0.87149535 -0.60198766  0.99456156 -0.85886452 -1.13379842 -1.37946429
  1.09365497  0.01201251 -0.64195521 -0.52420888 -0.23896706  0.82828095
 -0.58256801 -0.10315609 -0.85975336  0.29329444 -0.80752875 -0.03927422
 -0.20264116 -0.14321755 -0.77249417  0.93653535 -0.78175565 -0.11076613
 -1.02320228  0.29583365  0.9766389   0.432038    0.67004063  0.59742327
  0.55991414  1.29818679] [ 0.09370955  0.63790166  0.48460034 -0.69285002 -0.2503365   0.43467993
 -0.0658238  -0.43027945 -0.46075283  0.49587709 -0.70178664  0.75835461
 -0.10078602  0.59112814  0.78340179 -0.53921563  0.72068673  0.77912373
  0.2742608  -0.2288937  -0.25683941  0.6305877  -0.26324408 -0.229008
  0.77633037 -0.13339511  0.99883303  0.74773039  0.0788374   0.50240903
 -0.63158086  0.08632213] [-0.36113894  0.31397663  0.98622087 -0.64100561  0.29998011  0.31206999
 -0.55294864 -0.23045575 -0.69794234  0.15692888 -0.94311424 -0.63171741
 -0.03625189 -0.67424713  0.77972946  0.32858283  0.65420245 -0.28071198
  0.58190617  0.15574248  0.22820841  0.98033753  0.14880056  1.0437703
  0.77436759  0.61327409  0.16655977  0.22146012  0.28542677  0.02410661
  0.9966777  -0.29093107] [ 0.43593728 -0.7611111   0.08089647 -1.08455441 -0.31851289 -0.2885949
 -0.2968587  -0.61581849  0.00398549 -0.66811787 -0.66333812  0.10547892
  0.30842579 -0.62023634  1.0351142  -0.78982085 -0.08769359 -0.3874886
 -0.41092833  0.80492152 -0.45230072  0.02335914  0.9861744  -0.01941478
 -0.97849813  0.73313685 -0.84652869  0.36950521  0.35381295  0.2486762
 -0.33246718  0.93196368] [ 0.83080812 -0.8085046   0.69731947  0.55229205  0.83144119  0.22305365
 -1.06908026  0.82686598 -0.72450227 -1.95270225 -0.76157358  0.83217597
 -0.90308824 -0.50288505 -0.5372485  -1.7149411  -0.86656245 -0.17976335
  0.85914094 -2.14187051 -0.29440855 -1.54748314 -0.97591938  0.3820538
  1.87000072  1.90697008  0.11457054 -0.75659051  0.13047852  0.5944631
  1.20693514 -0.90143027] [ 1.02101081 -0.60956857  0.98438054  0.48298071  0.9926736   0.58531501
  0.23855473 -0.7690327   0.12426744  1.03832641 -1.02054243  0.18760874
 -0.15259647  0.58196281  0.4990772   0.7692374   0.17876843 -0.80819763
 -1.05636458 -0.0065498   0.87656852 -0.25191322  0.62929579  0.19420153
 -0.24255364  1.01269231 -0.11426781  0.27910025  0.41802492 -0.47630818
 -0.50604251  0.66238133] [ 0.99461607 -0.93931008  0.34754278 -0.49086774 -0.42545905 -0.7375966
  0.98645344 -0.34998539 -1.29237656 -0.98741779  0.33882723  0.08627104
  0.75436538  0.11499881  0.8021612   0.75603029  0.77177819  0.18269988
 -1.40975302 -0.31218031  0.19253747 -0.49743175  0.0671923   0.26147824
 -0.84558379  0.92032364 -0.77749271  0.3125714  -0.86043177  1.0211264
  1.17773708  1.52774965] [ 0.3470679  -0.15840138 -0.3710593  -0.89936399  0.36054433 -0.06961596
 -0.54425951 -0.142995   -0.92535068 -0.77043372 -0.94505832  0.40033641
  1.03970079 -0.49792328 -0.82987135  0.19404497 -0.21043205 -0.44312366
 -0.17580088  1.1064244   1.07489781  0.93422834  0.09062238  0.26476925
 -0.36034015 -0.52646182 -0.76737359  0.67984237  0.76423306  0.57654213
 -0.55487017  0.70254236] [ 1.12883408 -1.28972239 -0.60057325  0.24910899  0.66629262 -0.52563018
 -0.14188743  0.19451029 -1.75018    -1.42000156  0.73919272 -0.29604912
 -0.25445903  0.37020168  0.67856357  1.08729642 -0.44288555 -0.71802248
 -0.49843427  1.82938598 -0.28078265  0.65843434  0.69976624  0.85159732
  0.33918621 -0.78850684 -1.49715414  1.10390514  0.23850695  0.01492809
  1.03611562  1.56839539] [-0.93107246  0.93161487 -0.53315369  0.08764934 -0.3778426  -0.60204698
  0.8774224   0.87833487 -0.59687957  0.12402492 -0.63705812 -0.84096822
 -0.03193197  0.13999781  0.43553526 -0.86102261  0.02062689  0.33171007
  0.71577261 -0.18248601  0.78150241  0.92329512 -0.7831157   0.4303627
  0.33035846 -0.0382524  -0.1362426  -0.95927143  0.20200918  0.70074042
  0.50855533 -0.41499504] [ 0.22861003 -0.78303922  0.93272148  0.21261829  0.96243082 -0.76524654
 -0.83641629 -0.38607455  0.48534933 -0.69626749  0.69433186  0.50094797
  0.14420297 -0.1744959   0.45995572  0.72991319 -0.30241521 -0.25895848
 -0.23107052 -0.76762222  0.19216492  0.43466705 -0.38719296 -0.08807174
 -0.2169055   0.32077815 -0.02412805 -0.81034835 -0.92887815 -0.74920408
 -0.61831434 -0.23468912] [-0.48840835 -0.30219205  1.00917679  0.29003943 -0.14341817  0.07797912
  0.18472213 -1.08570113  0.22255937  0.98986158  0.81548539 -1.05660117
  0.83852775 -0.43635077 -0.13081738  1.05434977  0.27833151 -0.75967229
 -0.4928229  -0.80122949 -0.83688045 -0.34869785 -1.23805122 -0.77472898
  0.11996859  1.0983659   0.21169843 -0.12273158 -0.60991996 -0.55594751
  0.87964774 -0.03438269] [ 0.0805194  -0.84021708  0.35337337  0.78550812 -0.47752386 -0.58914369
  0.05315164 -0.1994418   0.29576688  0.44249976  0.60763207 -0.98424697
 -0.33715574  0.36799607 -0.24105041 -0.95111136 -0.52287504  0.13488245
 -0.71910551  0.48185402 -0.7149009  -0.08181911 -0.61694832  0.66234983
 -1.08803949  0.01923175  0.3333267   0.03303696  0.70102881  0.93640085
  0.13513928  0.56752928] [ 0.32745865  0.36714855 -0.20615881  0.20393968 -0.80966908 -0.87284477
  0.36669675 -1.02711423 -0.10001896  0.6832091  -0.41305178 -0.54348425
  0.53391632  1.34024747 -0.54915332  0.06808021 -0.76276387 -0.01009957
 -0.1487935   1.00105688 -0.89005037  0.86702351 -0.93636412  0.56995307
  0.09616584 -1.22172866  0.22461066 -0.02542974  0.44482686  0.84393695
  0.02250073  0.39549307] [-0.04166882 -1.55671887  0.30370082  0.89733433  0.23956542  1.24397696
 -0.61395429  0.89920508  1.06195688 -1.21812851 -0.70528734  0.15556672
  0.40798251  0.89811533  0.69715508 -1.42381451  0.74223522  0.09133994
  0.41017373  1.27348442 -0.862104    0.47762243  0.10688994 -1.12371713
 -0.96482775 -0.38910986 -0.64371393  0.68994425 -0.3815707   0.4074995
 -0.30766101 -1.26165723] [-0.55982988  0.54869084  0.33744452 -0.28372272 -0.75283885 -1.26720874
  1.13528923  0.34298291  0.41864925  1.44392387 -0.93841377  0.92237922
  0.49398347 -0.59044897 -0.07670514 -0.28827197 -0.56380115 -0.81220468
 -0.92647263 -0.0744592   0.93936151 -0.45249254  0.25910779 -1.15207745
 -0.79408046  1.00948699  0.77618083  0.89389463 -0.64923679  0.03893356
 -1.07734728  1.01098831] [ 0.74127381 -1.10500702  0.52435908 -0.83970968 -0.74377649 -0.86594875
  0.37522301 -0.11123061  0.3899736  -0.8837449  -0.42954934  0.83074959
 -0.41215551  1.13986251 -0.33714106 -1.05174943  0.15062596  0.45204294
 -0.32712618  1.03725537  0.02925179  0.27750903 -0.26531203 -0.61055981
 -0.92193994  0.01103034  0.23339129 -0.84266889  0.75391117 -0.5041261
 -0.45119868 -0.58617681] [ 0.49262066  0.3214503  -0.1712235   0.26578202  0.96825789  0.22702357
  0.49802435 -0.58200676  0.39139045 -0.70585605  0.24249828 -0.74091975
  0.60356896  0.67451327  0.62568635 -0.72304119  0.90848889 -0.17687813
  0.96561061  0.14550501  0.21274354  0.66137344  0.91279416 -0.695315
  0.01078113  0.68823696  0.5687471   0.90997835 -0.01970005  0.48867487
  0.80876171 -0.2143151 ] [-0.17221391  0.81214943 -0.84339343 -0.8785783  -0.69399073  0.13071541
 -1.49476895 -1.00569391  1.46287901 -0.18817024 -0.51861943 -0.20643926
  0.21351792  1.00082581  1.03288527  0.96855067  0.75294053 -0.57982487
  1.46334211  0.6649974  -0.17904568 -0.12442467 -1.09469482  1.16492703
  0.80009258  0.0279371   0.98598643 -1.05940675 -0.39073021 -0.37782142
 -1.37929244 -0.33140286] [ 0.9660188   0.2412143   0.74639033  0.02524743  0.27066636 -0.03130935
  0.73186099  1.27650028 -0.06547812 -1.02562785 -0.09322201  0.88577084
  0.22305796 -0.86305381 -0.55219289  0.57667493  0.00848701 -0.92399975
 -0.27744366 -0.4556728   0.63944512 -0.63117004 -1.02508908  0.30955546
 -0.41034065 -0.19843724  0.67669701 -0.06968224 -0.6804801   0.82549642
  0.47293499  0.84703077] [-1.09849851  0.94009161  0.20184863  0.60562527 -0.44848063  0.76968617
  0.23747163 -0.458541   -0.30124851  0.55277625  0.78606441  0.66419344
  0.85211329 -0.82728538  0.65566497  0.99057682  0.25458158 -0.60096607
  0.67903225  1.03400974  0.11936366  0.17008067 -0.09837186  1.14035577
 -0.43228054  0.04733687 -0.78056955 -0.16263968 -0.61831379  0.61979196
 -0.57736273 -0.27157005] [ 0.37550845  0.58716949  0.23168366 -0.28728626 -0.47059417  1.07606249
  0.27038206 -0.17540222 -0.74285819  0.39780492 -0.7248163  -1.06804165
  0.51471712  0.78654691  0.51144297 -0.50736729  0.91116551 -0.24115628
  0.51627459  0.6179477   0.99816589 -0.51435288  0.50940615  0.44291621
  0.70327674 -1.19440969 -0.54331714  0.32326663 -0.93830002  0.60961927
 -0.64794323  0.67715358] [ 0.62664441  1.15103553  0.02388866 -1.44101692 -0.62444113 -0.68022965
  0.16024002 -1.27086824  1.24002643  0.28498236  0.31179138  0.70424244
 -0.36791746 -0.8499937   0.22265912  0.36019817 -0.0213361   0.27939041
  1.25114365 -0.41946008 -0.71409637 -0.54561657  0.32403388  0.70110442
  0.41589726  1.80304892  0.30821049 -0.21326645  0.45759599  0.57010341
 -0.90529487  1.18658963] [-0.38784772  0.61885209  0.64502583 -0.4079353   0.45724158  0.23070489
  0.49646298  0.15409531 -0.44414358 -0.09314552  0.1412824  -0.72425465
  0.85738436 -0.94980964 -0.24950431 -0.018531    0.76535363 -0.25727058
 -0.84822657 -0.36527462 -0.90940961 -0.52205756  1.08110467  0.83894543
 -0.35589765 -0.59455114 -0.57628138 -0.19716029 -0.32433946 -0.4913226
  0.26527699  0.60631461] [ 0.54610419  0.9888946   0.9108883   0.62550189 -0.96603872  0.7354476
  0.38862628 -1.25798045 -1.0147803   1.25881655  0.90026949 -0.08790548
  0.49766147 -0.3326863  -1.0446637  -0.36722899  0.24649306 -0.7923239
  0.14715969 -0.23308103  0.4236219   0.72753982  0.09926168 -1.36480077
  0.34210032  1.06880329 -0.64590052 -0.64810449 -0.86672399 -0.38442387
  1.40359871 -0.18004345] [ 0.55632125 -0.63999791 -0.80856384 -0.14054971 -0.67245436 -0.84628234
  0.12539648  0.20981658  0.38218035 -0.10938906  0.07058169 -0.41711186
 -0.02407118  0.33867631  0.08843303  0.19078872 -0.60218841  0.35762875
 -0.02541497  0.48316562 -0.07207933  0.41771431  0.93946246  0.0038579
 -0.78506672  0.20007913 -0.44192888  0.81291648  0.39829229  0.12168913
 -0.11511603  0.70773494] [ 0.15457866  0.38823198 -0.66306888  0.31964646 -0.72062995  0.48776398
  0.13667954 -0.75076319  0.14402768  0.576742   -0.82184188 -0.38472612
  0.39532817  0.34398305  0.89301634  0.743358   -0.49741306  0.15905377
  0.06525927 -0.32522778  0.51201538 -0.76150337  0.4010227  -0.99377503
 -0.46715829 -0.00409814 -0.96744624 -0.2600486   0.6928924   0.59961557
  0.17041956 -0.05614221] [ 0.58326586  0.57138408 -0.03352424  0.2832304   0.57643041 -0.53977655
  0.56412615 -1.25022867 -0.71406879  0.51681527 -0.99169441  0.8248356
 -0.45208117 -0.80350454 -0.71270791  1.08606164  0.69429136 -0.16274513
 -0.99750141 -0.8214882  -0.94907139  0.2900319  -0.86987998 -0.04833531
  0.66252082  1.79339102 -0.11223752  0.55961666 -0.39176144 -0.57588147
  0.2349346  -0.43830242] [-0.70058613  1.29104511 -0.41014525 -1.30336712  0.2584233   0.72055491
  1.23649835  0.60954458  0.14339658 -0.93878029  0.62683261  0.05904692
  0.54058289 -0.65755471  0.34934848  0.90117574 -0.00514225 -0.03608015
  0.89352571  1.04210032  0.3173683   1.02855348  0.67031752 -0.01677685
 -0.61484069 -1.12479965 -0.17845766 -0.13414617  1.09260272  0.76195211
 -0.83794765 -0.00969829] [-0.58337869 -0.47693074 -0.86996418 -1.0089746  -0.88703045 -0.16368935
  0.63200137  0.33353524  0.8530139  -0.12965683  0.05705889  0.71140883
  0.62594032 -0.36356    -1.47739461  0.22342599  0.19552738 -0.40431722
  1.17093392 -0.72975253 -0.48828371 -0.27934873  0.33820668  0.61934426
 -0.37257627 -0.74371532  0.48109273  0.11232363  0.31478815 -0.97881398
  0.9234327   0.57920877] [ 0.31526781 -0.92848218  0.89669667  0.66243474  0.34742706  0.29706883
 -0.72946131  0.48490831 -0.17928744  0.3164179  -0.0504227   0.93634213
 -0.40600184 -0.4997891   0.54581585 -0.32860607  0.20693871  0.5424512
 -1.02513753  0.30851035 -0.22837282 -0.75925284 -0.61848171 -0.10410628
  0.34746588  0.91569246  0.64235283  0.9922044  -0.08867955 -0.43366382
 -0.97893781 -0.56219549] [ 0.18093182 -0.87319237 -0.4994919   0.15856323  0.60616102  0.58135791
 -0.79790247 -0.20527741 -0.73128643 -0.59878076  0.9160234   0.35703295
  0.9981311  -0.96690295  0.76158753 -0.79747925  0.80332563  0.48988084
  0.63947132 -0.49112948  0.92299477  0.91013768 -0.49392397 -0.21423536
 -0.4464849  -0.86462204 -0.76956558 -0.24944459 -0.59288732 -0.46378116
 -0.26276203  0.34588738] [ 0.53188255 -0.03646646  0.6815909   0.62448271 -0.44027582  0.70552144
  0.48299873 -0.40114416  0.05476239  1.16103156  0.59446819 -0.4540691
 -0.80773723 -0.80413839 -0.70812638 -0.40400564  0.5155183  -0.87947465
 -0.48854934  0.59111417 -0.09905235 -0.23397282 -0.89422545 -0.76631306
  0.89579109 -0.33672909 -0.85485888  0.6001366   0.22521838 -0.30202115
 -0.64456821 -0.84855542] [ 0.16656642 -0.73901586 -0.09230271  1.42598173 -0.77733107 -0.95876653
 -0.6672563   0.30140396 -0.94885724  0.4452161  -0.68178028 -0.99791864
 -0.50815601  0.05292956 -0.06636631  0.56760866  0.94103078  0.09531971
 -0.76599617 -0.85146699 -0.36626632  0.41956795 -1.5914566   0.2950491
 -0.19536181  0.2628237   0.46303328  0.21047436  0.10039012 -0.99147768
 -0.46542338  0.64422813] [ 0.44816453  0.54265517 -0.04653676 -0.82813608  0.12936784  0.65323661
 -0.50062405 -0.88953471  0.09179435  0.36470964 -0.46800901 -0.28549581
  0.0271317   0.1062106   0.38105733  0.06810908 -0.7744254  -0.70575323
  0.50137999  0.0864073  -0.60130119 -0.3643271  -0.94871107 -0.00463263
  0.32127904  1.46816296  0.49521434  0.38613081  0.28396711  0.39783303
 -0.9223102  -0.44035642] [ 0.11514627  0.86913086 -0.18701838  0.88140199 -0.21450886  1.37213265
  1.50509621  1.17005758 -0.68147441 -0.49918774 -0.29303952  0.05078997
  0.39353781 -1.1304127  -1.0315439  -0.85157128  0.38583472 -0.53714748
 -0.89103667  0.13648806 -0.34023256  0.48396748 -0.54615906 -1.00967267
 -1.17134918  0.26250653 -1.43281317 -0.55682195 -0.55370593  0.50722908
  0.64324042 -1.48461817] [ 0.34905016  0.78910392  1.0152807   0.59810506  0.43985603 -0.14043244
  1.3154784   0.65999413 -0.98054382 -1.48238822  0.32951788 -0.82829271
  0.54172503  0.53406059 -0.98954256 -0.43262719 -0.51593949 -0.49173046
  0.77206573 -0.08156702 -0.56820633  0.70605045  0.69232494  0.37047501
  0.20884135 -0.57092408  0.31792621  0.11481422  0.84687249 -0.79248423
  0.39960084 -0.01311213] [-0.69471069 -0.66118955  0.71207726  1.04321679  0.68482321 -1.06890984
 -0.02721148 -0.32453301  0.87365455  0.96593119  0.61793639 -0.72433
 -0.03692349  0.90630988 -0.59500263 -0.79143223  0.61878548  1.50180212
  0.02315445 -0.69920334  0.75495897 -1.3437673   1.1573687  -0.60536836
 -0.78577119 -1.55593975  0.60185373  0.23010949 -0.64855429  0.55866594
  0.17438385 -0.6316732 ] [ 0.28089667  0.67326584 -0.36459473  0.85946588  0.7790028  -0.5079568
 -0.28308069  0.19110031 -0.71079798  0.4069222   0.19239123 -0.18715413
  0.83012043 -0.38133399  0.9550923   0.51918829  0.09244422  0.75663928
  0.33355701 -0.08556448  1.04703085  0.77269097  0.68822109  0.1107427
  0.47849513 -0.50799516  0.82569518  0.20801336  0.87471241  0.77792124
  0.41848966 -0.70006151] [ 1.05159534 -0.20051889 -0.50794415  0.11611713 -0.12690582  0.94845975
 -0.77814109  0.03014142  0.5308997  -0.48459872 -0.08786908 -0.55787647
 -0.71836758  0.56030214 -0.87180228 -0.32883839  0.17294822 -1.09370944
 -0.534492   -0.75950755 -0.40395925 -0.75242659 -0.48770843  0.287766
 -0.64210868 -0.57302325 -0.75912604 -0.35503263  0.21907005  0.62210783
  0.65282446 -0.4531979 ] [ 0.8616946  -1.14905492 -0.29414414 -0.7725881   0.22373588 -0.25545238
 -0.23464288  1.40934133  0.81452335  0.34782067 -0.41151782  0.50142053
  0.39165277 -0.9979555   1.21665766 -0.41096118  0.22479396 -0.91069512
  0.25672765  0.15920684 -0.03484203 -1.29961411  0.79605515 -0.14348569
 -0.55757298  0.49061796  0.28832278  0.9338597   0.66712021 -0.92021541
  0.08363449 -0.02422679] [-0.57431129 -0.72489165 -0.97586715  0.04706429 -0.52308578 -0.5235908
 -0.67191161 -0.14723897  0.10915273  0.88234591  0.63519281 -0.24429389
  0.67795829 -0.87257103  0.38006493  0.86852874  0.39362523  0.69637353
  0.64016003  0.11805121  0.59608015  0.41269974 -0.2475486  -0.48680882
 -0.75731293 -0.56676744  0.85638355 -0.55337432 -0.85839538  0.6918515
  0.6159476   0.20602118] [-0.25888988  0.57661769 -0.37484795  1.06156733 -0.38454444  0.51458007
 -0.74887223 -1.69941953  1.04586945  0.7241481   0.05347329 -1.47913198
 -0.3098104   1.83250301 -0.52843502  0.58664676  0.30448316  0.38889767
  0.79099126 -0.26490565  0.44835319  1.52638455  0.03989585 -0.84907319
  1.04359445 -0.48781779  0.58346159 -0.53473673 -0.42976678  0.01973543
 -0.13979171 -1.00693214] [ 0.70593445 -0.06174693  0.59349585 -0.47716346  0.22940524 -0.7572485
  0.67588847  0.13629119  0.34065362 -0.79100458 -0.32841655  1.48126553
  0.0996618  -1.08644602  0.46196205  0.47312051  0.41084919  0.23635397
  0.03373686  0.44979259 -0.72249371 -0.71578692 -1.16605805  0.79616872
  0.45083628  1.20742147 -0.21330727  0.47135242 -0.01916915  0.37007365
  0.43024192  0.51331172] [-0.40019304  0.10437679 -0.3820554   0.80103567  1.25137372 -0.50164477
  0.40817579  1.11282436  1.17390696 -0.71612527 -0.49931227  1.78199073
  0.16106951 -1.06480138 -1.48784202 -0.71688531  0.74358471  0.74517564
  1.65060323 -1.25321693 -0.29169279 -1.85033733  0.82438847  1.40239068
  1.21840751  0.16522146  1.37570376 -0.08572927  0.06423346  0.87546869
  1.26441185  1.23516781] 
