[ 0.05099809 -0.05559985  0.83197852  0.66766548 -0.4307754  -0.62340242
  0.51674557 -0.36761882  0.62032874  0.41790783 -0.43627573  0.15262972
  0.74071142  0.41441791 -0.92152059 -0.03689859 -0.62139306 -0.51673526
  0.72317704  0.18763949  0.08624811  0.79043291  0.56092681 -0.9494869
 -0.19146819  0.98987655 -1.3965635  -0.27259285 -0.71949499  0.98959369
  0.23277499 -0.95615337  0.51499383 -0.50412527 -0.50447892  0.57715676
 -0.35764452 -0.7886446  -0.64721022  0.13467265  0.6852938   0.89206606
 -0.26716127  0.75212416 -0.38155613 -0.14241107 -0.35127319 -1.36342346
 -0.70070932  0.85156907  0.70076729 -0.55024635 -0.42969775  0.9807223
  0.42275413 -0.55442894 -0.88225018  0.88700119 -0.98027337 -0.52371847
  0.97180881 -0.07913306 -0.10632573 -1.02303223] [-0.87677264  0.52087939 -0.00125998  0.37369775  0.45339149 -0.71208929
 -0.62230341  0.65862377 -0.4613568   0.72625634 -0.80532337 -0.42067806
 -0.65713155 -0.89751037 -0.44643124  0.8968877  -0.08515492  0.55911075
  0.62953069 -0.95773833 -0.35735601 -0.44534183  0.93930155  0.83593039
  0.6933954  -0.90416569  0.33399927  0.15812178 -0.50439747 -0.30128884
  0.84892766 -0.19833784  0.44868701 -0.39991271  0.3426407  -0.18548395
  1.00978665 -0.96851987  0.00582944 -0.97011766  0.52539369  0.67834955
 -0.54385438  0.31924258  0.10667945  0.04174094  0.68473431 -0.97879815
  0.4606683  -0.1728704   0.50105634  0.35101472  0.88128025  0.02556324
  0.88372895 -0.54969366  0.5325324   0.8465009  -0.21233951 -0.01711387
 -0.23037741 -0.79128873  0.34248829 -0.22032337] [-0.88459209  0.14825108 -0.20419284  0.83140203  0.38853463 -0.71812661
 -0.01266603 -0.1216699  -0.16310401  0.16984129  0.46730832  0.85438771
 -0.36351793  0.7770748  -0.52076637 -0.51811285  0.63387158  0.81444581
 -0.48021251  0.72289424 -0.65094526  0.62650098 -0.24181073  0.02160029
 -0.32334036 -0.1034955   0.97607946  0.98356613  0.31899575 -0.80744248
  0.80144211  1.13276018 -0.65866751  0.67529836  0.59254889 -0.62335327
  1.07407    -0.09600796 -0.56142542 -0.30606264  0.26622557 -0.73794094
 -0.12877447  0.76724737  0.57544873  0.46529754  0.41879788  0.75563651
 -0.53657478 -0.30792989 -0.68053777 -1.16257853  0.86799093  0.31888354
  0.70683591  0.74003194 -0.16174337 -0.92079194  0.95027566  0.46828169
 -0.39490619 -0.89272953  0.91159412  0.75805943] [-0.24647515  0.41628416 -0.30990966  0.37827417 -0.15521926  0.27828868
 -0.13544285 -0.02277768 -0.82528017 -0.59972409 -0.36552125 -0.30106864
  0.48871757  0.48119783 -0.29231015  0.22815967  1.02076977  0.64268673
 -0.24071457 -0.232213    0.06125013  0.34867106 -0.04529051 -0.80804401
 -0.8062002  -0.91530909  0.53894185  1.15333829 -1.10104167 -0.94860537
 -0.06592422 -0.75097649 -0.35846902  1.03131822  0.84276216  0.46762507
  0.41068036 -0.2994241   0.803906    0.85786957 -0.54053313 -0.43331564
 -0.32086115 -0.91851273  0.28798274 -0.93326089 -0.50253178  0.75395886
 -0.57901997  0.26705227 -0.96998755  0.59749705  0.48136363  0.67829997
  0.78675448  0.77900137  0.96776983 -0.84589579 -0.71223015 -0.04064194
 -0.60561969  0.14663923  0.03530363 -0.0044714 ] [-0.5994978   0.04546361 -0.15084611 -0.77308487  0.50766654 -0.50576879
 -0.69303641  0.72424441 -0.18438704 -0.46750586  0.73688477  0.64306161
  0.35422781  0.15136625 -0.47230991 -0.32519198 -0.29544638 -0.17514292
 -0.13441881 -0.12822926  0.61411181  1.2081036  -0.53647372 -0.30254219
 -0.42682975  0.12106785  0.09382778 -0.33622405 -1.07663377  0.14161499
 -0.67304313 -0.14225678 -0.21533682  0.75667913 -0.32489112  0.59535209
  0.14434095 -1.05983202 -0.60946119 -0.49848227 -0.11113138 -0.11962538
 -0.73443996 -1.2043517  -0.06661412  0.42957415 -0.28542511  0.63579037
  0.06201675 -0.72473404  0.54561322  0.30827459  0.42466797 -0.04810318
 -0.53437356 -0.594765    0.09737642  0.8782033  -0.05904738  0.35675775
  0.89859971 -0.74652536 -0.37116546 -0.79180107] [-0.79594973  0.70873839  0.27374307  0.65118346  0.68428693 -0.92325211
 -0.18223195 -0.3232886  -0.23642122  0.18377094 -0.17340045  0.744999
 -0.20468564 -0.07734015 -0.71463138 -0.8742673   0.76985041  0.40429893
  0.37091026 -0.17421696 -0.01058111  0.19329091  0.93699229 -0.41067138
  0.13561292 -0.22343817  0.68093625  0.90782138  0.3512858   0.36122968
 -0.46836855 -0.05588737 -0.04672932  0.72604964  0.94402971 -0.29438037
  0.64583185  0.59789586 -0.34364878 -0.06344299  0.21204971  0.00748653
 -0.78568031  0.06025078 -0.30766784  0.61580212 -0.7449451   0.69559192
  0.47516602 -0.56617864  0.3892541  -0.3464672   0.07543487 -0.86227562
 -0.63444928 -0.62346727 -0.86609785 -0.40861556  0.53433852  0.59678403
  0.66188721  0.67164653  0.52896368  0.39684718] [-0.78050607  0.96975481 -0.61602682 -0.59685204  0.80438015  0.10838747
  1.19382249 -0.42478026  0.40850778 -0.47478633  1.48801986 -0.05023967
 -0.8387931   0.25055605 -0.28509023 -0.31426675 -0.23795487  0.25898362
  1.53907535 -0.01032857 -0.86105583 -0.43520253 -0.66065895 -0.6743002
  0.85589028 -1.03260129 -0.45334778  0.01047411 -0.76196565  0.93458761
  1.00289956 -0.39185875 -0.45217726 -0.52368395  0.82461532 -1.37354597
  0.61443861  0.34176526  0.65168304 -0.02394566 -0.65152202 -0.34921746
  0.01440764 -0.25852432  1.33225025 -0.32160527  0.04996052 -0.87665138
  0.20962151  0.28709361 -0.08939536  1.28707681 -0.34504475 -1.04503196
 -0.08635422 -0.36367891  1.20465325  0.61375186 -1.0758517  -0.15486894
 -0.84122296 -0.48112698 -0.61233464 -0.6906962 ] [-0.39072867 -0.88017619 -0.74886769  0.6664088  -0.01661246  0.7968045
  0.36449736  0.82558079 -0.20100353  0.18847392  0.81268456 -0.34618663
 -0.61760918 -0.82623258 -0.1717749   0.69198054 -0.49840622 -0.31858966
 -0.05356457 -0.33742446  1.00754909  0.15892906 -0.30159321 -0.16754186
  0.68841881  0.73858914 -0.06959237  0.19566164 -0.02055793 -0.04201649
 -0.5438414   0.3759073   0.39344908 -0.328215    0.27885486 -0.34603816
 -0.21534259 -0.69126439 -0.83444031 -0.60185692 -0.93368186  0.30883517
  0.74953388 -0.71799666 -0.39816024  0.4180226   0.30024923  0.2517316
 -0.59265319 -0.88315725  0.2004394   0.69990051  0.65185542 -0.74179667
  0.65188478 -0.51846824 -0.89286285  0.64779331  0.22735181 -0.72648364
  0.97802656 -0.91365377  0.14632922 -0.71934051] [ 0.20657978  0.55486513  0.2324932  -0.71794794 -0.44113187  0.62682861
 -0.34426279  0.81500039 -0.76032919 -0.85752633 -0.23721796 -0.17250031
  0.90863299  0.63022919  0.06508051 -0.24804307 -0.5556412  -0.18696616
  0.63681891 -0.77341494 -0.75266639 -0.18058343  0.61304192  0.12428009
 -0.65225885 -0.66353806 -0.59094449 -0.13285791  0.46766385 -0.13071837
  0.7580405  -0.66761727  0.19362314 -0.88718738 -0.75853094 -0.77082295
 -0.10498637 -0.52542616 -0.38304085 -0.41264165 -0.09457474 -1.00002645
  0.07436275 -1.11426099  0.40408165  0.84401402  0.18474435 -0.43212318
  0.32042103  1.05809018  0.69946918 -0.00694264 -0.27634044 -0.38680471
  0.73560123  0.12546241  0.03770028  0.27794296 -0.03592311 -0.95065673
 -0.67635437 -0.06017343  0.38836117 -0.30858217] [-0.13113178  0.28223995  0.65361716 -0.45527972 -0.70708539  0.47188332
 -0.95677373  0.76072495 -0.27937437  0.99262533 -0.24765323 -0.48450384
  0.27519753 -0.28134124 -0.22393571 -0.65790142  0.17035448 -0.33964318
 -0.87472748 -0.32653306  0.5713689   0.84586084 -0.24084126  0.33888666
  0.12059175  0.88066712  1.00914269  0.73833446  0.67576591 -0.5801062
 -0.42327891 -0.59595525  0.45260279  0.17428204 -0.41961697 -0.27677987
 -0.79754761  0.09199413 -0.35495822  0.57246435 -0.7462242  -0.76337737
  0.42864006  0.34487576  0.87235382 -0.84596951  0.14774864 -0.0290626
 -0.50124322 -0.65532057 -0.82537034  0.15413516  0.62382832 -0.71783898
  0.11247779  0.07279415 -0.49311578 -0.57529865  0.57753133  0.014564
  0.72417135  0.37631907  0.82630985 -0.33315566] [ 1.13336492  0.79810112  0.68068119  0.43925984  0.39663085 -0.70877604
 -0.88670517 -0.86477481 -0.2985178  -0.67131683  0.24064698  0.11771853
  0.98826922 -0.3198991   1.00426204  0.85364103  0.8511616  -0.70904663
  0.33043331 -0.04028467  0.7845066   0.32911411  0.54465764  0.02109643
 -0.82155419  0.95888432  0.32017201  0.27880089 -0.93064311  0.48509562
  0.87831968 -0.28710315  0.70887449 -0.06672033 -0.79448844  0.80682484
 -0.36693338  0.90158289 -0.34604247  0.85380654  0.7353204   0.95401242
 -0.45732669 -0.1731824   0.55542297 -0.46573691  0.81430618 -1.00478883
  0.29609064  0.25878137  0.52920499  0.9811429  -0.41109265  0.35721584
 -0.75215024  0.47986754 -0.99450458 -0.22604472  0.60776422 -1.01038137
 -0.56849846  0.25304712  0.2707237   0.24562277] [-0.24814373  0.44045119  0.90235107  0.39152735 -0.85419631 -0.19971419
 -0.82616495 -1.2929177   1.2004013   0.1725907   0.04520998  0.96100088
  0.20658283  0.70930823  0.38807017  0.15293279  0.19531746 -0.03723504
  0.24380463  0.54860752 -0.19328249 -0.90808775  0.21704844  0.20554669
 -0.19459961 -0.17775226  0.60956871  1.01107221  0.38800599 -0.26197219
 -0.79618315  0.10251073  0.96939694 -0.52103575  0.47792761 -0.68489966
  0.25267899  0.22739549  1.11327937 -0.69205816  0.89629323 -0.77404624
 -0.27616103 -0.53576365  0.20266118  0.28126594 -0.08930375 -1.32449178
  0.7079748  -0.63634498  0.62179137  0.91653416  0.60100117  0.03941101
  0.85752048 -0.01498524  0.63734995  0.93515001 -1.01373021  0.0811099
 -0.00931789  0.15843081 -0.42714526 -0.87880041] [-0.33165255 -0.90530924 -0.48800444 -0.45952178 -0.1405209   0.96887974
  0.56096494 -0.62120223  0.16044864 -0.03268163  0.11512259  0.80379201
 -0.12691951  0.75378935 -0.76066251 -0.30529348  0.2792767   0.69510216
  1.22785428 -0.26294546 -0.76186076 -0.07338877 -0.5485789   0.95505805
  0.31134555 -0.82845361  0.51312127 -0.38750197  0.40022899  0.58892986
  0.37423442 -0.66738313  0.44372637  0.41297614 -0.31804632  0.90095322
 -0.64526082  0.40422476 -0.43296144  0.44649077 -0.3957719  -0.67283151
  0.76606119 -0.99803278  0.91190705 -0.44348385 -0.75751344  0.27093501
  0.63661329  0.45775084  0.66244346  0.10909511 -0.80673066  0.76292444
 -0.83441918  0.84068212  1.07392747 -0.23214187 -0.45364894  0.82735812
  0.26878466  0.86742877  0.96148901  0.56417066] [ 1.1029801   0.5471412  -0.93048245 -0.36719818  0.55646555  0.57809847
  0.00938615 -0.17077538 -0.47090722  0.12636366  0.89518482  0.21788407
  0.31009157 -0.78064926  0.39528787  0.67941878  0.35615478  0.53685782
  0.32254006 -0.01132777  0.5231775   0.87782237  0.6015349  -0.34806764
  0.82792595 -0.21768389 -0.02033474 -0.68374783  0.4286843   0.84461662
  0.59879163  0.52217839 -0.06637313  0.5028492   1.14838101 -1.03987988
 -0.25006293  0.38550001 -0.28314188  1.04043503  0.50144765  0.60580736
 -0.03317432 -0.70028964 -0.2272108   0.37190519  0.20299437 -0.88345851
 -0.14279087 -0.47897754 -0.95016028 -0.07058556  0.50055612 -0.53967644
 -0.07189314 -0.01351852 -0.52284521  0.03330362  0.1890923   0.94037913
  0.51987546 -0.80825203  0.19128187 -0.36011536] [ 0.67724451 -0.97081937  0.82014384 -0.25687642  0.74836272  0.39412003
  0.32254588 -0.45648801 -0.55083228  0.5327976   0.34899712 -0.33979334
 -0.43053456 -0.12352502 -0.56759708 -0.39763678  0.61625868 -0.83447785
 -1.29837314  0.77188877  0.44762887 -0.60961081  0.05108857 -0.45755733
 -0.50065832  0.26647459 -0.35415529 -1.16134053 -0.76284124 -0.57159798
 -0.40759801  0.38184241 -0.78656774  0.7744942   0.50646017  0.4748358
 -0.05181636  0.87836976  0.23904747  0.90262944  0.25865571  0.68032425
 -0.12169897 -0.55939816 -0.95800891  0.1607881  -0.2139513   0.1045839
  1.2459643  -0.26912293  0.38240697 -0.55779562 -0.60212849 -0.08900206
 -0.14831908 -0.01767736 -0.33924753 -0.47834437  0.59619226 -0.72336162
  0.73094194 -0.57395576 -0.3769231   1.02036626] [ 0.92869165 -0.40174498 -0.4510517   0.14809731  0.33271106 -1.03069056
  0.69823148 -0.82024396 -0.16748497 -0.72989286 -0.61184261  0.46509171
 -0.58013479  0.22389118 -0.31383045  0.34024698 -0.8211486   0.72140164
 -0.2204838  -0.87427819 -0.95842055  0.91815741 -0.13307544 -0.10653057
 -0.01190561  0.27857024 -0.83809528 -0.55570824  0.62715212 -0.25449943
  0.23821438  0.76501313 -0.07324471 -0.31365557  0.12403477 -0.6628276
  0.41823552 -0.11890208 -0.48714201 -0.45773328  0.31841727 -0.82090134
  0.38442104  0.34677326 -0.12087901  0.2056034   0.80484191  0.82333512
 -0.62674568 -0.8215626  -0.33194954 -0.56382059 -0.33528286  0.26463829
 -0.54932689  0.84923978 -0.54165984  0.68917839 -0.55190747  0.67015593
 -0.91221145 -0.28903152 -0.93991165  0.9149952 ] [-1.42131960e-01 -5.13897309e-01 -4.11338060e-01  2.89531533e-01
 -6.74481188e-01 -1.52194564e-01  7.36477711e-01  9.67705356e-01
 -5.11939265e-01 -5.31068342e-01 -9.31854454e-01 -5.39981032e-01
 -4.77208950e-01 -1.16189150e-01  1.45283848e-01 -5.95114348e-02
  7.05351565e-01 -2.09766600e-01  6.76255345e-01  4.23188074e-01
 -1.48842063e-01 -7.69879465e-01 -7.95140214e-01 -4.80344516e-01
  7.01437762e-04  9.59008763e-01 -1.59120138e-01 -3.37150131e-01
  9.31336889e-01  5.03008176e-01  1.29340029e+00  8.60352852e-01
  3.25900564e-01 -7.86839937e-01  2.93499031e-01  5.51290333e-01
 -1.56678748e-01  1.30531118e+00  6.33870463e-01  3.14328506e-01
  5.14827017e-01 -9.61611554e-01  2.85233190e-01 -1.21044400e-01
 -6.82347189e-01  1.14979888e+00 -6.25870989e-01 -6.86895474e-01
  8.75599687e-01 -3.52716791e-01 -5.19917532e-01 -8.71355973e-01
  1.47965865e-01  5.12294103e-01  1.10331095e-01 -3.42165889e-01
 -1.04302875e+00 -7.51117413e-01  9.63702138e-01  8.02893641e-01
 -9.61404201e-01 -4.68766249e-01  4.81998733e-01  1.00938114e+00] [-0.03234523 -0.87953173 -0.09157397 -0.94188545 -0.03536195 -0.85251064
 -0.22286847  0.62578257 -0.73050734  0.76011506 -0.09432638  0.02316354
 -0.36830396  0.69945037 -0.87545598 -0.3644329  -0.11042162  0.0417028
  1.13563162  0.12948512  0.79896545 -0.55111895  0.86612189 -0.51440077
 -0.86345122 -1.18422992  0.5575995  -0.35902831 -0.33060189 -0.25412113
  1.21968126  0.88108809  0.52354115 -0.3798266  -0.03008422 -0.0241971
 -0.58877889 -0.28707489 -0.30356735  0.62236573  0.73728412 -0.79257439
  0.55892322 -0.35384364  0.79252076  0.02567739  0.70852842  0.5785557
 -0.41529924  0.75081566 -0.28069142 -0.23335693  0.20120052  0.12590317
 -0.8585745  -0.29212571  0.55793722 -0.61136778 -0.04119531 -0.86173315
 -0.8342533   0.18789996  0.28295438 -0.83456995] [ 0.63208594 -0.72077147  0.83373256  0.51130472 -0.24477305  0.50933497
  0.98889349  0.20545335 -0.70355743  0.00780966 -0.1749182   0.58612141
 -0.04966461 -0.97063953  0.72377494 -0.03131493 -0.40907931  0.07771501
  0.29316727  0.9031137  -1.22014501 -0.23170984  0.46622724  0.14493836
 -0.73141646  1.00471125  0.03693739  0.0576258   0.29205366 -0.23628681
 -0.2124844   0.72879307 -0.49843121  0.4609513  -1.40695464  0.74357585
  0.19379474  0.17270215 -0.76233473 -0.47117751  0.65918833  0.6081949
 -0.80244217  1.2758573   0.71982067 -0.21646702 -0.90899697  0.14644869
  0.06607974 -0.30509122  0.70644915 -0.57797448  0.69317559 -0.35043351
  1.1357319  -0.1071825   0.68131266 -0.01847392  0.14547628 -1.21990366
 -0.49108411 -0.09394114 -0.53146634 -0.21585168] [-1.13972527 -0.41162077 -0.20446317 -1.10565819 -0.4299933   0.33254953
  0.14159122  0.82198176  1.06033322 -0.19017398 -0.33215131  0.04973889
  0.59636364  0.65036733 -0.40514665  0.4348928   0.07344981 -1.02914649
  0.90346697  0.51853332  0.39234384  0.83570405  0.91282988 -0.73856287
 -0.6828791  -0.77965404  0.82022305 -0.29923272  0.80132846 -0.3612796
  0.44410479  0.60466236 -0.39262356  0.45958022  0.8904646   0.3939501
  0.15010841  0.77148527 -0.76855895 -0.60846837 -1.15529373  0.20780462
 -0.53463528  0.30447093  1.34569726 -0.48422909  1.05549387 -0.81997872
 -0.19264742 -0.33965282  0.29006703  0.08314788  0.49151434 -1.02367186
 -0.88287866  0.87275203  0.66021299 -0.16237107  0.71018922  1.01027175
  0.25959171  0.81924166  0.84802454 -0.10328772] [-0.10152014 -0.36401062 -0.78227256 -0.37218159 -0.98100137  0.53763261
  0.41913599 -0.39679898  0.3263045  -0.55922683  0.26412231 -0.82270999
 -0.07936286  0.76350204 -0.54783583  0.84594892  0.38010054  0.3275309
  0.76287487 -0.0236424   0.80873709  0.60188141  0.08119972  0.32937636
 -0.55335081  0.9704331   0.19239094  0.81325715  0.98266207  0.24094073
  0.34956552 -0.68306395  0.83988903 -0.65876265 -0.64058206  0.5743997
  0.77385828  0.53006849 -0.13422392  0.14380978  0.05371679 -0.89201888
  0.24170021  0.09981265  0.2712576  -0.62310141 -0.224378    0.04241465
  0.80501439 -0.1311829   0.24699825  0.15184716 -0.89447947  0.14188967
 -0.05236498 -0.68384704 -0.76023886  0.62748023  0.76647737 -0.34375262
 -0.431576    0.42588499 -0.59388723 -0.49120184] [ 0.71978767 -0.07685025  0.11075021  0.85569013  0.00268903 -0.66861055
 -0.15926584 -1.23027929  1.06889009  0.35841982 -0.56255036  0.16804299
  0.85243104 -0.54240004  0.13475146  0.87690383  0.64619853 -0.4792179
  0.1330912   0.04880898 -0.54391699  0.22482438 -0.44374552 -0.86778378
 -0.34682936 -1.04478904 -0.36699778  0.76872612  0.40378586  0.48802581
  0.67104966 -0.05361369 -0.34817926 -0.92751497 -0.74454794 -0.00871354
  0.21001787  0.41669812 -0.63479447 -0.86529311 -0.21636746 -0.59424641
 -0.80115401 -0.46829473  0.45723784 -0.02994942  1.07945089 -0.26342919
 -0.50071834  0.85094762 -0.26168826  0.93899041 -0.89102743  0.74622495
 -0.86809812 -0.35223962 -0.14203814 -0.65430095  0.40641578 -0.98845336
 -0.36297661  0.58697992 -0.18076618  1.00757989] [ 0.61992791 -0.05205996  1.43106689 -0.67838377  0.76161273 -0.5217168
  0.49601046  1.4072116  -1.14534091 -0.87145474 -0.34477206 -0.11356652
 -0.53485242 -0.88199364 -0.92114032 -0.9917004   0.61286935 -0.38691611
  0.72684171 -1.03769892 -0.91855747  0.12576904 -0.90960964 -0.25685737
 -0.02194699 -0.09086428  0.19544199 -0.57851527 -0.7324801  -0.33300998
 -0.05767613 -0.09105872 -0.86205272  0.62406918 -0.58060805  0.35648554
 -1.29910821  0.43234803  0.45318181 -0.73956279 -1.26053609 -0.16728024
  0.87377836 -0.09997907 -0.8481322  -0.29698612 -0.02927943  0.50036968
 -1.38276794  0.29115858  0.36757746 -1.51273946 -0.3794583   0.67622686
 -0.23027288  1.12892772  0.77134473  0.88104228  1.35731883  1.28024989
 -0.13175528 -0.23740941 -0.9343149   0.04351825] [-0.09575145  0.16005655 -0.57058819 -0.52854817  0.66207291 -0.65004374
  0.17957249  0.97091691 -0.55470241 -0.27550161 -1.1111188  -0.33188846
 -0.52359111 -0.57898254 -0.47809245  0.03703357  0.39186984 -0.5990447
  0.2919225  -0.96988181  0.53978118  0.52925042  0.55035728 -0.80155097
  0.15388008  0.72770813  0.80928246 -0.52568966 -0.1022296   0.82723187
  0.98168593  0.03354039 -0.19457283 -0.94247251  0.11907751 -0.5546822
 -0.98641054  0.15557974 -0.92661289  0.52456356  0.22722163 -0.08774122
 -0.03190155 -0.8783914   0.46609479 -0.70051959 -0.7458775   0.74843086
 -0.83639035 -0.44281486  0.19214813 -0.55486159 -0.01681296 -0.5981095
  0.29426304  0.18307963  1.02053282  0.75982371  0.22635454 -0.58444564
 -0.68497151 -0.68547171  0.97037115 -0.06459246] [-1.54539858e-01 -9.64339391e-01  6.29365503e-01 -4.97562113e-01
  4.65266305e-01  1.13266065e+00  1.39341130e+00  2.18435385e-01
  3.45660511e-01 -4.05392819e-01 -1.12176805e-01  8.35170840e-01
 -9.66791538e-02  2.19258840e-02 -1.18459896e+00  4.20802338e-01
 -3.55050571e-01  2.72611258e-01 -8.45589656e-01 -6.02611589e-01
 -2.39878733e-01 -8.54813738e-03 -4.93424231e-01 -5.15527995e-02
  6.29662986e-04  6.98980142e-01 -1.28398187e-01 -5.39004810e-01
 -7.33009334e-01  4.97469803e-01 -4.26648681e-02  6.26327731e-01
  9.96638818e-01 -3.20945373e-01  3.79426193e-01 -4.44158585e-01
 -8.42261763e-01  1.43239032e-01 -7.17610898e-01  3.36869941e-01
 -2.57189321e-01 -1.01213062e+00  6.77229505e-01  2.03587856e-01
 -4.69427662e-01 -1.25764976e-01 -7.47922270e-01 -5.43663361e-01
  3.31984603e-01  1.98040860e-02 -1.62233008e-01 -5.40790656e-01
 -1.63049800e-01 -8.22011502e-01 -6.31774616e-01  9.26159703e-01
 -2.35995731e-01  5.33056616e-01  1.13461729e+00  1.01381825e+00
 -4.10766128e-01  9.78340886e-01  8.04118193e-01  6.89703615e-01] [-0.70921553 -0.63063418 -0.98243436 -0.43389536 -0.9232062  -0.49199882
 -0.34770746  0.69354314  0.05092021 -0.86071479  0.85784268 -0.43183813
  0.07647511  0.53435918 -0.82498688 -0.57725529  0.86511466 -0.32987321
  0.0484741   1.19588629  0.17286213  0.96072996 -0.74221873 -0.67399644
 -0.60462869 -1.11287657  0.01405935  0.76715793 -0.39857276  0.34901781
 -0.04095944 -0.32257686 -0.04254136 -0.60455382 -0.88344043 -0.91467725
 -0.42753284 -0.07279936 -0.09366752  0.22876645  0.69240266  0.34515563
  0.49948089  0.53348039  0.88801794 -0.75654085 -0.02187974  0.39662511
 -1.1604678  -0.42121219  0.17295513  0.72996619 -0.42508141  0.42103044
  0.50550479  0.27974825 -0.60800261 -0.62734553  0.5013054   0.42017832
 -0.34661623 -0.48069582 -0.48792997  0.7706016 ] [-4.35725986e-01 -2.48340896e-01  4.39176967e-01 -1.56695166e-01
 -1.40866678e-01  6.86725748e-01 -8.85816643e-01 -2.67484675e-01
  3.84493101e-01  6.42346579e-02 -3.55598352e-01 -7.45716582e-01
  3.29579409e-01  6.27513400e-01  2.72953471e-01 -3.25741251e-02
  8.95669306e-01 -9.74457497e-01  2.88655183e-01 -1.32888666e-01
 -5.15759401e-01  2.90386726e-01  7.01038187e-01 -2.88937860e-01
  2.85068434e-01  1.96214574e-01 -8.94177207e-01  4.70036101e-01
  1.01159228e+00  5.80521054e-03  1.12488866e-01  1.00169532e+00
 -8.49770386e-01 -1.97159215e-01  4.99362211e-01  7.82172170e-01
  4.49646968e-04  2.05354455e-01 -4.08559929e-01 -8.63627158e-01
 -1.47630425e-01 -2.36285276e-01 -8.59876320e-01 -7.53555616e-01
 -3.59683478e-01 -4.04351066e-01  4.94997818e-01 -7.93503917e-01
 -9.58214636e-01 -9.61837872e-02 -7.67568493e-01  6.70926766e-01
  5.98301795e-01  6.79520871e-01 -2.62160649e-01 -7.18139972e-03
 -5.96846937e-01 -7.61213774e-02  7.66115391e-02 -6.54767579e-02
 -3.49851671e-02 -7.63151520e-01  3.36848798e-01  9.35931321e-01] [-0.55772116  0.96355125 -0.25035006 -0.16503017 -0.10255907  0.92828474
  0.15930795 -0.78163399  0.83360664 -0.3634198   0.18095068 -0.80779811
  0.11511818  1.23672854  0.38291867 -0.70516293  0.4939794   0.89237925
  0.69398642  0.39562825  0.12540988 -0.26956752 -0.82726443 -0.17785393
 -0.21008317 -0.07406545 -0.32236232  0.20353912 -0.96376667  0.52946362
 -0.04407663  0.1048277  -0.95010805  0.0275446   0.25997495 -1.04240398
  0.11538537 -0.51998221  0.53476419 -0.58853871 -0.33562652 -0.22252911
 -0.33914266 -1.24908462  1.21277912 -0.76968872 -0.61623003 -1.09319495
 -0.00725547 -0.03816305  0.69795392  0.98159444  0.25395841  0.84347554
  0.97149503  0.50290119 -0.0147508   0.45871881 -1.13587933 -0.52091417
  0.58601499  0.57599256 -0.07904528  0.87174884] [ 0.60819199 -0.62939273  0.57603299  0.39715082 -0.40061842 -0.66409963
 -0.13500687  0.12681022 -0.52100091 -0.28751047  0.87583975 -0.3642624
  0.72975575 -0.65919652  1.10896452  0.34370381  0.24076369 -0.40298292
 -0.44707015 -0.2620293  -0.63742562 -0.68133493  0.78585725  0.36969773
 -0.41784561  0.78389963  0.39631681  0.70665927 -0.34325252  0.27734307
 -1.20609028 -0.32981097 -0.93046763 -0.65743084  0.51266748 -0.77833921
  0.72505779  0.12277732  0.73399097  0.4438897   0.17532994  0.13128983
  0.11786747  0.23678173 -0.0107693  -0.73831521  0.62061512  0.2177153
  0.2076448  -0.07863358 -0.05319237  0.24525968 -0.47464687  0.10032783
 -0.05703388  0.70869024  0.75550597 -0.02431357 -0.92986473  0.89517146
  0.31429196 -0.22599172 -0.12342457  0.69546629] [ 0.51575452  0.23239204 -0.42000143 -0.20373155 -0.20543846 -0.72672731
 -0.20043331 -1.52645559  0.24020294  0.80937111  1.30154013 -0.6401073
 -0.54013763 -0.37985399 -0.92373816 -0.88254771 -1.02363967  0.74176323
  0.10949524  0.86711522 -0.43560459 -0.08914262  0.03404003 -1.02511197
  0.48370921 -0.37605572  0.05635373 -0.86466092 -0.55331053  0.14187241
 -0.29211523  0.60091116  0.65716498  0.22282448  0.43289117  0.07355907
 -0.87372901  0.49529309 -0.67046363  0.90429536  0.55229437  0.18944004
 -0.15033147  0.82473602  0.34314164 -0.65832563 -0.89057724 -0.35631979
  0.5916848   0.24077086  0.37636184  0.30027814 -0.37427355 -0.53857671
 -0.07379194 -0.8031252   0.5446678  -0.12135821  0.39609954 -0.3744761
  0.50189233  0.58365368  0.65198807 -0.55801499] [-0.01386164 -0.27023864  0.86418198  0.15030416 -0.50337861  0.72164261
  0.87503929  0.71948608  0.14947517 -0.84477271  0.1906667   0.43145103
 -0.44357165  0.44415175  0.48285421  0.7683167   0.31771992 -1.12875858
  0.04156771 -0.6761443  -0.11323405 -0.71298634 -0.78136049  0.10442531
  0.86440673 -0.48877819 -0.7746592  -0.8467257   0.50300131  0.66782747
  0.93034735  0.44819509 -1.12986328  0.31729122  0.58459109 -0.20271614
 -0.45751903  0.64895853 -0.49789116 -0.83241386 -0.72389437 -1.1827225
  0.47180651  0.4632021   0.73164038  0.23509276  0.24592987  0.35396554
  0.18914246  0.82487419  0.60080226 -0.71977855 -0.1720168   0.62360783
  0.49911325 -0.29415216  0.36928079 -0.20816032  0.42341286  0.56203251
  0.98498448 -0.76176493 -1.00753138  0.61086901] [ 0.23795771  0.27692617  0.07903836  0.62185449 -0.94593519  0.62307759
 -0.71157218  0.54266925  0.37659452 -0.90159988 -0.47799356  0.25581233
  0.95925008  0.49747466  0.29067979 -0.85046214  0.64459488 -0.4404045
  1.0286724  -0.14766366  0.43120546 -0.33572891  0.17873388 -0.59528154
  0.77735153 -0.17723318 -0.74533939 -0.70281619  0.79344551  0.72681268
  0.86929386  0.61854368 -0.39334706 -0.92842527  0.96584923 -0.11452885
 -0.45215146  0.69722018 -0.13457682 -0.81339491  0.28954912 -0.06725825
 -0.34130016 -0.95438911 -0.355631    0.98659339  0.68965572  0.38295769
 -0.61406055 -0.81681637 -0.53968866 -0.08171355 -0.09159919  0.92159597
 -0.54806233 -0.2287498  -0.34750052 -0.70958496 -0.24607088  0.7216567
 -0.69782822 -0.15088029  0.57352646  0.91609694] [ 0.40849307  0.77408078 -0.34945061  0.11217327 -0.45641671  0.96525202
 -0.76590717  0.23153853  0.49784884  0.84587668  0.41227371 -0.71464802
 -0.43405981  0.72874555  0.19639717  1.00882007  0.66573819 -0.40485609
  0.54804229 -0.19984382 -1.15421737 -0.88348713 -1.07480928  0.08927766
  0.69192615 -0.4764648  -0.2148145  -0.39481604  0.92012943  0.15356044
 -0.40754447  0.04743155  0.47223202  0.03770338 -0.37711739 -0.20203583
  0.02238254 -0.93309264  0.73056315 -0.22784149 -0.43503959 -0.08793392
 -0.64556258  0.85286158  0.74850731 -1.02468318 -0.77158037  0.70970445
 -0.59626325  1.02032992  0.79061838  0.54345216 -0.27922442  0.70747154
  0.22044084 -0.01575963 -0.57513238  0.75107194  0.65871544  0.37522554
  0.22858806 -0.54332261  1.01165301  0.73262443] [-0.78880022  0.8338213   0.63396666 -0.28005857 -0.88520989 -0.53092117
 -0.35091966 -0.60385201 -0.88504446 -0.28512062  0.84323469  0.66539157
  0.91597638 -0.66760696  0.15002112 -0.7414519   0.31638939  0.3561538
  0.51226544  0.00903034  0.53421185  0.07234745 -0.51288573  0.38892078
 -0.04604905  0.88958256 -0.22495703  0.21784978  0.79942974  0.4538265
  0.99610639 -0.60915299  0.03310072 -0.17097847  1.19673347 -0.74634705
 -0.36571525 -0.1677104  -0.37943907 -0.30454247 -0.18816248  0.04850351
 -0.48260233 -0.99124516  0.58256195  0.05534946 -0.48517327  0.79202199
  0.77583798  0.14576621 -0.21614047  0.70517084 -0.06990882 -0.14730907
 -0.15630567  0.85516485 -0.78573616  0.97222789 -0.46552578 -0.25068381
  0.34228672 -0.89472978 -0.44330963 -0.04111358] [-0.46466717  0.83069684 -0.76618381  0.46083322  0.90860901  0.74288958
  0.3273357   0.07350308 -0.10651081 -0.85196778  1.02685473  0.72306897
 -0.61980045 -0.47960413 -0.57868207  0.96057444 -0.38577058  0.55923478
  0.85712838 -0.2298762   0.19732785  0.24924284  0.26709839  0.61543263
 -0.73153859 -0.36403852 -0.55294205  0.06489426 -0.15067933 -0.15702994
 -0.69486733 -0.14711009 -0.24454047 -0.56960733 -0.77730618  0.17428529
  1.14246824  0.25703456  0.89321128 -0.96915389 -0.78820342  1.37004186
 -0.01105355 -0.26710386 -0.23166732 -0.96300803  0.21101847  0.85786094
 -0.84078857  0.8232729  -0.11383205 -1.06527818 -0.12767719  0.20747245
 -0.60246816  0.60596576 -0.6786319  -0.18031231 -0.19047191 -0.33214524
 -0.47142436  0.95690163  0.44140585 -0.61853799] [-0.35711977 -0.95884118 -0.19855003 -0.94936327  0.44404354 -0.17354712
  0.18419833 -0.99524266 -0.75178815 -0.82844732 -1.04675974 -0.5033056
  0.14046452  0.79769134 -0.56231719  0.07522504  0.40036778  0.41801262
  0.77547246  1.07372903 -0.43907429 -1.20230872 -0.29285323  0.45292473
 -0.33275955 -0.30346889  0.21081319  0.6944355   0.77033567  0.47481481
 -0.77414623 -0.52856086 -1.01481447 -0.90194531  0.07161725  0.99312345
  0.52710253 -0.63345518  0.48954106 -0.9773033   0.06706786 -0.01858177
 -0.29587956  0.37622169 -0.8035939  -0.48140641 -0.15917482 -0.29715264
 -0.21855836  0.15215689  0.42406207 -0.05598541 -0.35033461  0.56001278
 -0.44707659  0.97153453  0.37274607  0.70893975 -0.47553379  0.33935207
 -0.50485633  0.28728413  0.78220904 -0.49593321] [-0.84164017  0.02367753 -0.10617302  0.16938446 -0.22400379  0.29306578
 -0.24144656  0.6867137   0.7562812  -0.55022985  0.24355381  0.91377686
  0.31553422  0.67639512  0.04556236  0.49649052 -0.74052795 -0.965085
  0.72264948 -0.35348579 -0.25050849 -0.3457959   0.13905871 -1.00249783
 -0.20585438  0.82709015  0.27892875  0.35404277  0.99983767  0.47934758
  0.85404367 -0.91177141  0.2714108   0.00198893 -0.2637204   0.16959021
 -0.88819791 -1.03370589  0.2308351  -0.40896849  0.20802767 -0.80200572
  0.03905315  0.46246689 -0.54933894  0.88631033  0.20633922 -0.23352727
 -0.22275998 -0.84687902 -0.56373295  0.1318292  -0.52042498 -0.35004297
  0.65352122  0.6290426  -0.68069137 -0.20731288 -0.00933238 -0.48505015
  0.40685772 -0.1750816   0.75946108  0.23299234] [ 0.44741421 -1.05614462  0.3599944  -0.1029778  -0.87699901  0.72970945
  0.27014958  0.44070654  0.98919377 -0.2425928   0.57488748 -0.76696055
  0.09645675 -0.40782201 -0.02673929 -1.04611234  0.66846672  0.19161431
 -0.23994251  0.91776866  0.68961011 -0.43725271 -0.02827616 -0.4334445
  0.59303094 -0.2713245  -0.30578814 -0.58331033  0.29538877 -0.43790154
 -0.53050353 -0.87579043  0.05295485 -0.74905336 -0.64113263  0.70591296
  0.3193192  -0.02334818 -0.45604049  0.40295163 -0.28600723  0.91361167
  0.75944197  0.56349976  0.87441549  0.05930667  0.66506295  0.97508913
 -0.54972189 -0.55307339 -0.22572784 -0.18806127  1.2023096   0.74497551
  0.08374596 -0.39267357 -0.84191563  0.41924011  0.96954518  0.51088064
 -0.86050571  0.02114381 -0.97050013  0.88772234] [ 0.26276352  0.30020715  0.17793011 -1.09786952 -0.84374772 -0.33848465
  0.87706344 -1.32842057 -0.11432713  0.13212178 -0.63913477 -0.4037228
  0.21687215  0.9951705  -0.49714047  0.38132419 -0.93415301 -1.01677841
  0.29968906  0.52738691  0.50717076 -1.00120617 -0.10654974  0.25209358
 -0.24586861 -0.42182807 -0.73699072  0.66607412  0.16940965  0.50186878
  0.75448703  0.62309811 -0.29699231 -0.43253177  0.33472132 -0.08702424
 -0.03058788  0.05701672 -0.76430282  0.80821429  0.25862089 -0.09362841
  0.07897865 -0.12991786  0.19303769  0.85140382  1.03317814  0.48242101
 -0.50187034 -0.76657116 -0.64161645  1.1125425   0.22840619  0.32729005
 -0.46492109 -0.3135293   0.10405896  0.03086524  0.28984533  0.53489424
  0.43649246  0.59049567  0.15074851 -0.10650774] [-0.82720993 -0.8403295  -0.34510941 -0.93799094 -0.49742695  0.82087991
 -0.38286713  0.58383552  0.8014805   0.76514616  0.158132   -0.71670156
 -0.04096256 -0.18211312 -0.46275737  0.97400636 -0.93590084 -0.19732891
 -0.15543279  0.59092472  0.51293812 -0.32272813 -0.13587449  0.53605394
 -0.18777229 -0.81248715  0.62563666 -0.77054225 -0.93819642  0.77366813
 -0.37171337  1.03152644 -0.20327957  0.09761349  0.95766662  0.91180239
 -0.63709382  0.2457916  -0.24661996  0.09098242 -0.19111483  0.43603885
  0.08037821  0.81963389 -0.49977965  0.20926556  0.60053915  0.4661681
  0.40556415 -0.60359204 -0.68288894 -0.66907952 -0.56185045 -0.03765821
  0.76584528  0.63862667  0.57538188  0.49858321 -0.41989683  0.94173588
  0.6633608   0.29264321  0.89397979 -0.79954086] [ 0.96901541  0.70641518 -0.18759864 -0.93242976  0.36037521 -1.05555222
  0.83888972 -0.67550269 -0.6486183  -0.1753827  -0.70455388 -0.99605304
  0.4291449  -0.4942273  -0.8121458  -0.63470934  0.81455092  0.53636334
 -0.39731895  0.85732728 -0.10548074 -0.00568531  0.8606655   0.21040433
 -0.9411944   0.15760247  0.03577616  0.27864409  0.41046001 -0.42995728
 -1.13402209 -0.39249604  0.6009091   0.54172511  0.06669002  0.9823741
 -0.58725339  0.41760133  0.24345563 -0.59941044  0.20557049 -0.46849785
 -0.46952762  0.99552706 -0.08337588 -0.8454983  -0.08235917  0.40770883
 -0.70833514  0.96531148 -0.32061968 -0.47266405 -0.51130887  0.60841688
 -0.41225018  0.79921335  0.84113177  0.35393864 -0.97715358  0.31416377
  1.01022284  0.54236548  0.15606278 -0.58968697] [ 0.46432098  0.06902617  1.10868663  0.45492195  0.58068917  0.15202164
  0.0500915  -0.6752799  -0.4818711  -0.52042667  0.40812681  0.09826149
  0.01868594  0.91245185 -0.21183563 -0.21697448 -1.08329362 -0.83123166
  0.82258277 -0.5186191  -0.52267016 -0.28619617  0.69965377  0.76016831
  0.58262418 -0.67322383  0.12148717  0.27024899  0.73916785 -0.522161
  1.44615684  0.69910113  0.05946252 -0.44921169  0.72684527 -0.26385044
 -1.09143485 -0.73266868 -0.72039008 -0.24477167 -1.08023012 -0.40373487
  0.31111714 -0.61289865  1.42488507  0.65610687 -0.61232854 -0.27435048
  0.59989876  0.9655929   0.9572431  -0.08018359 -0.17681132 -0.07102289
  0.72782492 -0.56534937 -0.45680917  0.02189799 -0.47888168 -0.11085665
  0.74426096 -0.32521274  0.56283505  0.484342  ] [ 0.2241887   0.22040092  0.11352308  0.15620878 -0.18443733 -1.05680846
 -0.16628935 -0.96830045  0.18285442 -0.20569739 -0.68142062 -0.3527675
 -1.01550214  0.8682155   0.80523553 -0.35410512 -0.32680319 -0.35954103
  0.56374058 -0.91086454  0.37477863  0.36447243  0.00189937 -0.39476178
  0.11473306  0.25363456  0.80435984 -0.10347031  0.9017034  -0.51785565
 -0.968137   -0.89422198  0.28846417  0.8772133  -0.019317    0.15113935
  0.31536898 -0.32596008 -0.05565332 -0.32131225 -0.00857119 -0.04552313
 -0.34173333 -0.02716773 -0.80910678  0.1158381  -0.21297709  0.72185731
 -0.03190968  0.86766606 -0.01239879 -0.09495578 -0.76648071 -0.27573944
  0.86503651 -0.83787125  0.07209807  0.93238116  0.4055662  -0.40420639
 -0.86874071 -0.83865728  0.00823665  0.30813559] [-0.89429129  0.82969567  0.50635552  0.54044106  0.35391779  0.45331565
  0.38063184  0.82202652  0.17016582 -0.25885341  0.12432587  0.6809255
 -0.44415757  0.15331855  0.77277495  0.66474309 -0.47736901  0.79054727
  0.23369406  0.51986071  0.65726746  0.83030314 -0.47073035  0.57042463
  0.72389879  0.65170243  0.50521748 -0.51320396  0.97115931  0.86564499
  1.08476708  0.17154553 -0.53834267 -0.55751898  0.01793312 -0.73111338
 -0.846017   -0.31851058 -0.30671952  0.54463287  0.04651935 -0.24625447
  0.46154791  0.96960654 -0.99794596 -0.57549223 -0.00707077 -0.49729629
  0.52808497 -0.44478334  0.13625676  0.0167066   0.27846165 -0.38985488
  0.98995702  0.72311474  0.17135677  0.80125027  0.17013442  0.897204
 -0.16024161  0.6137146  -0.6884442  -0.74773201] [ 0.63046168  0.63784321  0.60075664  0.08894754 -0.9501152  -0.339412
 -0.36270242  0.52077046 -0.68978018  0.22597444 -0.48614457 -0.71112876
 -0.61354409 -0.88712759 -0.77522123  0.01474216  0.57319444  0.92285385
 -0.48283326 -0.31259589 -0.70597393 -0.01878361 -0.2573803   0.99484118
 -0.30684814 -0.27372838  0.02051031 -0.40046557 -0.18377691 -0.60347013
 -0.64316275 -0.29724513  0.65004122 -0.38684121  0.47433649  0.31979447
 -0.17272507 -0.04090563  0.04103439 -0.86193788 -0.87452847  0.66911366
  0.40138026 -0.07729061 -0.75954737  0.13771018  1.00435892  0.28077553
 -0.68836851 -0.90696486 -0.73175323  0.63345763 -0.89460983  0.2297545
 -0.1923593   0.3129826   0.61837867  0.86974233  0.17009813 -0.6185762
  0.2245867  -0.82426004  0.86166944 -0.16977279] [ 0.38515355 -0.5806942  -0.8522266   0.40143026 -0.12421415  0.68226799
  0.76371874  0.18603227 -0.81452856 -0.20491287  0.85701947  0.14425096
 -0.59375631  0.55361512  0.20470668  1.00102042  0.73097628 -1.00164291
  0.38027553  0.32905785  0.06546552  0.00300425 -0.52278125  0.56942719
  0.79117834 -0.16199318  0.02875062 -1.1606485   0.18278036  0.46457067
  0.91005483 -0.91866763  0.54882519  0.28005504  0.36054068  0.84491744
 -0.64375865  0.56858258 -0.79239983  0.71246969 -0.43652966  0.12071803
  0.01218232 -0.08277375 -0.26883245  1.02079386 -0.4846347   0.46078369
 -0.44238386  0.17785547  0.93460358 -0.44698191 -0.44611968 -0.19134259
 -0.167878   -0.90739096  0.5059373  -0.59463038  0.51206394  0.2421595
  0.84968804  0.78157637  0.4724452  -0.24680454] [ 0.82746213 -0.74209048  0.37230264  0.82452418 -0.89852491 -0.0702671
 -0.17510237  0.56109351 -0.61448507  0.78234017 -0.5790989   0.49687765
  0.01763372 -0.47727131  0.28875049 -0.56927734  0.65028655 -0.23552055
 -0.46146427 -0.12610984 -0.37055355  0.27003992 -0.48582108 -0.21048369
 -0.56704364 -0.34959858  0.24465045 -0.78784096  0.26540487  0.93664417
 -0.29518378  0.06030881 -0.75391433 -0.895686    0.89931183 -0.89405625
  1.01681236 -0.79590986 -0.27194134  0.71409317  0.52196799  0.66431055
  0.91126623 -0.19548192 -0.06888673 -0.89657848  0.82196203 -0.16771117
 -0.02895877 -0.37188492  0.15305932 -0.04088406 -0.4799552  -0.47876168
  0.52777646  0.75881874 -0.6442099  -0.78322976 -0.8680567   0.66943333
  0.75538694  0.39907826  0.93697608  0.51217757] [-0.74528838 -0.66655169  1.08344328  1.09056727 -0.41275375  1.07125628
  0.47970771 -1.21531048  1.26050449 -0.90137247 -0.53297385 -0.98212631
 -0.0035318  -0.32489168 -1.43220213  0.04704363  0.79085397  0.43177765
 -0.35098841 -0.12282564  0.62248737 -1.43227141  0.79873012  0.67982087
  0.82415333 -0.0685192   0.7392017   0.94647966 -0.58087754  0.67893892
  0.83018266  0.91132548 -0.64437562  0.3072765  -0.05233504 -0.5752785
 -0.31992456  0.83341606  0.10408166 -0.45168524  0.3028869   0.34187045
  0.75904249  1.15439186 -0.07088532  0.77914712 -0.21174991 -0.34260083
  0.50597383  0.31401943 -0.00786028  0.04637084 -0.59113257 -1.07934188
 -0.72059157 -0.05589165 -0.99031326  0.94392446 -0.65724136  0.85045812
 -0.79244531  0.53672455  0.95023452  0.01570457] [-1.17707832e+00  4.67783061e-01  1.46266905e-01 -8.44491961e-01
  2.22908407e-02  8.92118294e-01  1.12907762e+00  4.75553306e-02
 -6.53775111e-01 -6.21370356e-01 -6.61591469e-01  4.00877626e-01
 -6.41335955e-01 -1.38783844e-01 -1.12832891e+00  1.65054440e-03
  4.07104096e-01 -5.86482343e-01  3.80587928e-01  6.49860147e-01
  4.92269833e-01  9.08226438e-01  2.46355315e-01  6.30233158e-01
 -3.70698828e-01 -2.43137501e-01 -7.71500961e-01  1.65981372e-01
  4.84436158e-02 -4.98888997e-01 -6.54647959e-01 -8.99746350e-01
 -6.64551644e-01 -1.66251694e-01  2.64580733e-01  1.23032457e+00
  3.54742470e-01  1.06632392e+00  1.01587448e+00  2.39209902e-01
 -1.19526822e+00  9.73290233e-01 -2.57690269e-01 -9.00005509e-01
  5.76002598e-01  3.02577302e-02  8.13102119e-02 -1.60471007e-01
 -8.88884242e-01  9.65906433e-01 -5.96264844e-01 -1.75835131e+00
  8.21689051e-01 -3.27321172e-01 -2.43393423e-01  4.43329525e-01
  5.07406698e-01  7.47423882e-01  6.80439099e-01  1.11871742e+00
  4.00312128e-01  5.12188040e-01  7.14746176e-01 -1.02461980e+00] [ 0.15991369 -0.95557058 -0.69711159  1.05126632  0.90335811 -0.94498679
  0.31108299 -0.57342418  0.92555035 -0.52850227 -0.71199489  0.93080014
  0.66224168 -0.73859505 -0.36245389 -0.07740731  0.34130735  0.02132602
  1.04443776 -0.73769914  0.53317642  0.78316865 -0.58503959  0.21512779
  0.03869026  0.48527544 -0.14226607  0.53943219 -0.25278404 -0.41049615
 -0.46212291 -0.55697282 -0.11608007  0.36214812  0.28689596 -0.80355935
  0.32273938  0.17570285  0.20912051  0.1015872   0.93494521 -0.03565073
  0.39363131 -0.89001126 -0.11520359 -0.42483035  0.60942153  0.60711098
 -0.4907535  -0.57174417  0.96944052  0.97375184  0.52014691  0.01722277
 -0.45462686  0.08678422 -0.29518145  0.66638976 -0.20569141  0.30047505
 -0.45177216  0.12996107 -0.42575017  0.21017761] [ 0.72504119 -0.76455762  0.52308882  0.97385262 -0.24516298  0.42620957
 -0.56495755  0.88457795  0.77661879 -0.11534678 -0.85473828  0.40961236
  0.57342163 -0.31776528  0.49834312  0.43373459 -0.22390542  0.6556606
  0.03725338  0.91806838 -0.02851307 -0.20957221 -0.99770097  0.55408358
  0.91765163  0.38969009  0.9629623   0.41146494 -0.00821574  0.64482372
 -0.04618406  0.59269493  0.47331343 -0.76016184 -0.86296588  0.69921204
  0.86222479  0.04206322  0.77651127  0.75138136 -0.0696034   0.42670429
 -0.40638086 -0.48891311 -0.77195377 -0.56281213  0.27846101  0.45963188
 -0.84139639 -0.86028087 -0.72570767 -1.07009146  0.66861478  0.74694703
 -0.69842051 -0.71399647 -0.72925064 -0.13125978 -0.7284405  -0.60110263
  0.33927217 -0.01195111 -0.13973728 -0.31724775] [-0.18546609 -0.27043139 -0.84323643 -0.36462548  0.01730904  0.67322851
  1.34448865 -1.03189266  1.30084936 -0.39410087 -1.00931545  0.09163352
 -0.34191299 -0.38839241  0.28436839  0.76966855 -0.58384804 -0.51492344
  0.67086687  1.36046325  0.17342073  0.96329736 -0.07367606  0.78473168
 -0.75526442 -0.3875212   0.55988141 -0.20672404  0.44517073 -0.78124479
  0.26474941  0.77368327  0.55061841 -0.70117289  0.35850135  0.62335932
  0.9424512   0.70706565  0.65701419 -0.77387819 -0.89327051 -0.48656584
 -0.10536903  0.68448268  0.09545889  0.35085502 -0.79431494 -0.91377751
  0.21821253 -0.43390186 -0.18748464 -0.00561563  0.66204454 -0.08696864
  0.93881025 -0.68295507 -0.14105634  1.01025754 -0.3472599  -0.45189394
 -0.85538262 -0.65934718 -0.79423962 -0.56259918] [-0.07809478 -1.10439754  1.3484429  -0.0199474  -0.35251367 -0.34936114
  0.01310585  1.06849252  0.00985971  0.66976961 -0.49291544  0.04545521
 -0.42866972 -0.25314234 -0.95932555  0.67692217  0.11845596  0.90364545
 -0.32075502  0.19771598  0.52477791 -0.09483891 -0.58506552 -0.02250981
  0.0499598   1.19204008 -0.29150059 -1.19286654  0.22060664  0.70059472
  0.4726133  -0.41296906 -0.43112809 -0.99972842 -0.30343876  0.05228125
 -1.00126572  1.01846055 -0.76385396  0.49072217  0.8979597   0.30028814
  0.97197899  0.27521917  0.07500198  0.44317576  0.20771306  0.67281072
  0.67665916 -0.48247897  0.60139727 -0.44015592 -0.91002484  0.12824056
 -0.23578983  0.5779109   1.06012162 -0.97185428 -0.01633632 -0.61688173
  0.36437904 -0.83387833  0.69140169  0.6855186 ] [ 0.10978357  0.37209407  0.71796602  0.03637151  0.52515444  0.91601711
  0.84754417 -0.55198936 -0.54421115  0.80320533 -0.55083767 -0.79964808
 -0.50098587 -0.22384574  0.00773902 -0.83742052 -0.55662218 -0.69204549
  0.06441974  0.71426667  0.01699208 -0.57725829 -0.4328263   0.2897844
 -0.49749872 -0.82684827  0.53997933 -0.15025752 -0.83235793  0.30146991
  0.08002401 -0.79575704  0.03376955 -0.17871005 -0.41603178 -0.85445545
  0.54308331  0.71575441  0.75835484  0.02415418 -0.94153335  0.13275987
 -0.08225285  0.07396966 -0.58377125  0.263777   -0.05187973 -0.86812057
  0.47248112  0.68145883  0.69211887 -0.94100387 -0.62096174  0.55291508
 -0.48094887  0.02288618  0.15048789 -0.04699404  0.12143937  0.49917067
  0.7251975  -0.40003095 -0.79371857 -0.57409729] [-0.11310081  0.46052113  0.56540231 -0.19479788 -0.23166471  0.54400659
  0.55260113  1.0337015  -1.29829148  0.7070558   0.88157341  0.62038272
 -0.11435695  0.22730779 -0.04587997 -0.094664    0.77621744 -0.61501631
 -0.93551006  0.60157188  0.76328054 -0.2184298  -0.38972887 -0.83070428
 -0.41811153 -0.66788253  0.87417842 -0.99964857 -0.66022641  0.29752241
 -1.2774987  -0.01048571 -0.2213705  -0.45529774  0.3239949   0.72808382
 -1.14053496 -0.26755533  0.50221091  0.61653798 -0.44807964  0.72735221
  0.23535316  1.05899614 -0.36428023 -0.62921816  0.65964456  0.93374952
 -0.36303775  0.10388421  1.12453877 -0.61539862 -0.0316529   0.51450171
  0.8341633  -0.81823131  0.05501986 -0.9478233   0.010277   -0.18917449
  0.17131953 -0.99665887  0.00382793 -0.18211884] [-0.20396586 -0.53845128 -0.01305326  0.33953117  0.33906672 -0.29659551
 -0.46783776 -0.26911376  0.88840747  0.07143572 -0.57134993 -0.80128833
 -1.12972782 -0.89781619  0.0866166   0.74338833  0.72379479  0.00712699
  0.63051259 -0.3960245  -0.98222734  0.3783069  -0.8466547   0.62578393
  0.08289223  0.22388173 -1.15623508  0.73566028 -0.42203791 -0.01616142
  0.1105425   0.06261355  0.06928207  0.8222917   0.75357023  0.45195311
  0.15675205 -0.89155315 -0.45198828 -0.66671291  0.60790988  0.8030093
  0.48239658  0.24253036  0.30480739 -0.37315706  0.49484983  0.38547239
  0.21055799 -0.08103482  0.85670649  0.00925778  0.57183167 -0.45116342
  0.30446358  0.3280657   0.70742397 -0.0793907   0.72179005  0.3507612
  0.74565183  0.84412468  0.28205442 -0.04106333] [-0.22166783  0.51970644  0.51371048 -0.29351694 -0.846092    0.08902329
  0.40705566 -0.70804392  0.34213453 -0.97591735  1.36573302 -0.82552039
  0.92649793  0.2832253   1.28943406  0.06420454  0.55271628 -0.16983437
 -0.59959012  1.06293532 -0.87579374 -1.23323373 -0.23310441  0.48771608
 -0.64451729 -0.36253922  0.06359739  0.12434179  0.44676849 -1.06522411
 -1.33237081  0.10104308 -0.41826354  0.36133468 -0.71487522  0.40158139
 -0.81836137  0.55544276  0.63625815 -0.4471213  -0.6586376  -0.47474752
 -1.1927267   0.13579061 -0.33497312  0.34503847  0.43862817 -0.63521705
 -0.42286668  0.27286866 -0.91466598  0.68240199  0.63452406 -0.71989684
 -0.09711388 -0.16016873 -0.60068182  0.95986245  0.39921665 -0.25340262
 -0.75797028  0.37339487  0.21254727  0.06929575] [ 0.23220692 -0.22323631 -0.34581434  0.7669464   0.77842011  0.34820167
  0.82656753 -0.08234    -0.65425656  0.84740082 -0.62774671 -0.27291849
 -0.17521497 -0.49854308 -0.99301712  0.41274247 -0.69812637  0.26679849
 -0.05917119 -0.49236581 -1.1498935  -0.2453387   0.21059479 -0.2248234
  0.91242782 -0.52435585 -0.84735568  0.25558257 -0.51896288 -0.19183225
  0.71460721  0.30338868  0.78717479 -0.30515371 -1.08785124 -0.08699356
  1.129506   -0.75328557  0.88198151  0.8540073   0.08091156 -0.0166769
  0.69182267  1.09350369 -0.02344006  0.46277461 -0.2183436   0.72227953
 -0.07202999 -0.39638431 -0.6822479  -0.84730917  0.13970265 -0.02214293
  0.25925681 -0.42264169  0.17491227  0.7021177  -0.68531389 -0.05384689
  1.02328195 -0.06212511  0.95458333 -0.3154059 ] [-1.13603775  0.00640987 -0.98203611 -0.04984018  0.581242   -0.1410655
  0.4525753  -0.46886927 -0.0718476  -0.62885495  0.76936611 -0.62780065
 -0.34756458  0.4704739   0.16104919  0.25649659 -0.59471681  0.39570495
  0.25446262 -0.12676501 -0.36822563 -0.35110712 -0.15360639  0.23069814
  0.42942583 -0.04687937  0.17308323 -0.85482475  0.08031186 -0.72815802
 -0.44370295  0.17383189  0.52476268 -0.74330644  1.28431542  0.75107044
  0.5562825   0.84988053  0.41122745  0.91796024 -0.48664903 -0.45685402
  0.07235972 -1.06361834 -0.03925495  0.734266    0.93322623 -0.70901685
  0.27446338 -0.00519706 -0.03057909  0.5465408  -0.24269616 -0.20276561
 -0.38302243  0.6007992  -0.21099765 -0.24024931  0.29367492 -0.48195446
 -0.20816912 -0.5768103   0.11452529  0.37164156] [ 0.71978617 -0.19707222 -0.55141964  0.60754128  0.61784871  0.88815356
 -0.13458475 -0.4684305   0.88905831  0.53513411  0.80774957 -0.478063
 -0.54159347  0.00453205  0.28854327  0.54349968  0.36015351  0.89280943
 -0.2235883   0.6086315  -0.56974865  0.2294521   0.44565908  0.55984644
 -0.45874772 -0.16577638 -0.46740681 -0.68948184 -0.37717543  0.1527099
 -0.0804757  -0.08499285  0.37924069  0.72646781 -0.54108078 -1.27528144
 -0.38273507 -0.04452094  0.10632889  1.08304073  0.23937645  1.00383964
  0.82570257 -0.06964323 -0.45418022 -0.35728031 -0.31678725  0.09714969
 -0.08072669 -0.36267521  0.84261004  0.56155757  0.68113621 -1.01224397
  0.58085167 -1.21413479 -0.96247599  0.55737274  0.49930953 -0.6954259
  0.38800564  0.17673311 -0.31121362 -0.00577048] [-0.28232958  0.35374608 -0.65542763  0.20487487  0.08011208 -0.60964413
  0.87383433  0.03278036  0.26137024  0.68295977 -0.20514394  0.53035463
  0.87012085 -0.14633125  0.75147978 -0.65725721 -0.30760325  0.52673623
  0.06786524  0.86861143 -0.99098626  0.10414967  0.07466744 -0.92376678
  0.77761809 -0.00475359 -0.93950354 -0.52437629 -0.07163827 -0.94356003
 -0.4179821   0.32624449 -0.88003437  0.04714574 -0.09327398 -0.34187707
 -0.29319948  0.00194442 -0.37835554  0.08023615  0.22817048  0.85509815
  0.24397685  0.00246276 -0.65014017 -0.5666612  -0.08823303  0.16485372
  0.46978386  0.82462699 -0.11647297  0.57374897  0.96917119 -0.4420276
 -0.63351747  0.36970293 -0.23999684  0.24523864 -1.02702476 -0.08492893
  0.1806394  -0.85004646  0.98840054  0.87151848] [-5.31334168e-01 -2.41583567e-01 -4.97698781e-01  4.56487286e-01
 -7.49825337e-01 -1.09631106e-01  8.92953099e-01  2.91046934e-01
 -7.14336835e-01 -8.88306225e-01 -1.38318301e-01 -6.26601267e-01
 -8.65117416e-01 -6.19488790e-01 -2.66331385e-01 -9.03881646e-01
 -3.07594976e-01  4.22099715e-02 -1.13787941e+00  6.15599924e-01
  6.66378279e-01  5.34424359e-01  1.90879556e-01 -7.98174895e-01
 -9.02573092e-01  1.10394549e+00  9.22596613e-01 -1.19781787e+00
  1.76286532e-01  4.29596310e-01  8.97577958e-01  6.25714746e-01
  6.14380221e-01 -4.22923832e-02  1.39694863e+00 -7.20648563e-01
 -1.70282681e-01 -4.27554380e-05  1.34053540e-01 -1.02895348e+00
  1.07237344e-01  1.83261915e-01  1.93597084e-01 -1.11720146e+00
  7.03389890e-01 -6.14976311e-01  3.84964793e-01 -3.20280419e-01
  3.76981421e-01 -6.37091876e-01  5.52625707e-01  7.19938313e-01
  4.65294177e-01  1.15954226e-01 -6.50657586e-01 -2.23897200e-01
  2.47988397e-01  5.34505153e-01  1.25219320e+00  8.58143242e-01
 -1.39421725e+00  5.68014027e-01  1.62392996e-01  4.46432575e-01] [ 0.26393065  0.37875129  0.67543536 -0.35559601 -0.90907097  0.69952398
 -0.73564902 -1.28072975  0.38393644 -0.3697957   0.48520367 -0.0860021
 -0.54156192  0.57347442 -0.63664073 -0.67629238 -0.60411634 -0.37858228
  0.55543335  0.85158399 -0.01303887  0.60679051 -0.1311753   0.59160976
  0.74134915  0.43835097  0.41220936 -1.34862873 -0.56217294 -0.46957918
 -0.11542227  0.86965731  0.10570493  0.23176377  0.27481304 -0.96350473
 -0.54682699  0.75830522  0.73496764  0.67318246  0.55497355  0.23294435
  0.27707232  0.24766711  0.94325209 -0.44233598  0.61567566 -0.9441817
  1.0236221   0.5081022  -0.82265815 -0.00936332 -0.86397018  0.73647684
 -0.83025662  0.52731311 -0.74294814  0.37576896  0.52999806 -0.19488917
 -0.60933865  0.10410774  0.34797932  0.34051415] [-0.06762901  0.23814139  1.15795314 -0.71393977 -0.10892821  1.05703287
  0.34806503 -0.10604504 -0.4845345   0.6423809   0.03872528  0.28029582
  0.45059795  0.24633056 -0.20967084 -0.84500131 -1.01024367  0.41298545
  0.94230263  0.58966667  0.38470438  0.76781865  0.05792344 -0.15376264
 -0.30414115  0.64800148 -0.14682975 -1.22775182 -0.20885601 -0.70170053
  0.34166881  0.94656359 -1.02916776  0.13327807 -0.03736583  0.05330646
  0.21847062  0.6357064   0.27226484 -0.45479221 -0.74228193 -0.21840923
 -0.35336335 -0.28999949 -0.48994829  0.15622529 -0.24261664  0.08808355
 -0.93881527 -0.01646145  0.17426809  0.087723    1.09333494 -0.18105945
  0.23251161  0.80514324 -0.65256309  0.67355357  0.93510124 -0.12242307
 -0.13216848  0.76283966 -0.28757683  0.68631056] [-2.18074636e-01 -8.05925366e-01  6.44041793e-01 -9.14379818e-03
  5.03512632e-01  1.57455062e-01  7.87712508e-01  5.58436532e-01
 -2.99720222e-01 -5.57088043e-01 -7.55764311e-01  5.42838022e-01
  9.86866468e-01 -5.98649754e-01  2.17378289e-01 -1.20408172e+00
 -4.57511278e-01 -4.30293914e-01 -2.52419067e-01  1.22629302e+00
 -7.35806242e-01  1.02287478e+00  7.73529146e-02  1.89391007e-01
 -7.93386784e-01  6.72147742e-01 -8.65157113e-02 -7.43092623e-01
 -9.93859768e-01  1.48545943e-01 -6.83967157e-01  8.37589620e-01
 -1.40563326e-01  6.50681323e-01  4.29190209e-01  3.99473819e-01
  8.40114668e-02 -1.80176626e-01  2.39447649e-01  7.67318144e-01
 -6.42200553e-01  8.20461923e-01 -7.59446672e-02  9.39289745e-01
 -1.14997411e-04  6.04773612e-01 -3.85439888e-01 -7.36128373e-01
 -5.15140336e-02  9.85441071e-01 -7.67020778e-01  2.93105366e-01
 -8.20584768e-01 -9.74436440e-01 -8.74441837e-01 -2.39315617e-01
  7.77132320e-01  2.01645032e-01 -4.63597077e-01 -2.36097714e-02
  1.07226490e+00 -2.40688315e-01 -9.06981691e-01  1.37801599e-01] [ 0.65379824  0.44036172  0.16954391  0.01527607  0.06232025 -1.06459014
 -0.72488731  0.41327134 -0.28384995  0.62219106 -0.67021041 -0.67473482
 -0.10464539 -0.99980918  0.12118221  0.44498655  0.2694443   0.06236952
 -1.62777569 -1.02698552  0.85562343  0.01962002 -0.53663759  0.6260318
 -0.28809716 -0.06887411  0.18149319  0.12288599  0.6838318   0.55124871
 -0.37695631  0.12593174  0.59591813  0.94507126 -0.4062705  -0.67858012
  0.85218487 -0.66740618 -0.82971616 -0.0396709   0.09500843 -0.43184411
  0.58911111 -0.71075401 -0.97287127 -0.02399866  0.93389179  1.14428585
  0.10397097 -0.27697106 -0.22442418 -0.2640921  -0.07716892 -0.03312209
 -0.13055904  0.39297085  0.33536493  0.49990432 -0.53991892 -0.59383915
 -0.66315459 -0.82918801 -0.35197527 -0.61637542] [-0.96546235  0.03894377 -0.25172458  0.14935159 -0.95792749  0.09798277
  0.10617479  0.12220845 -0.36590099 -0.193231    0.36159658  0.217451
  0.8776484  -0.72895534 -0.7420223   0.77706785  0.61368201 -0.42695257
 -0.2693134  -0.43754031  0.74490712 -0.7505435  -1.03745444  0.66152827
  0.46127418 -0.62855598  1.00568388  0.38873313 -0.14856106 -0.0961506
  0.29815219  0.12720146 -0.15707289  0.6618292   0.01285469 -0.62394202
 -0.54583289 -0.33610295  0.67504546 -0.18716923  1.1453933  -0.7143111
 -0.60592228 -0.95968135  0.1430005   0.99985806  0.97464337  0.23185005
 -0.28242796  0.83947241  0.15044398 -0.18207255 -0.0024429  -1.03079299
  0.31090329 -1.12148083 -0.58886451  0.98411303  0.92881577  0.9573749
 -1.03319441  0.68468086  0.86273038  0.3815304 ] [ 0.89628078 -0.48471218 -0.66587948  0.14746416  1.0536809   0.02209355
 -0.27194481  0.56619827  0.42637486 -0.43915154 -0.39104141 -0.3074872
  0.19636734 -0.00411278  0.61806543  0.27278435 -0.79455083  0.00311415
  0.42843198  0.68593181 -0.6963761   0.57690306 -0.15240745 -0.34122553
 -0.48464582 -0.06122274  0.43121142  0.44170126 -0.17749043 -0.55304549
 -0.33800417 -0.6366848  -0.19496413 -0.39307565 -0.85445013 -0.19258612
 -0.04918668 -0.24747276  0.05834859 -0.4682418  -0.85720606  0.71518312
  0.29147269  1.31922709 -0.97963271 -0.08160362 -0.22966722 -0.15745364
  0.11025347  0.02507925  0.92359331 -0.81944598  0.46702867  0.76663303
  0.16601323 -0.65884509 -0.27743922 -0.6097579   0.58615198 -1.11678195
  0.07193571  0.64233155  0.97174398 -0.66071235] [-0.19982522 -0.76082122  0.4183238  -0.82487574 -0.67232057 -0.24024019
 -0.7920131  -0.26251142  0.74123721  0.56751735 -0.03263084 -0.35452459
  0.02174586  0.02852412 -0.73802886  0.15105517  0.51561018 -0.68397979
 -1.09992985 -0.32603457  0.57810406  0.93503578 -0.73628901 -0.98505839
  0.71058153 -0.53625645 -1.1744912   0.35932678  0.06097925 -0.67128212
 -0.56814172  0.88403016  0.66779551  0.51675487  0.32418184 -0.47890337
  0.41335182  0.06113957  0.87781695 -0.00934579 -0.36336673 -0.50327938
 -0.29929955 -1.08474751  0.48457273  1.18602689  0.48221351  0.69473428
 -0.04634004  0.17080259 -1.08546425  0.41548115 -0.48233654  0.83124322
 -0.50022065 -0.7124767   0.19886939  0.21440555 -0.13326776  0.61772876
  0.2094267  -0.98349032 -0.68577873  0.02211272] [-0.88475324 -0.00500116  0.70293637  0.77704472  0.40912349  0.78617033
  0.06349168 -0.04947777  0.49801673  0.02887328  0.32529895  0.99585219
  0.31846298  0.99930068 -0.5629176  -0.19053004 -0.6341161  -0.42559087
  0.78165088 -0.68381443  0.76413194 -0.38985005 -0.31656121 -0.1243923
  0.30140755 -0.79456791  0.28280579  0.63146233 -0.21599298  0.76759921
 -0.75245653 -0.98029127  0.4455917  -0.08199296  0.27738903  0.53803699
 -0.79821118  0.89661898 -0.705106   -0.20973313  0.17838223 -0.55685156
  0.82369891 -0.41497322 -0.91495228  0.51081709  0.01181707  0.75082061
 -0.38261419 -0.10500085  0.84149457 -0.70948195 -1.00492966 -0.03847437
 -0.61494071 -0.08126073  0.73577427 -0.86564367 -0.1622088   0.85246924
  0.33935287  0.75794193  0.80355657 -0.25217369] [ 0.10487448 -0.27968758  0.67051749 -0.68088289 -0.33817293  0.7200265
  0.23641162  1.13539585  0.76520293  0.68145904  0.02727964 -0.54807886
 -0.82387588  0.04297484 -0.14162549 -1.02118907 -0.50231659 -0.31778303
 -0.27059445  0.82950624  0.45467283  0.94548925  0.00494857  0.07546902
  0.65214774 -0.35196837  0.85215966  0.8143221   0.30982514  0.86183409
  0.4455747  -0.16163805  0.19862119  0.4561058   0.12452129 -0.26588131
 -0.57731868 -0.40582259 -0.90735607  0.41710501 -0.46233642  0.54317864
 -0.8052537  -1.14404552 -0.81227398 -1.11249851  0.75130759  0.90162029
 -0.63862807 -0.92852296 -0.37536916 -0.70504681 -0.67655873  1.08986051
  0.34145349 -0.61872749  0.08861913 -0.22709621  0.76864074  0.66405097
  0.35562824  0.6483697   0.34102231 -0.89306072] [-0.21762447  0.0029881   0.0115136  -0.67140716 -0.64093245  0.3420104
 -0.1903936   0.89039435 -0.39541652  0.95753737  0.11100419 -0.71401763
  1.00901128 -0.19678851  0.62007078  0.70252867 -0.64942108 -0.47460192
 -0.52407232  0.13309963  0.2742999   0.38706718  0.95303676  0.63795054
  0.43824355  0.81576345  0.32764346 -0.92407196 -0.7406552  -0.34271548
 -0.48776167  0.36172791 -0.70122535 -0.17124493  0.64965807  0.37769875
  0.66569362 -0.68971491  0.45713955 -0.85517806  0.06669212  0.79488604
  0.12024515  0.25474293 -0.30650686 -0.54009684 -0.1905871   0.44097124
 -0.08054212 -0.26456069  0.43107006 -0.77638711 -0.15070833  0.0951793
  0.64967507 -0.79980358 -0.52893516 -0.26912401  0.7420265  -0.63683631
  0.89523596  0.95581298 -0.29195867 -0.87759624] [ 0.54673451  0.02580246 -0.05588234 -0.61740812 -0.72737522 -1.00918562
 -0.44351803 -0.02340983 -0.56329868  0.72423734 -0.39426216 -0.98083518
 -0.33443631  0.77318565  0.92224918  0.93802252  0.15137767 -0.20256373
  0.07745218 -0.06698152  0.09455473 -0.93423912  0.51248757 -0.06125333
 -0.73419816  0.48513105 -0.07129497  0.86395014 -0.6637497  -0.37299693
  0.56699349 -0.21879298  0.80796406 -0.3921111   0.26923551  0.64101058
 -0.84731865 -0.72188592 -0.87623498  0.42678061  0.80497589  0.43454974
 -0.11043019 -0.53208896 -0.36261382 -0.03393763 -0.98859724  0.04520797
 -0.42609696  0.46696655 -0.34719244  0.87025921  0.6463761  -0.73070751
 -0.59872206 -0.06900812 -0.11781891 -0.01195221  0.34773188  0.12501579
 -0.3184192  -0.199717    0.18448195  0.4875055 ] [ 0.70879498  0.21722587  0.34688445  0.69762736  0.22620947  0.53241125
  0.08553343  0.04358268  0.03726569  0.67648216  0.87118132 -0.03752924
 -0.01652305 -0.78945014  0.86221409 -0.76399315  0.62124789  0.15052621
 -0.55868326  1.11660294  0.32044799 -1.01824727 -0.6558733   0.75341865
 -0.89663977 -0.24778971  0.79837998 -0.52233414 -0.3979617   0.97696693
 -0.68342851 -0.93797602  0.61496892 -0.00702836  0.74740194  0.82574583
 -0.3002032   0.49446808  0.28703115  0.5327804  -0.591193    0.15417694
  0.5247646  -0.30806656 -0.87127805  0.13162686  0.14263793 -0.44414421
 -0.37559261 -0.48030934 -0.36516269  0.64393202 -0.17733979 -0.62597052
  1.09506337  0.87378245  0.68449939  0.37565053  0.294092    0.06354652
  0.08931258  0.0065859   0.85315937 -0.32557278] [ 1.17718102 -0.97925739 -0.71352334  0.94195918 -0.73098024  0.88309026
  0.47714898 -0.04091044 -0.26611804  0.42589217  0.79138739  0.80168572
  0.30559956 -0.26952512  0.13479837  0.76951693  0.31268794 -0.85360171
 -1.52389396  0.53419669  0.42553313  0.32753442  0.32715435  0.41048321
  0.64185376  1.25930865 -0.34351216 -1.26688839  0.19785765 -0.13261029
 -0.00848926  0.71140236  0.20349419  0.06783459  0.90013724  0.71565817
 -0.55311864 -0.12538448  0.02673047 -0.94324726  1.09668121 -0.48512266
 -0.07667191 -0.41960989 -0.19065502 -0.25664804 -0.90049337  0.95854727
  1.54510138  0.3172355  -0.66759975  0.11312684  0.68459495 -0.24003627
  0.58295312  0.07780156  0.99788667 -0.22142917 -0.2628278  -0.57724855
 -0.87685451  0.74986366 -0.21943459 -0.08370303] [-0.68771683  0.45724624 -0.90829769  1.04131893 -0.55673915  0.60468651
 -0.4348967  -0.38338486 -0.68122963 -0.73440486 -0.01207645 -0.28753638
 -1.02614794  0.59583683 -0.01708217  0.28406294  0.70164402  0.83075915
 -0.59036607  0.71782123 -0.68273966  0.43102812 -1.03023261  0.53738856
 -0.79399812  0.00409431  0.51553208  0.64370602  0.34172157  0.12761769
  0.03224187 -0.07124892 -0.16645551  0.84663652 -0.91400675  0.4296895
 -0.18768157  0.59999582  0.43555387 -0.29981703  0.988953   -0.47449835
 -1.01645191  0.17300229 -0.45093221 -0.27741286 -0.15673341 -0.4435227
  1.02453949  0.8943136  -0.51563196  0.39311129  0.2661284  -0.05477076
  0.4711171   0.19536114 -0.97161022  0.53567718  0.04530265 -0.24479536
  0.19335762 -1.00173649 -1.02132512 -0.34013283] [-0.04000386  0.61347651 -0.18366674 -0.65487509 -0.34170149 -0.07295912
 -1.03441369  0.34888414 -0.78658291 -0.31648136  0.16960034  0.12193332
  0.54025337 -0.32144938 -0.80112002 -0.4720075   1.01064763  0.23105793
 -0.96903529 -1.1100333   0.82917024  0.66715833 -0.58365565  0.5825246
  0.34383595  1.12114249 -0.07382654 -0.54990071 -0.5102554   0.74322641
  0.32345627 -0.302024    0.58210611 -0.69907818  0.049807    0.00179134
  0.99152925  0.19053985 -0.34989461  0.74197545 -0.51185665 -1.11046238
  0.74509803 -0.21155426  0.41775125 -0.46418639  0.67469089 -0.08960406
  0.14449246 -0.42241081 -0.93489082  0.77654004 -0.17184824 -0.98418094
 -1.14456695  0.81948537 -0.48655186  0.6179558  -0.51005567  0.17884684
  0.25640907 -0.70189597 -0.24604417 -0.84619207] [-0.23494454 -0.93869339 -0.29322143 -0.46476478  0.36109021 -1.2486995
  0.32750907  0.6276618  -0.75857257 -0.19116704 -1.53742932 -0.69130048
 -0.38789359 -0.69810906 -0.83690251  1.04776691 -0.57432532  0.19731738
  0.09952438  0.30647156  1.26298036 -0.77317494 -0.5882128   0.01924602
  0.03735287  0.39038253  1.11150657  1.01817976 -0.7828821  -0.69561849
  0.69532627 -0.54807841 -0.31041734  0.19231541 -0.42590699  1.23078866
  0.61451778 -0.66755119 -0.69045427 -0.67219682  0.73914174 -1.27961508
  0.72018794  0.70634625 -0.550896   -0.75972551  0.86063027  0.25538226
 -0.25839888  0.42935064  0.02148436 -1.01877304 -0.61287091  0.09106122
 -0.42692812 -0.25487094 -0.17978338 -0.56824508  0.20592438 -0.10984285
 -0.35673473 -0.86150618 -0.94607986  0.11563069] [-1.22735143  0.63136913 -0.64363241 -0.74636742 -0.26129687 -0.33204595
 -0.18490124  0.53281876  0.59241424 -0.67721819 -0.04962721  0.45862592
 -0.89880049  0.1366817   1.03562089  0.59595095  0.74209867  0.64993589
 -0.85570525 -0.72846418  0.73767082 -0.67762905 -0.84533248 -0.28778791
 -0.24372353  0.53679466  1.08115655  0.93698685  0.48379032 -0.76493892
 -0.60353017  0.49343968  0.23428512  0.44936731 -0.13805752 -0.1934476
  0.13947213 -0.35141862 -0.6704254   0.62283883  0.30305802 -0.10718114
 -1.07864685  0.08985517 -0.2278442  -0.79297183  0.29273364  1.12818317
  0.76599156 -0.09425045  0.69343228  0.29066963 -0.39932865 -0.96871179
 -0.71841639  0.11773739 -0.46422343 -0.53893892 -0.53357753  0.33265309
 -0.44654158  0.61768823 -0.76021718 -0.31670895] [ 6.69994977e-01  7.94664852e-01 -4.03089441e-01  2.34566721e-01
  2.08194572e-01 -1.91370016e-01 -3.54419849e-01  3.24940195e-01
  1.58782662e-01  3.48227423e-01 -5.77962157e-01  2.71559882e-01
 -9.38510064e-01 -4.99096895e-01  4.07707928e-01  5.99643861e-01
 -8.06720023e-01 -9.38951678e-01  1.21772674e-03 -9.86807978e-01
 -5.11000890e-01 -2.17211652e-01  7.09423234e-01  1.43814333e-01
  5.92871628e-01  2.21790672e-01  4.06176411e-01 -3.29874509e-01
 -4.76907905e-01 -7.08539855e-01 -5.69735324e-01 -1.20535364e-01
 -2.29161996e-01  3.66172365e-01 -1.88099652e-01  1.26635271e-01
 -5.21996051e-01  3.96440338e-01 -9.87355443e-01 -3.66628597e-04
  9.87181769e-02 -9.39298220e-01  7.30024079e-01  1.07270438e+00
 -3.52556584e-01 -6.55802654e-01  6.45640856e-01 -3.98253249e-02
 -5.70962508e-01  5.53229475e-01  5.66517478e-01  8.38270631e-01
 -8.05863212e-02 -2.31836491e-01  1.18666962e+00 -8.16006297e-01
  2.04033698e-02 -7.56312005e-01 -5.53999088e-01 -1.10729410e+00
 -4.19895216e-01 -8.47370800e-01  1.59761946e-01 -3.20184452e-01] [ 0.66450786 -0.45311628  1.00824137  0.61306067  0.42633343 -0.82446937
  0.29619247  0.85008892  0.69799459 -0.89435106  1.01712353 -0.32609081
  0.79520771  0.45223805  1.26979817 -0.81417831 -0.89325329 -0.33536594
  0.38887004  0.33289002 -0.87075254  1.0006907  -0.70713223 -0.73968264
 -0.40428736  0.37517063 -1.13147881 -1.02211386  0.1085239  -0.95262788
  0.10382354 -0.36454162  0.62707935 -0.70239173 -0.78327639  0.82476523
 -1.27661263 -0.43911932 -0.02467244 -0.95681078  0.31450404 -0.42181006
  0.600534    0.38941658 -0.24581903  0.37586195 -1.01686776  0.16010112
  0.33678963 -0.87128856 -0.39592976  0.01950649 -0.01929992 -0.35406418
  0.7607173  -0.60767518  0.75990381  0.42122293  0.4218354  -0.79863586
  0.70101903 -0.71738393 -0.71897364  0.05471215] [-0.78014496  0.7745846  -0.09987018  0.67795234 -0.14272189  0.42615467
  0.80017992  0.14135735  0.69760611 -0.79639688  0.15168926  0.804852
 -0.80063847  0.83163789  0.41057138 -0.07675227  0.57565796 -0.8725909
 -0.28226523  0.29266357  0.21974409 -0.06929527  0.82624705  0.65067042
  0.63677286  0.42455211 -0.85701397 -0.17921199 -0.64397015  0.3945855
  0.15536373 -0.95612346  0.85417088 -0.86386382  0.13332464 -0.64963145
  0.61045977 -0.99199504 -0.15617167  0.54881537  0.81929407  0.0819935
 -1.12671364 -0.04806446  0.12722911 -0.39943922 -1.07904656  0.60979532
  0.32495984  0.98946958  0.87142603  0.575883   -0.8117535  -0.50587481
  0.67522449 -0.85967209  0.37385699 -0.33329763 -0.2772233   0.24429198
  0.39667394 -0.15785579  0.1224576  -0.0227687 ] [ 0.71043244  0.20625739  0.07921374 -0.30854152  0.42550556  0.47136932
 -0.01521539  0.09385645 -0.56950654 -0.81919266 -0.95422307 -0.6720065
 -0.12901404 -0.94956528 -1.06414242 -0.36905813  0.64095865 -0.1136499
  0.39399823 -0.49023752  1.07437157 -0.16603952  0.66221275 -0.25417818
  0.86413194  1.23197632 -0.69913092 -0.1717017   0.87203234 -0.4399154
  0.89588715 -0.61292694  0.96301963 -0.24073682  0.67698217 -0.6951776
  0.2693433   0.05743095 -0.39876852  0.5570361  -0.63088047 -0.96660581
 -0.42191137 -0.71085319  0.0766768   1.18892918 -0.33340342 -0.96057642
  0.17714175  0.58349037  0.06212974 -0.27028595  0.72892241  0.52133036
 -0.29484438  0.46904242 -0.68257263  0.85310266 -0.80393578 -0.25662529
 -0.58185463 -0.73652628 -0.15485955 -0.7099889 ] [ 0.99105541 -0.67534587  0.66946747  0.03974992 -0.44022881 -0.2961857
 -0.95450459  0.2918758   0.82914707 -0.95244672 -0.00732264  0.24700389
  0.19438962 -0.6295484   0.75215293  0.57818339  0.8331172  -0.70674181
  0.29271228 -0.97040672 -0.06154933  0.42038791 -0.85928338  0.72399453
 -0.07058787  0.4337492  -0.90487108 -0.92918404  0.51538675  0.82652233
  0.11466623  0.02204011  0.80196006 -0.07240071 -0.80420839 -0.56906196
 -0.8971822  -0.59245555 -0.85490132 -0.38852371  0.91674066  0.8971925
  0.39410039 -0.30551454 -0.02583757 -0.01669381 -0.46111991 -0.04364284
  0.55502978 -0.04338012  0.56862378  0.90829271 -0.87007219 -0.93040844
  0.14284079 -0.76949951  0.47366907  0.10721419  0.00834425 -0.00875481
 -0.50103319 -0.89321818  0.79817932  0.55371872] [ 0.75626904  0.15673626 -0.87229668 -0.45805964  0.05829136  0.6321415
 -0.07758355 -0.84546783  0.48198128  0.04893451  0.27460781 -0.67519443
  0.41487666 -0.75289326  1.04277466 -0.20682419  0.41462809  0.73171898
 -0.79684064 -0.01361047 -0.05487342 -0.82800626 -0.80291214 -0.74280684
  0.14133469  0.38853037  0.7001429   0.53162287  0.92644365 -1.41300412
 -0.70544803  0.03535013  1.01261348 -0.06807575 -0.88535561  0.79855898
  0.92749158  0.782139    0.88567399 -0.11147357  0.42583569  0.38774693
 -0.38558917 -0.41051114  0.12435711 -0.33253714  0.18376734 -0.11228284
  0.58925064 -0.53535623  0.221267    0.47758387  0.23764831  0.79570528
 -0.27836909  0.67542854 -0.69154511  0.30749204 -0.73259809  0.7171838
  0.13834702 -0.31081835  0.92321543 -0.2035298 ] [-0.19648991 -0.83905882  0.67375312  0.32302257 -0.30045987  0.92682893
  0.85610858 -0.17887322  0.20344811  0.89378881 -0.47885792 -0.01200654
 -1.10336186  0.24764893  0.47585571  0.04499725 -0.53379457 -0.82348085
 -0.28354402  0.05149208 -0.13806954 -0.87027538 -0.01739545  0.38975249
 -0.06982869  0.35547544  1.02334953  0.20420019  0.43280455 -0.3904523
  0.27848602  0.37137751 -1.0358699  -0.15902222  0.20195498 -0.267308
 -0.46501018  0.6003095   0.32751199 -0.15032799 -0.85281069 -1.02142444
 -0.82214721 -0.29048406 -0.43767396 -0.51979008  0.3588809  -0.81944778
  0.7625748   0.05461141 -0.22501953  0.61964393  0.83492987  0.4754695
 -0.3742094   0.3541159   0.77014819 -0.25940207  0.63673975  0.27677912
 -0.83141026 -0.32289856  0.09086039 -0.83168509] [-0.8797439  -0.14272333  0.93325913 -0.73381972  0.47188654  0.07566004
 -0.35087148 -0.08310832 -0.76230045  0.25597114 -0.75201591 -0.67756131
  0.31574129  0.4262128  -0.34114067 -0.34606327 -0.0234504  -0.963551
 -0.2325714  -0.10254076  0.93416228 -0.33209902 -0.39600102 -0.74696972
 -0.78366595  0.62725825 -0.81790148  0.82156137  0.24599477  0.08755845
 -0.04626453 -0.32535108 -0.00787079  0.3046234  -0.23986016 -0.87163109
  0.40790143  0.79911435  0.16425453 -0.60274252 -0.26435387  0.29443937
 -0.88869891 -0.00755095  0.01591304  0.37373701 -0.45165009 -0.93132643
  0.02961547  0.89523077 -0.85109147  0.194527    0.92510413  0.4199578
  0.00327005  0.01423537  0.69661884  0.20927678  0.45090523 -0.83878015
 -0.55317854  0.67772735 -0.94048149 -0.80267232] [-8.52328538e-01  6.90117012e-01 -1.25261230e-03 -5.17345207e-01
  2.74226462e-01  9.34988465e-01  2.60452378e-01 -6.00479092e-01
 -4.25994550e-02 -5.00233560e-01  6.66138393e-01 -7.80927010e-01
 -3.81172543e-01  2.91012622e-01 -1.29851946e-01  7.03641321e-01
 -6.76068997e-01 -2.76468483e-01  4.21447583e-01 -5.23781721e-01
 -6.96231338e-01  3.81239357e-01 -8.98966659e-01 -2.56070476e-01
  8.37778594e-01  6.17803691e-01 -2.08229953e-01 -1.32703577e-01
  7.10639485e-01 -7.37532221e-01  1.88608165e-01  7.94400563e-01
  4.10021448e-01 -2.63488454e-01 -5.29011023e-01 -1.88697349e-01
 -3.13492837e-01  3.95171068e-01  7.16907495e-01  1.03191393e-01
 -1.28243187e+00  9.48345431e-01 -3.42276177e-01  6.69721032e-01
 -4.67929036e-01  5.75070226e-01 -2.05346576e-01 -5.91928857e-02
 -6.18130627e-01  2.07144846e-01  2.95551022e-01  5.64697852e-01
 -7.79048279e-01 -5.74206531e-01 -7.43999525e-01 -3.91688562e-01
 -8.24244676e-01  1.81566419e-02  1.63773769e-01 -7.85263365e-01
 -1.30995673e-01 -2.19882842e-01  8.53617686e-01  4.09205581e-01] [ 0.6060332  -0.78764983  0.81741638 -0.19295621  0.26154182 -0.27557663
  0.38099533 -0.93835565  0.41677505 -0.64074274 -0.07316343 -0.45146315
  0.34744278  0.2682054  -0.97935159  0.34598197  0.49599323  0.05246826
  0.59650336 -0.52549713  1.01985755 -1.57996927  0.3189082   0.60204181
 -0.36614477 -1.68788718  0.5804725   1.86505287  0.36509205 -1.08985801
 -1.26881277 -0.76586211  0.12752444  0.25925729 -0.92906602  0.88015854
  1.24699286 -0.22583125  0.84073167 -0.40799342 -0.48349143 -0.06247596
 -0.30051267  0.21708522  0.0295369   0.17212156  0.18803094  0.39362259
  0.25114005 -0.49439417 -0.63389282  0.58742599  0.56247476  0.99480606
  0.68245112 -0.23035041  0.19840802  0.69426491  0.10678677  0.78872495
 -0.22896846 -0.48258539  0.39241912  0.04204717] [-0.91526753  0.41363234 -0.59396862 -0.10052039  0.76278558 -0.10110027
  0.28091512  0.66660117 -0.16977387 -0.15340718  0.42625078  0.91551153
 -0.06265141  0.3428633   1.13738095 -0.62426731 -0.23058769 -0.40704729
  0.22084052 -0.3488904   0.56134083 -0.35583174 -0.74551273 -0.20694788
  0.25553926 -0.63595788 -0.45915087  1.12845936 -0.98947521  0.23825101
 -0.3763722  -0.30500387  0.72652711  0.92765708  0.41838261  0.17120536
  0.17442841 -0.86435296 -0.59811331  0.06453147  0.65375869  0.29698158
  0.10598879  0.03808005  0.3754393   0.46023865 -0.46990746  0.35379034
  0.32870518 -0.59454082  0.07400247  0.5560211  -0.02120508  0.83072267
  0.34821892 -0.75085863 -0.04024363 -0.59479671 -1.06419537 -0.45539402
  0.52204661  0.64057346  0.13582298 -0.51862445] [-0.89315688 -0.69314387 -0.42311995 -0.07915294 -0.6226708   0.06823453
  0.30202702  0.20181323 -0.7680329   0.06485882  0.76644672 -0.27851197
  0.48690129  0.34782331  0.43675103  0.89874615 -0.5551281  -0.78485037
  0.23284989  0.13139212 -0.5264128  -0.74913915 -0.54784579 -0.83484393
  0.54608732 -0.16044443  0.4459126  -0.89637583  0.91985609  1.0277137
 -1.37552361 -0.08024561  0.63183933  0.8016292   0.98146116 -0.77216836
  0.37400231  0.20581768 -0.81178427  0.3132661  -0.84098911  0.64180685
 -0.58262919  0.70696259 -0.24738911 -1.05243281 -1.15293243 -0.73247862
  0.61960816  0.94148283  0.07239015 -0.38978115  0.53529267 -0.8833043
  0.23464968  0.06112038  0.86692924  0.45474951  0.64546471  0.89398182
  0.12588003 -0.63008691 -0.66397192 -0.1170535 ] [ 0.16296744 -1.0201997  -0.63070705 -0.66300082  0.55788159 -0.25908197
  0.37987192  0.06875182 -0.96416797  0.40359445 -0.37593847  0.4085996
  0.9693715  -0.96334041 -0.0873859   0.14443941 -0.99247525  0.58730801
  0.02536564 -0.55589214  1.11003058 -0.46077984  0.24900717 -0.16753943
  0.49306826 -0.26813649 -0.24369479  0.69018732 -0.96746507 -0.80728905
 -0.1148082   0.70749549 -0.75255315 -0.74226293  0.66882756 -0.08908486
  0.42912939  0.65356135  0.33647926 -0.41559068 -0.64962119 -0.88815594
 -0.4473189   0.14125266  0.81527252  0.81510042 -0.08073272 -0.3181023
  0.95965024  0.15140627  0.03769849 -0.16561721  0.59416282  0.98027534
 -0.51879973 -0.72946984  0.87264784 -0.48556601 -0.16067702 -0.66724631
 -0.01480143  0.87894159  0.03657068  0.9940446 ] [ 0.90437538  0.74546001 -0.01760783 -0.21573805  0.79646119 -0.47037094
  0.83966329 -0.21927401 -0.95653208 -0.32965972  0.13851517 -0.06303168
  0.1257804  -0.63865385 -0.43256813  0.19815438  0.44754882  0.33531205
 -0.34397297 -0.08298883  0.69330601  0.94193953  0.80028448 -0.38476615
 -0.60749973  1.02286968 -0.72372535 -0.87668605 -0.89702439  0.88239419
 -1.00025945  0.30123439 -0.45448021 -0.5764545   0.19412638  0.5242555
  0.993018    0.90290577 -0.99327258 -0.36742453  0.35934049 -0.49673668
 -0.91106733 -0.85386939  0.57706528  0.78032035 -0.31718251 -0.4977458
 -0.5215131  -0.09803777  0.92306757  0.78438093  0.32244741  0.53073042
  0.25393328  0.69680751 -0.6737351   0.70147734  0.24786281 -0.58177059
 -0.64082769  0.66218076  0.13445112  0.26788839] [ 1.05571376e+00  7.59576781e-01 -5.79143227e-01  7.15845578e-01
 -6.23848586e-01  2.17110396e-01 -4.49489154e-01 -1.00870523e+00
  7.00121936e-02 -1.03379915e+00  5.43636349e-01 -4.21526664e-01
 -8.88281465e-01 -2.87752598e-01  1.05152535e+00 -8.58427297e-01
  7.88608433e-01 -8.75136135e-01  4.64069011e-01 -7.62904318e-01
  6.09486191e-01 -1.19346970e-01 -8.63530087e-01  9.48613999e-01
 -8.91673095e-01 -6.72995084e-01  4.14749639e-02  5.01675486e-01
  4.62833237e-01  6.82235263e-01  3.02485824e-01  1.54007222e-01
  6.46750902e-01  5.43619365e-01  5.27236022e-01 -5.28013781e-01
  6.54608324e-01 -4.53099644e-01 -1.97603072e-01  3.36047458e-01
 -3.61707457e-01 -7.08905585e-01 -2.55290127e-01  2.39628502e-01
 -6.65893772e-01  2.79848052e-01 -3.30695485e-01 -1.93886221e-01
  5.83043922e-01 -7.48510706e-01  3.84747471e-01 -7.26287087e-01
 -4.05149849e-04  2.94018438e-02 -9.74895306e-02 -7.65213562e-01
  7.10785113e-01 -3.80524765e-01 -7.07212320e-01 -1.00814991e+00
  2.86172780e-01  2.92699659e-01 -7.43974606e-01 -1.86533589e-01] [ 0.20757103  0.87504862 -0.23879038 -0.76112725  0.92487455  0.24222878
  0.37820926 -0.56355911  0.16094761 -0.31360441  0.2815293  -0.44775642
  0.47458676 -0.61283827  0.5040165   0.67849865 -0.66874558 -0.44064359
 -0.28227248  1.0081559  -0.50483746 -0.60287634 -1.06384444  0.71122549
  0.7941309  -1.31832344 -0.07139592  1.09887656 -0.89277803 -0.68910883
 -1.16473771 -0.61605693 -1.12544214 -0.87191958  0.83494043  0.33877879
  0.88287279  0.92240761  0.76003346  0.64930936  0.75090538 -0.0128094
  0.08738421 -0.25870306  0.96106411 -0.75329112  1.26834936 -0.63959468
  0.13701422  0.77584859 -0.55621328  0.01800273 -0.64541846 -0.64375392
 -0.743209    0.27947014 -0.1354345  -0.28710337  0.92607302  0.3352295
  0.62902982 -0.76791867  0.76265121 -0.16782594] [-0.5919092  -0.51016759  0.38580342 -0.14172324 -0.29057419  0.10118218
  1.04052513 -0.84457116 -0.23907772 -0.63115034 -0.19989589 -0.6775252
  0.13919734  0.91049252 -0.28668364 -0.05969446 -0.57092906 -0.67033691
 -0.22966498  0.69871052 -0.42530529 -0.47149074 -0.18473342  0.35819335
  0.73473964  0.04779626  0.51904083  0.49919732  0.04750213 -0.3832544
  0.79566831 -0.78482618  0.12585345  0.39036216 -0.33923336 -0.65038437
 -0.25016876  1.17282967  0.62552373 -1.02994995 -1.02502717  0.00498438
  0.14763967  0.58069632 -0.18549151  0.66200972 -0.4775586  -0.55180923
 -0.61811703 -0.57471724 -0.63166921  0.11708895 -0.34246485 -0.50345442
 -0.92649963  1.40382842 -0.70404358 -0.56776074  0.28688859  0.29079989
 -0.80425043 -0.64969579  0.30061772 -0.95148303] [ 0.1410446   0.84896753 -0.37309366 -0.84277605 -0.22166611  0.75310451
 -0.17584688 -0.02500456 -0.38252064 -0.30202875 -0.36074836 -0.852715
  0.15706767 -0.45000858 -1.20225437  0.17373448  0.82002855  0.4392105
 -0.35735257 -0.56290299  0.60224316 -0.71230968 -0.10436767 -0.66151728
 -0.77468104  0.13427332 -0.54392815 -0.71746214  0.71830861  0.50220403
  0.89118978 -0.67657175  0.21223419 -0.65596737 -0.01994605 -0.49994751
  0.36830843 -0.60162602 -0.2285806  -0.85596328 -0.73832569 -0.20972623
 -0.38467295 -0.58685663 -0.91008816 -1.02616558  0.65511356  0.43211311
  0.47164679 -0.11073724  1.10388393 -0.32039264  0.78436046  0.45720475
  0.28524238  1.08272447  0.9956337  -0.60642918  0.64666054 -0.27084466
  0.23108918 -0.22228422  0.43123181 -0.35927757] [ 0.2695312   0.84453181  0.74888089 -0.90781843  0.73248939 -0.47196777
 -0.86512195 -0.3186188  -0.25451318  0.98201779 -0.98898842 -0.43736064
  0.14033454 -0.63252062  0.4759298   0.70436121  0.82690822 -0.57304505
  1.07934202  0.04499192  0.72437138  0.55538091  0.57014001 -0.02874228
 -0.80080493  0.26705948  0.78586018  0.96107155  0.5015595   0.01535053
  0.51247435  0.89951854 -0.21536093 -0.243288    0.07208564  0.79519503
 -0.33993043 -0.68832713  0.80483498  0.02838103  0.44332507 -0.91206542
 -0.38125576  0.14274674 -0.14313084  0.70960473  0.03247572  0.11024042
 -0.85985241 -0.32365422  0.32336275  0.63487848  0.05736095  0.67610925
 -0.89703336  0.50786015  0.43512414  0.73268515 -0.65884278 -0.85570523
  0.61174303 -0.10796293  0.73314749  0.94922734] [ 8.62044022e-02  5.06879904e-01 -8.05891834e-01 -5.73104566e-01
  4.78688597e-01 -9.88657128e-01 -7.66567989e-01  9.31827665e-01
 -6.79953838e-01 -3.99912823e-01 -3.31134350e-01  5.32116116e-01
  1.11164581e+00  7.42249471e-02  2.71256269e-01  1.13406471e-01
  7.16098785e-01 -2.13759939e-01 -3.04755220e-02 -1.28531822e-01
  4.85695171e-01 -3.21315387e-01 -1.00631693e-01 -5.04679787e-01
 -7.43901814e-01  1.50669728e-01 -2.63778831e-01  8.81041405e-01
  2.64330763e-02  5.60235571e-01 -3.76788064e-01 -6.49366601e-01
  7.25780619e-01 -4.95729915e-02 -9.55282089e-01  1.41611510e-01
  7.85733157e-04 -3.30197609e-01  3.60197637e-01 -9.19354963e-01
  2.58262619e-01 -3.35267726e-01  5.88768070e-01  9.29274209e-01
 -6.17416434e-01  4.87722083e-01 -1.13889717e-01  9.12087820e-01
 -2.81779662e-01  5.12137167e-01 -6.55399377e-01 -2.81748452e-01
  1.62475244e-01  3.91477333e-01  9.52868880e-01 -8.93549710e-01
  3.54013682e-01  9.63640046e-02  8.04247606e-02 -3.13508111e-01
 -2.60128533e-01  6.22861099e-01  2.31556880e-01 -3.51227483e-01] [-0.80452491 -0.77526058  0.59602122  0.14732624 -0.25720418 -0.77500581
 -0.61636834 -0.19893098  0.36717723 -0.68060615  1.07483853 -0.92772498
  0.79877868 -0.2048824  -0.07692442  0.78128371 -0.0136601  -0.48492081
  0.05596086 -0.34280676  0.33076099  0.73609826  0.50261069 -0.71985901
  0.60447946  0.17689913 -0.35817109  0.25218067 -0.14188647  0.91326836
 -0.57721894  0.85431    -0.0854607  -0.08718288  0.92736617 -0.07151461
 -0.85635718  0.85339597  0.63779549  0.34339064 -0.17027707  0.28921929
  0.47045124 -0.56735846  0.07694369 -0.56222574 -0.24097447 -1.13705767
 -0.01182465  0.31462852 -0.14383281  1.02946163 -0.2501187  -0.47057307
 -0.70192578  0.13500164  1.0541187  -0.19416275 -1.23209602  0.63119828
  0.5697445  -0.16204439 -0.71517293  0.14398809] [-0.04549661 -0.53426217 -0.27893488 -0.09273637 -0.6869283  -0.67009863
  0.00576881  0.05861929 -0.73491172 -0.15017333 -0.5497305  -0.0775709
  0.30838235  0.18250777  0.06122059 -0.55131122  0.0271471  -0.4913442
  0.36934943 -0.16461169 -0.18439254 -0.67837696 -0.49854507 -0.62934036
  0.13122473 -0.85972425  0.01045598 -0.88266052  0.15669665  0.0527097
  0.79373756  0.54509419  0.13333395  0.95699535 -0.14867209 -0.432388
 -0.10179648 -0.34157928  0.67288521  0.43039356  0.59706518  0.06986922
 -0.07576637  0.53381941 -0.5889841  -0.75054115  0.42662622  0.5965394
  0.74552661 -0.07553403  0.75388236 -0.03118637 -0.10655648  0.75544206
  0.22501484  0.56123134 -0.24840036  0.75991055 -0.10674227  0.9361336
  0.49768243  0.14401035 -0.34638967  0.15304056] [ 0.68681796  0.54160874 -0.50596107 -0.91884452 -0.78218217 -0.89440625
 -0.79994212  1.07761555  0.83502869 -0.07518213 -0.31660708  0.01012305
 -0.69107319  0.38090618  0.83127668 -0.84315868 -0.48649487  0.61142514
 -0.55632343 -0.1143983   0.15418317  0.56746735 -0.97733063  0.62496992
 -0.60074769  0.09637851 -0.61522608  0.0411728  -0.51551264  0.78223083
 -0.50917784 -0.44326008 -0.3823277  -0.51795155 -0.96428509 -0.32593881
  0.25807372 -1.31935211 -1.45472168 -0.41089182  0.32609381 -0.82375656
  1.15133011 -0.10166413  0.20891674  0.71117223 -0.50613807  0.48860988
 -0.04697377  0.87559726 -0.68671256 -1.00963902  0.6055962  -0.56873275
 -0.35701487  0.18335391  0.40026     0.79892332 -0.77511323 -0.31572344
  0.88862989  0.09888509  0.68907074  0.67518191] [ 0.95985915 -0.29595828  0.24229163  1.21965857 -0.42696349  0.26592961
  0.62072859  0.90564827 -0.75699302 -0.80764902  0.57824697  0.81927748
 -0.30582562 -0.62857687 -0.45886639 -0.13526413 -0.54425504  0.09315449
 -0.67581406 -0.50781491 -0.42833987 -0.45646276 -0.93649256  0.45973705
 -0.8596391  -0.60058795  0.85330324  0.26959713 -0.51927839  0.32342732
  0.36483324  0.87619142 -0.18704529 -0.66670887 -1.20101417 -0.24503808
  0.84819951  0.29764453 -0.52918007  0.89919228 -0.73826175  1.1141142
  0.69921429  1.16507047 -0.30193664 -0.04964813 -1.03190271  1.07935357
  0.45327184 -0.46566883  0.10519518 -0.6648918  -0.09281836  0.69225547
  0.58201126  0.19628114  0.56836863 -0.56797351 -0.66716046 -0.85460801
  1.10623208  0.90097342  0.40595289  1.01472968] [ 0.57210974 -0.97846499 -0.77966297  1.23309387  0.31362862  0.28630909
 -0.46847345 -0.33668412  0.89182554 -0.03676275 -0.09346402 -0.14642901
  0.99396006 -0.13535606  0.23339473 -0.73467627 -0.35388314 -0.10474939
  0.01229593  0.61560934 -0.3910424   0.81662422  0.52552341  0.88596495
 -0.04188478 -0.14240299  0.91689389  0.71777605 -0.5658458  -0.4610427
  0.00242018  0.1324471   0.27281058 -0.38859048  0.29373391  0.21256268
 -0.63990708 -0.33515324  0.75859589  0.1368752  -0.09400815  0.86821313
  0.52381586  0.46379032 -1.09491211  0.49056158 -0.52493019  0.02413186
  0.91807944 -0.70852568  0.03450512  0.47910439  0.94808074  0.51795583
  0.50142461 -1.59368382 -0.9158116  -0.151775   -1.38402615 -1.05858529
 -0.6812656  -0.98431649 -0.58982597  0.31770014] [-0.06124824 -0.49133869 -0.79590276  0.46507788 -0.30247601  0.44352302
 -0.90286371 -0.59375996  0.17044018 -0.23865244 -0.27380476  0.25642228
 -0.22548754 -0.25911823 -0.2360739  -0.8864883  -0.17560164  0.42729251
  0.24326482 -0.72702577 -0.54780331 -0.02511387  0.72733387 -0.30752531
  0.84777551 -0.45729781  0.5375956   0.37769833  0.34793026 -0.10411798
  0.13082524  0.56567175  0.60592014  0.27563268 -0.54708931  0.87740301
 -0.31325929  0.82744495  0.13366049  0.40329401 -0.16251356 -0.76854962
 -0.48523447  0.00751038  0.61050537 -0.50029249 -0.8132114  -0.79743162
 -0.74262249 -0.05729819 -0.6746308  -0.04925683  0.25142247  0.81051303
 -0.73255014  0.16620018  0.76624994 -0.90013169  0.60481215  0.25431104
 -0.07963469 -0.72627553 -0.39288311  0.72284314] [ 0.68057921 -0.53359386  0.22862091  0.17927938  0.68209079  0.05873315
  0.32173165 -0.80377818 -0.40450011  0.15891337  0.45154931 -0.87408507
 -0.25372336 -0.74816622  0.16820651  0.27152487 -0.59602491 -0.1517366
 -0.69747945  0.69282333 -0.33121865  0.83147657  0.66024455  0.86305253
 -0.60051356  0.05252209 -0.56263914 -0.88591685 -0.44060855 -0.65818321
  0.32346348  0.50896588 -0.26623964 -0.95563635  0.68270985 -0.50047629
 -0.06709678  0.29415597  0.32031765 -0.80356356 -0.84752858 -1.02213351
 -0.16658898 -0.75249031  0.49445236  0.30570454  0.69003177  0.54100482
 -0.66766353 -0.71084162 -0.4335331  -0.54423058  0.01330433 -0.26726165
  0.40259366  0.96658395 -0.97550541  0.92933686  0.34954441 -0.67600327
 -0.61491293  0.87512156 -0.89818952  0.99282995] [ 1.41616007 -0.78689562  0.83613213 -0.16300149  0.48186229  0.42632077
 -0.0438004   0.23875826 -0.28427036  0.41618566  0.04272089 -0.85612464
 -0.49827214 -0.39848727  1.21033727 -0.0139298   0.87384146 -0.69988759
 -0.76393591  0.19130493 -0.68103148 -0.62478325  0.86194216  0.13154472
  0.05951149  0.25920217  0.31684941 -0.91284494  0.51061406 -0.94277854
  0.44968619 -0.54135665  0.73855043  0.77085645 -1.03081598 -0.60446316
 -0.08701566  0.50256671 -0.85193014 -0.45330569 -0.43897049 -0.60806063
 -0.51795241 -0.64282232 -0.41910279 -0.0437873   0.31649532  0.32005232
  0.60270527  0.07135342  0.62991974 -0.6392046   0.65484888 -0.1405005
  0.89973912 -0.0453377  -0.41607373  0.68709628  0.65103768  0.00382422
 -0.81761237 -0.64676437 -0.54266069  0.03042766] [ 1.11437146 -0.58621825  0.40614091  0.86687919  0.59008205 -0.58683516
  0.28434403  0.91358789 -0.56252537  0.77775617 -0.09700922 -0.89976467
  0.18930573 -0.23096949 -0.6138759  -0.55503683  0.0955685  -0.23828559
 -1.18048063 -0.08356134 -0.87933165 -0.5181758   0.61332833  0.39419527
 -0.2880426   0.18504174 -0.6830956   0.08866936  0.80292632 -0.72439214
  0.27638921  0.96022105 -0.58644871 -0.95723433 -0.2827166  -0.7352413
 -0.84496699 -0.39185726  0.31424805  0.84810296 -0.54732192 -0.68689775
 -0.22671639 -0.60023157  0.84260423 -0.18616262 -0.6338433  -0.4463512
  0.66120059  0.62202745 -0.09194976 -0.674976   -0.02907099 -0.29115372
  0.36560284  0.50266289  0.4028429   0.68318789 -0.39855881 -0.85632172
  0.12609842 -0.31796489 -0.72410571 -0.03973656] [-0.81615745  0.67585766 -0.28503553 -0.24985561  0.24613005 -0.824105
 -1.04150844 -0.49702787  0.40825983  0.08066968  0.51596463  0.12146836
  0.61255475  0.44884284  1.14274831  0.46469202  0.1717952   0.44568707
 -0.85516514  1.00473996  0.21143819 -0.36220456  0.17740846  0.87634299
 -0.5755789  -0.20902436 -0.0475368   0.14139466 -0.22918967 -0.93937055
 -0.99651626 -0.42085789 -0.41237388 -0.05810504 -0.17694962  0.05491073
 -0.97834903 -0.7048176   0.23837984  0.3491573   0.6695329   0.02456651
  0.2659267  -0.08442764  0.47550177  0.21424594  0.06996715  0.73460473
 -0.7656367  -0.85537549  0.78269878 -0.48857222 -0.46391018 -0.51459763
  0.6276009  -0.58193685 -0.58854104  0.76605751 -0.11097109 -0.68888267
  0.85487362 -0.53955535  0.61981976 -0.28531567] [-0.53614323 -0.50034129  0.09073374 -0.63317095 -0.34196887  0.18428713
  0.12534977 -0.59687222 -0.34790011 -0.57059926 -0.72501994  0.46336633
  0.07180631 -0.41797755 -0.11778941  0.44129709  0.33045618  0.54294651
 -0.96400897  0.23630853  0.13538953  0.41989836 -0.51256662  0.19380769
 -0.59016583  0.96945475  0.6912259  -0.68855099 -0.68829779 -0.92038748
  0.28566607 -0.45522596 -0.59627834 -0.7139887   0.01190754  0.35873335
 -0.84960438  0.27561874  0.90369131  0.94130849 -0.8157311  -0.5589057
  0.95021812 -0.27495093 -0.54747962 -0.13681958 -0.46059521  0.5081914
 -0.17839727  0.6156836   0.7202283  -0.21504625 -0.09483815  0.68783491
  0.81778439  0.0798261   0.08881682  0.06915807 -0.52966714  0.78419639
 -0.09143434 -0.70537636 -0.85553978 -0.67338889] [-0.85439044  0.82120241 -0.20693129  0.76921286 -0.22816768  0.39855443
  1.17622794 -0.84970516  1.24655881 -0.5492307   0.24044189  0.27743317
 -0.25315845  0.50161147 -0.20872452  0.53551871 -0.90915489  0.43789322
  0.98094699  1.04986925 -1.1229167  -0.02913692 -0.4107142  -0.57731456
 -0.51026614 -1.08447575 -0.86868158 -0.19876528 -0.09632755 -0.70039798
 -0.38477503  0.86206885  0.24174237  0.03442187  0.41670946 -0.38950411
  0.71281254 -0.08616996 -0.29174927  0.25519192 -0.10821251  0.65521251
 -0.2998398  -0.46241862  1.34770337 -0.02530302  0.36422539 -0.83210552
 -0.41739504 -0.47449209 -0.6351307   0.81520489 -0.72748362 -0.80065491
 -0.17894333  0.68024598  0.0495095  -0.10174048 -0.5105656   0.28392921
  0.15229248 -0.17484881 -0.78322091  0.62007379] [ 0.90010008 -0.55156961  0.18281792  0.58640167  0.59351536  0.27665728
 -0.96542096  0.35049503 -1.01802449 -0.32004783  0.1871133  -0.07385737
  1.16934666  0.16577312  0.16034387  0.01522656 -0.50254553  0.07081352
 -0.41810853  0.55747381  0.59132798 -0.17606423  0.73982863 -0.69155979
 -0.62796488  0.66388473 -0.11428833  0.96632505  0.85055869  0.45131587
  0.46315228  0.35074592 -0.4527941  -0.07787047 -0.93573531 -0.35885866
  0.57944317  0.38789903  0.37432745 -0.87871309  1.1520747   1.04933393
 -0.20951733 -0.48360928  0.50522402  0.219324   -0.34803513 -0.10633775
  0.80973177  0.66928737 -0.38197253 -0.10649915  0.33206565  0.16800308
 -0.96630408 -0.2959009  -0.67505282  0.121383    0.14143186  0.340061
 -0.70367564 -0.98741866 -0.29660534 -0.91613987] [ 0.92806908 -0.08012675 -0.05787074  0.26531216  0.4704489   0.51260457
  0.26802313 -0.24468839 -0.4408177   0.05455677 -0.73474719 -0.33275872
  0.39399034 -0.93031888 -0.32186613 -0.85367873 -0.76998475 -1.05646029
  0.22397253 -0.59252589  0.17088513  1.13183142 -0.68894705  0.68347117
  0.82262922  0.93694111 -1.25007138 -0.15584199  0.68488696 -0.82665219
  0.37792899  0.2357684   0.18594853 -0.39523313  0.33753863 -0.541361
 -0.90702467 -0.59860566 -0.22543043  0.49819757 -0.66228689  0.38542415
  1.08014652  0.93449641  0.22223056  0.44867665 -0.29238766 -0.75812299
 -0.60221928  0.71465662 -0.59061063 -0.54658182  0.03837343 -0.54520816
  0.35483528 -0.59454532 -0.63066613 -0.07032277 -0.16215427  0.10142641
  1.04590251 -0.56015484  1.01537254 -0.44741647] [-0.80372117 -0.62533088  0.04414756 -0.41607217 -1.12032549  0.11786213
 -0.24496861 -0.32071703 -0.42097428  0.69418392 -0.25534643 -0.50878737
 -0.46283114 -0.34133433 -1.10987637 -0.74417971 -0.02209216  0.76588939
 -1.03347487 -0.4546116   0.19104732  0.06571469 -0.40916895  0.92881686
  0.12620112  0.74631259  0.17109807 -0.86035013  0.64407693  0.18065828
  0.64203675  0.11089997  0.22012427 -0.36943582 -0.21340553  0.55079832
 -0.63836447  0.70383488  0.22867049  0.80095662 -0.19981391  0.71231444
 -0.93467581  0.15697659  0.92578011  0.03884514  0.49347229  0.42280594
 -0.3505137  -0.22588089 -0.27415426 -0.56484526 -0.33129815 -0.67876941
 -0.62072064  1.18563155  0.21672752  0.54546249  0.51844331  0.35002126
 -0.15017257  0.82401934  0.2079573   0.77881742] [-0.16482511  0.00892462 -0.19261395 -1.07872608 -0.85010957  0.09058789
  0.25118216 -0.69527885  0.27946786 -0.73015352 -0.91237193 -0.61933144
  0.59213497 -0.42739791 -0.21109858 -0.30527437  0.46764425  0.81447346
 -0.73892358 -0.92501574  0.29419603 -1.01640498  0.87758654 -0.01946433
 -0.39662419 -0.38978705 -0.57570293  0.07158295  0.81760364  0.01928098
 -0.72908943 -0.06185825  1.12213094 -0.72208065  1.07208782 -0.78921274
 -1.11767125 -0.34116061  0.80272605  0.1674377  -0.03794304  0.45505285
  0.03678357 -0.6598421  -0.30932262  0.18326388  0.4477604   0.30447391
  0.00478338  0.62308263  0.21684799  0.74379338 -0.55719323  0.73359963
 -0.13240448  0.26850347  0.04279593 -0.68822602 -0.42798991  0.37479779
 -0.33713581 -0.87674299 -0.28230025  0.13759081] [-0.86236098  0.83072658 -0.01539729  0.09033194 -0.63922382 -0.85939107
  0.67028242  0.54584032  0.96526577  0.31199301 -0.57218513  0.20024125
 -0.11705305 -0.50169739  0.91197229  0.06767331  0.70467156  0.31150609
  0.0244896   0.12440407 -0.43710408 -0.00655988  0.02765071 -0.42607777
 -0.57211393  0.68305531  0.02244441  0.27474271  0.43863627  0.38950318
 -0.38609109 -0.18548131 -0.55696198 -0.70513762  0.40699155  0.86598124
 -0.51692168  0.51811056 -0.7119865   0.49556649  0.88736153  0.04762835
  0.42195377 -0.27581466  0.56131087  0.55846965  0.54830634  0.23212987
  0.43308497  0.08977225  0.77583233  0.10269811 -0.47285472  0.26042821
  0.60235516 -0.3513542   0.27344056 -0.08258577 -0.04032653  0.91702951
 -0.98112068  0.74389805  0.66732886  0.85738344] [-0.52854153 -0.41945258  0.6183067   0.39705455 -0.93893306  0.52220861
 -0.56965821  0.66226001  0.29919123  0.38644776 -0.52086956 -0.53416994
 -0.09848578 -0.04736046 -0.57076198 -0.63006759  0.95113539 -0.90213063
 -0.10601721  0.33686252  0.37276932 -1.0000625  -0.68537897  0.80010037
 -0.9677565   0.63292611 -0.61676478 -0.27343662 -0.2621262  -0.79682717
  0.9419211   0.12667472  0.87549015  0.75534891  0.59407967  0.62156303
  0.92254398  0.61774784 -0.49086655  0.30544283  0.74823041 -0.36135954
  0.8547867   0.53336301 -0.24512562  0.41484918  0.39186465  0.28216818
  1.01331522  0.95793152 -0.80075605  0.52224618  0.07610964 -0.56293289
 -0.14480615  0.54190101 -0.01081537  0.33933805 -0.10402738  0.47358381
 -0.48465146 -0.97776734 -0.37220124  0.97218914] [ 0.76449436  0.18627249  0.88010953  0.80167844 -0.21966459  0.70341072
 -0.07179578  0.69434271 -0.23888291 -0.23036199  0.719308   -0.71965947
  0.83382415 -0.50105501  0.42108136 -0.24167734  0.45457046  0.67892318
  0.10329951  0.03048099 -0.46450091  0.6072036   0.33975573  0.26755568
  0.22022069 -0.92755345  1.06987773  0.04350596 -0.62582864  0.55372099
 -0.58292493  0.99964862  0.63627195 -0.94061519 -0.78030245  0.31334072
 -0.26460024 -0.46274781  0.35427429 -0.75795132 -0.68631939  0.14756839
  0.44861807  0.94906369 -0.33121862 -0.33317369  0.39895286  0.48759258
  0.93959637  0.08860011  0.4251188   0.29613214 -0.6484662   0.21313037
 -0.05632814  0.39096711  1.02607081  0.17750486  0.39017285  0.71736882
 -0.1916114   0.06321197  0.57790067 -0.39960977] [ 0.45953217  0.56151637  0.38682608 -0.69200498 -0.39998401 -0.52444014
 -0.38673655 -0.94433892 -0.06181011  0.60513503 -0.26159472  0.36498511
 -0.33334114 -0.17539503  0.29142993 -0.42742767 -0.52566953  0.45337817
  0.69960911 -1.23391583  1.40577416  0.67742264 -0.97385964  0.02828492
  0.29075375  0.7084376   0.19673027 -0.04764325  0.49417641  0.71767555
  1.49250498 -0.39164071 -0.24648654 -0.10637309 -0.27285937  0.2577769
 -0.51462009  0.67140053 -0.16287492 -0.19264238 -0.91455943  0.39521458
  0.66043278  0.14234411  0.80840626  0.15523763 -0.82546341  0.63105882
  0.52161207 -0.81067774 -0.03984685  0.79253918 -0.96112839  0.19892712
 -0.29772272 -0.70639687 -0.25374383  0.50606147 -0.32193219 -0.74336347
  0.17901594  0.43290414  0.79924531 -0.06505265] [ 0.44282973  0.57263973  0.33295005 -0.58044447  0.71974534 -0.01391618
  0.91454206 -0.19105593  0.76028234  0.23978837 -0.10301223 -0.40547844
 -0.17327763  0.79712044 -0.00930288 -0.38247848 -0.19793832  0.43221189
  0.78794863 -0.64215399 -0.70437001  0.83398003 -0.00711094  0.40421797
 -0.59570526 -0.33756877 -0.85004021 -1.08419985  1.23122528  0.45679645
 -0.80159655  0.88922579 -0.67884896 -0.50178518 -0.75828026  0.51092281
 -0.80611253 -0.68128411  0.07614796 -0.85600529 -0.96549477  0.47501029
  0.3025832  -0.06035835  0.01672108  1.13179583  0.13273291 -1.04491736
 -0.87164183  0.421156    0.30159996  0.62703615 -0.83606038  0.21211065
 -1.08578009 -0.62305397 -0.59471872  0.84224835 -0.1847782  -0.39099148
  1.50522789  0.3175454  -0.33054037  0.16739645] [ 0.22156606  0.64142588  0.12898776 -0.01094992 -0.00551276 -0.68297126
 -0.29050777 -0.77427769  0.46742991  0.29251516 -0.90040762 -0.16911971
 -0.13333299 -0.95161092 -0.75315527  0.7961466  -0.5974227   0.31533548
 -0.91506995  0.05383311  0.61762837  0.36037128  0.67507819  0.09403483
  0.19487244  0.36893168  0.24916654  0.32661648  0.40435806 -0.39147706
 -0.17336026 -0.28069345  0.85597562  0.37659157  0.31202947 -0.16768866
 -0.69028912  0.73595053  0.08866455 -0.36120397 -0.09065308 -0.51093692
  0.65757558  0.3121962  -0.92374586  0.0449292   0.42493922 -0.99524543
 -0.51067924  0.10021488  0.96085118 -0.72595883  0.52717575  0.54184833
  0.38525639 -0.40193846 -0.8042472   0.02389772  0.24529358 -0.74074287
 -0.81070547 -0.67951654  0.96838995 -0.44253309] [ 0.57588854  0.86795751  0.9627246  -0.56802812 -0.68644655  0.68947555
 -0.82725271  0.40175212  0.78210734  0.34490321 -0.78145787 -0.76244246
  0.45345685  0.29131735 -1.0741521   0.34791899 -0.55433395  0.11466615
  0.82481802  0.06438404  1.03692533  0.84277669  0.28941424  0.88667309
  0.81261866 -0.11618244 -0.53548715 -0.30372737 -0.71531023  0.39086811
  1.270604   -0.89744981 -0.71168913  0.32563268 -0.61590533 -0.01397818
 -0.59080509  0.14582698  0.39980578 -0.09047205 -0.65923475 -0.78035201
 -0.11546522 -0.44411827  1.00223396  0.49736323 -0.67081909 -0.53563586
  0.44165775  0.57098039  0.89739361 -0.67388561 -0.59539417  0.70505807
 -0.64872982  0.49476411 -0.94853524  0.97660138 -0.0463427  -0.38209226
  0.80860084  0.80670578 -0.76102109 -0.32985336] [ 0.2876485  -0.3572418   0.33754497  0.57965661  0.8457997   0.52393582
 -0.08191173  0.33276737 -0.1426281  -0.93054077 -0.21510499 -0.0451611
  0.20893529 -0.38063289  0.71850075 -0.90939583  0.95594572  0.02592409
  0.56162025 -0.95481409 -0.41122897 -0.96794081 -0.40806944 -0.68163913
  0.93735355  0.86970928 -0.82064153  0.36162515 -0.32243852  0.20092797
  0.1664064   0.3886824   0.19492681  0.80474517  0.02892633  0.31514114
 -0.84159965 -0.59718679  0.48604095 -0.8552706   0.17335133 -0.6599186
  0.69310667  0.85010331 -0.44709407 -0.20142868 -0.03291646 -0.17713974
 -0.32627848 -0.20330685 -0.99189563  0.39468178  0.66497732 -0.64488226
 -0.04793291 -0.90524218 -0.32351415  0.83752117 -0.34969063 -0.75687388
 -0.94368089 -0.40103335  0.26566647  0.84473082] [ 0.19378859 -0.82960698 -0.91858505 -0.73995926  0.76260281  0.75121331
  0.31436401 -0.26528473 -0.52066309 -0.27189445  0.16615368  0.08305782
 -0.17830824  0.16191857  0.47289784  0.14842663 -0.37031158  0.0891867
 -0.95184043  0.01513809 -0.05015423 -0.2316778  -0.02465252 -0.10859363
  0.06407689  0.40296695 -0.1006109   0.4507964   0.50994447 -0.83658181
 -0.5996125  -0.59499096 -0.68255903  0.21321633  0.99848456  0.04144811
 -1.22109144  0.70000643  0.14444689  0.46582564 -0.28356692  0.22499394
 -0.52435004  0.48141893  0.62059473 -0.67948527  0.40792424  0.07903539
  0.91424016  0.41483567 -0.52376752 -0.68571138  0.51848957  0.38972092
  0.05157381 -0.05242412  0.67699514 -0.54522556  0.5573169  -0.02024771
 -0.6980789   0.38399729 -0.28730051  0.30687986] [ 0.6826788   0.27514332 -0.07248914  0.159812   -0.27303311  0.66460319
  0.9261326   0.47052707 -1.33325795  0.47684132 -1.44106809  0.50529052
 -0.23181265  1.01027943 -0.44497659 -0.50899907 -0.45370058 -0.45696091
 -1.36889735  0.41444637 -0.51486263 -0.62730215 -0.99906234  0.16383587
  0.45870529  1.25842468  0.12680061  0.31766685  0.14426685  0.89758
  0.81274481  0.80669187  1.10529453 -0.69694519  1.03966677 -0.52993388
 -0.54045119  0.30261158 -0.11196547 -1.04467088 -0.69667307  0.10885012
  0.00954547 -0.10741294 -0.02097568  0.9163438  -0.22604484 -0.4457332
  0.3412838   0.42549642  0.37142088  0.35012844 -0.77568485  0.31356763
 -1.08240254  0.42420457  0.26640732 -0.72789307  0.54442163 -0.75557381
